{"learner":{"attributes":{"scikit_learn":"{\"_estimator_type\": \"regressor\"}"},"feature_names":[],"feature_types":[],"gradient_booster":{"model":{"gbtree_model_param":{"num_parallel_tree":"1","num_trees":"100"},"iteration_indptr":[0,1,2,3,4,5,6,7,8,9,10,11,12,13,14,15,16,17,18,19,20,21,22,23,24,25,26,27,28,29,30,31,32,33,34,35,36,37,38,39,40,41,42,43,44,45,46,47,48,49,50,51,52,53,54,55,56,57,58,59,60,61,62,63,64,65,66,67,68,69,70,71,72,73,74,75,76,77,78,79,80,81,82,83,84,85,86,87,88,89,90,91,92,93,94,95,96,97,98,99,100],"tree_info":[0,0,0,0,0,0,0,0,0,0,0,0,0,0,0,0,0,0,0,0,0,0,0,0,0,0,0,0,0,0,0,0,0,0,0,0,0,0,0,0,0,0,0,0,0,0,0,0,0,0,0,0,0,0,0,0,0,0,0,0,0,0,0,0,0,0,0,0,0,0,0,0,0,0,0,0,0,0,0,0,0,0,0,0,0,0,0,0,0,0,0,0,0,0,0,0,0,0,0,0],"trees":[{"base_weights":[4.203854E-8,-3.7069497E0,3.4566105E1,-4.016645E0,7.897977E0,4.182164E0,1.0479074E1,-4.6853657E0,-1.871141E0,2.7321768E0,3.4219627E0,-4.838674E0,-1.8541176E0,-2.2308934E0,7.533587E-1,7.5356674E-1,3.1898415E0,-1.4981817E0,-1.3335712E0,-8.5972244E-1,-9.714573E-1,-2.544474E0,-9.675425E-2,-4.7174937E-1,9.837517E-1,4.704715E-1,-1.3136645E-1,3.0146998E-1,1.1588515E0,-4.2717434E-2,-3.0431235E-1,-1.0563174E0,-6.754338E-1,3.5257825E-1,-5.346072E-1,-5.488677E-1,1.7721206E-1,-1.15875654E-1,3.8505083E-1],"categories":[],"categories_nodes":[],"categories_segments":[],"categories_sizes":[],"default_left":[0,0,0,0,0,0,0,0,0,0,0,0,0,0,0,0,0,0,0,0,0,0,0,0,0,0,0,0,0,0,0,0,0,0,0,0,0,0,0],"id":0,"left_children":[1,3,5,7,9,-1,-1,11,13,15,-1,17,19,21,23,25,27,-1,-1,-1,29,31,33,35,37,-1,-1,-1,-1,-1,-1,-1,-1,-1,-1,-1,-1,-1,-1],"loss_changes":[1.0186718E5,2.612209E3,9.136719E1,9.9555273E2,3.1320178E2,0E0,0E0,2.223789E2,1.6030121E2,5.7461014E0,0E0,8.649414E0,2.311074E1,9.879907E1,6.391466E0,3.5986462E0,6.4114456E0,0E0,0E0,0E0,4.604416E-1,2.8987976E1,4.4968105E1,6.851186E0,7.887636E0,0E0,0E0,0E0,0E0,0E0,0E0,0E0,0E0,0E0,0E0,0E0,0E0,0E0,0E0],"parents":[2147483647,0,0,1,1,2,2,3,3,4,4,7,7,8,8,9,9,11,11,12,12,13,13,14,14,15,15,16,16,20,20,21,21,22,22,23,23,24,24],"right_children":[2,4,6,8,10,-1,-1,12,14,16,-1,18,20,22,24,26,28,-1,-1,-1,30,32,34,36,38,-1,-1,-1,-1,-1,-1,-1,-1,-1,-1,-1,-1,-1,-1],"split_conditions":[1.6023591E7,4.387859E6,2.1412646E7,1.43947E5,4.17E2,4.182164E0,1.0479074E1,1.14E2,1.78E2,5.351442E6,3.4219627E0,1.1433E4,1.77E2,1.834929E6,1.96E2,6E0,3E0,-1.4981817E0,-1.3335712E0,-8.5972244E-1,1.94E2,2.7E1,4E0,1.142217E6,2.64707E5,4.704715E-1,-1.3136645E-1,3.0146998E-1,1.1588515E0,-4.2717434E-2,-3.0431235E-1,-1.0563174E0,-6.754338E-1,3.5257825E-1,-5.346072E-1,-5.488677E-1,1.7721206E-1,-1.15875654E-1,3.8505083E-1],"split_indices":[1,1,1,1,0,0,0,0,0,1,0,1,0,1,0,0,0,0,0,0,0,0,0,1,1,0,0,0,0,0,0,0,0,0,0,0,0,0,0],"split_type":[0,0,0,0,0,0,0,0,0,0,0,0,0,0,0,0,0,0,0,0,0,0,0,0,0,0,0,0,0,0,0,0,0,0,0,0,0,0,0],"sum_hessian":[7.93E2,7.17E2,7.6E1,6.99E2,1.8E1,2E0,7.4E1,5.32E2,1.67E2,8E0,1E1,5.04E2,2.8E1,1.47E2,2E1,2E0,6E0,3.53E2,1.51E2,1.2E1,1.6E1,1.28E2,1.9E1,3E0,1.7E1,1E0,1E0,2E0,4E0,1E0,1.5E1,2.7E1,1.01E2,1.1E1,8E0,1E0,2E0,3E0,1.4E1],"tree_param":{"num_deleted":"0","num_feature":"3","num_nodes":"39","size_leaf_vector":"1"}},{"base_weights":[1.7415628E-2,-2.5960255E0,2.4386679E1,-2.820301E0,5.8033934E0,5.681554E0,7.948933E0,-3.2576613E0,-1.1810849E0,2.1124601E0,8.295667E0,-3.3436692E0,-6.689376E-1,-1.4137951E0,8.416806E-1,6.405317E-1,2.4415064E0,2.6314502E0,5.306003E-1,-3.477922E0,-3.0459166E0,-2.5941768E-1,-4.4793501E-1,-1.6572578E0,-1.6676845E-1,1.1496984E0,1.367011E-1,3.999008E-1,-1.1166151E-1,2.41176E-1,8.807272E-1,-1.0502332E0,-6.9768536E-1,-9.233468E-1,-2.7613398E-1,-3.6309816E-2,-1.405566E-1,-7.6660687E-1,-4.4428694E-1,2.5561923E-1,-3.515111E-1,-5.9240915E-2,3.912487E-1,-7.521991E-2,1.8231389E-1],"categories":[],"categories_nodes":[],"categories_segments":[],"categories_sizes":[],"default_left":[0,0,0,0,0,0,0,0,0,0,0,0,0,0,0,0,0,0,0,0,0,0,0,0,0,0,0,0,0,0,0,0,0,0,0,0,0,0,0,0,0,0,0,0,0],"id":1,"left_children":[1,3,5,7,9,-1,-1,11,13,15,17,19,21,23,25,27,29,-1,-1,31,33,-1,35,37,39,41,43,-1,-1,-1,-1,-1,-1,-1,-1,-1,-1,-1,-1,-1,-1,-1,-1,-1,-1],"loss_changes":[5.063129E4,1.3689253E3,3.832578E2,4.9800195E2,1.572533E2,0E0,0E0,1.20666016E2,7.132695E1,2.7951317E0,1.8649475E1,1.0752441E1,4.3478298E-1,4.0406616E1,3.317175E0,2.6000223E0,3.3055305E0,0E0,0E0,1.3662109E0,8.966919E0,0E0,1.7322779E-2,1.3949249E1,2.4547163E1,2.546507E0,1.2472899E0,0E0,0E0,0E0,0E0,0E0,0E0,0E0,0E0,0E0,0E0,0E0,0E0,0E0,0E0,0E0,0E0,0E0,0E0],"parents":[2147483647,0,0,1,1,2,2,3,3,4,4,7,7,8,8,9,9,10,10,11,11,12,12,13,13,14,14,15,15,16,16,19,19,20,20,22,22,23,23,24,24,25,25,26,26],"right_children":[2,4,6,8,10,-1,-1,12,14,16,18,20,22,24,26,28,30,-1,-1,32,34,-1,36,38,40,42,44,-1,-1,-1,-1,-1,-1,-1,-1,-1,-1,-1,-1,-1,-1,-1,-1,-1,-1],"split_conditions":[1.6023591E7,4.387859E6,2.6245044E7,2.27954E5,4.17E2,5.681554E0,7.948933E0,1.77E2,1.96E2,5.351442E6,9.68E2,1.0648E4,5.372E3,1.551752E6,7.30962E5,6E0,3E0,2.6314502E0,5.306003E-1,1.14E2,1.08E2,-2.5941768E-1,1.94E2,2.2E1,4E0,2.64707E5,9.35008E5,3.999008E-1,-1.1166151E-1,2.41176E-1,8.807272E-1,-1.0502332E0,-6.9768536E-1,-9.233468E-1,-2.7613398E-1,-3.6309816E-2,-1.405566E-1,-7.6660687E-1,-4.4428694E-1,2.5561923E-1,-3.515111E-1,-5.9240915E-2,3.912487E-1,-7.521991E-2,1.8231389E-1],"split_indices":[1,1,1,1,0,0,0,0,0,1,0,1,1,1,1,0,0,0,0,0,0,0,0,0,0,1,1,0,0,0,0,0,0,0,0,0,0,0,0,0,0,0,0,0,0],"split_type":[0,0,0,0,0,0,0,0,0,0,0,0,0,0,0,0,0,0,0,0,0,0,0,0,0,0,0,0,0,0,0,0,0,0,0,0,0,0,0,0,0,0,0,0,0],"sum_hessian":[7.93E2,7.17E2,7.6E1,6.99E2,1.8E1,2.4E1,5.2E1,5.51E2,1.48E2,8E0,1E1,5.33E2,1.8E1,1.33E2,1.5E1,2E0,6E0,9E0,1E0,3.6E2,1.73E2,8E0,1E1,1.11E2,2.2E1,1E1,5E0,1E0,1E0,2E0,4E0,3.51E2,9E0,1.7E2,3E0,1E0,9E0,1.6E1,9.5E1,1.1E1,1.1E1,1E0,9E0,3E0,2E0],"tree_param":{"num_deleted":"0","num_feature":"3","num_nodes":"45","size_leaf_vector":"1"}},{"base_weights":[2.976176E-2,-1.8167709E0,1.7247694E1,-1.9802841E0,4.3030167E0,4.045266E0,5.6092467E0,-2.3168986E0,-9.2539513E-1,1.6354043E0,6.0944257E0,-2.3718765E0,-5.183427E-1,-1.1068523E0,4.234346E-1,5.444519E-1,1.8693262E0,1.9209584E0,4.5101026E-1,-2.389072E0,-1.5254151E0,-1.9023967E-1,-3.4495953E-1,-1.2545332E0,-7.6815546E-2,6.6641206E-1,2.5418838E-2,3.3991563E-1,-9.49123E-2,1.9294076E-1,6.693526E-1,-7.347939E-1,-6.3864577E-1,-2.3856802E-1,-5.2847546E-1,-3.0863358E-2,-1.08708E-1,-5.4230404E-1,-3.325197E-1,1.85324E-1,-2.9830903E-1,-6.427703E-2,2.8561154E-1,-2.0659412E-1,2.2032028E-1],"categories":[],"categories_nodes":[],"categories_segments":[],"categories_sizes":[],"default_left":[0,0,0,0,0,0,0,0,0,0,0,0,0,0,0,0,0,0,0,0,0,0,0,0,0,0,0,0,0,0,0,0,0,0,0,0,0,0,0,0,0,0,0,0,0],"id":2,"left_children":[1,3,5,7,9,-1,-1,11,13,15,17,19,21,23,25,27,29,-1,-1,31,33,-1,35,37,39,41,43,-1,-1,-1,-1,-1,-1,-1,-1,-1,-1,-1,-1,-1,-1,-1,-1,-1,-1],"loss_changes":[2.5275354E4,7.2699927E2,1.6800977E2,2.4641968E2,8.083002E1,0E0,0E0,5.1177246E1,4.2321747E1,1.2790203E0,5.967041E0,3.8371582E0,1.2254095E-1,2.287326E1,2.0139468E0,1.878516E0,1.6709213E0,0E0,0E0,2.65625E0,8.409691E-1,0E0,6.322861E-4,8.666397E0,1.3360145E1,3.47403E0,5.0620823E0,0E0,0E0,0E0,0E0,0E0,0E0,0E0,0E0,0E0,0E0,0E0,0E0,0E0,0E0,0E0,0E0,0E0,0E0],"parents":[2147483647,0,0,1,1,2,2,3,3,4,4,7,7,8,8,9,9,10,10,11,11,12,12,13,13,14,14,15,15,16,16,19,19,20,20,22,22,23,23,24,24,25,25,26,26],"right_children":[2,4,6,8,10,-1,-1,12,14,16,18,20,22,24,26,28,30,-1,-1,32,34,-1,36,38,40,42,44,-1,-1,-1,-1,-1,-1,-1,-1,-1,-1,-1,-1,-1,-1,-1,-1,-1,-1],"split_conditions":[1.6023591E7,4.387859E6,2.6245044E7,1.31604E5,4.17E2,4.045266E0,5.6092467E0,1.77E2,1.78E2,5.351442E6,9.68E2,1.14E2,5.372E3,1.834929E6,7.30962E5,6E0,3E0,1.9209584E0,4.5101026E-1,3.018E4,1.22E2,-1.9023967E-1,1.94E2,2.3E1,4E0,2.64707E5,1.142217E6,3.3991563E-1,-9.49123E-2,1.9294076E-1,6.693526E-1,-7.347939E-1,-6.3864577E-1,-2.3856802E-1,-5.2847546E-1,-3.0863358E-2,-1.08708E-1,-5.4230404E-1,-3.325197E-1,1.85324E-1,-2.9830903E-1,-6.427703E-2,2.8561154E-1,-2.0659412E-1,2.2032028E-1],"split_indices":[1,1,1,1,0,0,0,0,0,1,0,0,1,1,1,0,0,0,0,1,0,0,0,0,0,1,1,0,0,0,0,0,0,0,0,0,0,0,0,0,0,0,0,0,0],"split_type":[0,0,0,0,0,0,0,0,0,0,0,0,0,0,0,0,0,0,0,0,0,0,0,0,0,0,0,0,0,0,0,0,0,0,0,0,0,0,0,0,0,0,0,0,0],"sum_hessian":[7.93E2,7.17E2,7.6E1,6.99E2,1.8E1,2.4E1,5.2E1,5.29E2,1.7E2,8E0,1E1,5.13E2,1.6E1,1.5E2,2E1,2E0,6E0,9E0,1E0,5.01E2,1.2E1,8E0,8E0,1.31E2,1.9E1,1.2E1,8E0,1E0,1E0,2E0,4E0,4E2,1.01E2,4E0,8E0,1E0,7E0,2.5E1,1.06E2,1.1E1,8E0,3E0,9E0,4E0,4E0],"tree_param":{"num_deleted":"0","num_feature":"3","num_nodes":"45","size_leaf_vector":"1"}},{"base_weights":[3.3315193E-2,-1.3012565E0,1.1960633E1,-1.3908032E0,2.6977382E0,9.198738E0,3.958223E0,-1.6086594E0,-5.7437766E-1,2.540609E-1,1.2129618E0,2.9480274E0,5.258208E0,-1.6499796E0,-3.6267713E-1,-6.9493365E-1,4.711774E-1,8.403166E-1,2.0345025E0,-5.3098375E-1,-1.5467869E0,-4.2902938E-1,-5.629216E-2,-1.0611272E0,-4.6432883E-1,7.85387E-1,2.0411296E-1,-4.7052345E-1,-2.0560215E-1,-2.6233865E-2,-1.3506223E-1,3.2118561E-3,-3.3850193E-1,6.193703E-2,-1.7701699E-1,-4.0713217E-2,2.8845653E-1,-1.7354327E-1,1.4162108E-1],"categories":[],"categories_nodes":[],"categories_segments":[],"categories_sizes":[],"default_left":[0,0,0,0,0,0,0,0,0,0,0,0,0,0,0,0,0,0,0,0,0,0,0,0,0,0,0,0,0,0,0,0,0,0,0,0,0,0,0],"id":3,"left_children":[1,3,5,7,9,11,-1,13,15,-1,-1,-1,17,19,21,23,25,-1,-1,-1,27,29,-1,31,33,35,37,-1,-1,-1,-1,-1,-1,-1,-1,-1,-1,-1,-1],"loss_changes":[1.2654348E4,2.5979114E2,1.5116211E2,1.2358032E2,3.642047E1,1.7621338E1,0E0,2.7820923E1,1.9108574E1,0E0,0E0,0E0,3.4644928E0,3.8730469E0,1.4016414E-1,1.0823059E1,1.1823196E0,0E0,0E0,0E0,4.420471E0,5.467391E-2,0E0,3.6861572E0,7.206072E0,1.26615E0,2.3700907E0,0E0,0E0,0E0,0E0,0E0,0E0,0E0,0E0,0E0,0E0,0E0,0E0],"parents":[2147483647,0,0,1,1,2,2,3,3,4,4,5,5,7,7,8,8,12,12,13,13,14,14,15,15,16,16,20,20,21,21,23,23,24,24,25,25,26,26],"right_children":[2,4,6,8,10,12,-1,14,16,-1,-1,-1,18,20,22,24,26,-1,-1,-1,28,30,-1,32,34,36,38,-1,-1,-1,-1,-1,-1,-1,-1,-1,-1,-1,-1],"split_conditions":[1.0060291E7,4.387859E6,2.6245044E7,2.27954E5,4.17E2,2E0,3.958223E0,1.77E2,1.96E2,2.540609E-1,1.2129618E0,2.9480274E0,6.22E2,8.14E2,2.4395E4,3.59632E5,4.05153E5,8.403166E-1,2.0345025E0,-5.3098375E-1,1.15E2,1.94E2,-5.629216E-2,2.41963E5,4E0,2.64707E5,5.60524E5,-4.7052345E-1,-2.0560215E-1,-2.6233865E-2,-1.3506223E-1,3.2118561E-3,-3.3850193E-1,6.193703E-2,-1.7701699E-1,-4.0713217E-2,2.8845653E-1,-1.7354327E-1,1.4162108E-1],"split_indices":[1,1,1,1,0,0,0,0,0,0,0,0,0,1,1,1,1,0,0,0,0,0,0,1,0,1,1,0,0,0,0,0,0,0,0,0,0,0,0],"split_type":[0,0,0,0,0,0,0,0,0,0,0,0,0,0,0,0,0,0,0,0,0,0,0,0,0,0,0,0,0,0,0,0,0,0,0,0,0,0,0],"sum_hessian":[7.93E2,7.14E2,7.9E1,6.99E2,1.5E1,2.7E1,5.2E1,5.51E2,1.48E2,7E0,8E0,2.2E1,5E0,5.33E2,1.8E1,1.33E2,1.5E1,3E0,2E0,2.39E2,2.94E2,1.2E1,6E0,5E1,8.3E1,6E0,9E0,2.86E2,8E0,1E0,1.1E1,3E0,4.7E1,1.3E1,7E1,1E0,5E0,2E0,7E0],"tree_param":{"num_deleted":"0","num_feature":"3","num_nodes":"39","size_leaf_vector":"1"}},{"base_weights":[3.539737E-2,-9.111484E-1,8.494708E0,-9.759326E-1,1.9801055E0,7.9745126E0,4.0744095E0,-1.1555079E0,-4.7347453E-1,6.245665E-1,2.9650173E0,2.4562678E0,4.1598816E0,-1.1810158E0,-2.8616303E-1,-6.0089827E-1,3.8620424E-2,2.2178201E-1,3.250413E-1,9.503398E-1,2.014143E-1,6.512453E-1,1.6276021E0,-1.2179027E0,-3.0754358E-1,-1.0349256E-1,-5.526869E-2,-7.1459407E-1,-1.2608507E-1,4.0421838E-1,-3.1062865E-1,-1.18784525E-1,2.0920621E-1,-3.699232E-1,-2.9453263E-1,-3.2681358E-1,-1.8580282E-1,1.17327206E-1,-1.338259E-1,3.1887308E-2,3.0960375E-1,-2.7952418E-1,2.8647793E-2],"categories":[],"categories_nodes":[],"categories_segments":[],"categories_sizes":[],"default_left":[0,0,0,0,0,0,0,0,0,0,0,0,0,0,0,0,0,0,0,0,0,0,0,0,0,0,0,0,0,0,0,0,0,0,0,0,0,0,0,0,0,0,0],"id":4,"left_children":[1,3,5,7,9,11,-1,13,15,17,19,-1,21,23,25,27,29,-1,31,-1,-1,-1,-1,33,-1,-1,-1,35,37,39,41,-1,-1,-1,-1,-1,-1,-1,-1,-1,-1,-1,-1],"loss_changes":[6.3653975E3,1.358573E2,1.0337988E2,6.261322E1,1.950953E1,2.689209E1,0E0,1.1082275E1,1.2160271E1,3.4566402E-2,2.0591736E0,0E0,3.3250427E0,1.6262817E0,3.2365084E-2,7.95356E0,4.9775825E0,0E0,1.3498507E0,0E0,0E0,0E0,0E0,2.1905518E-1,0E0,0E0,0E0,3.60915E0,5.1393666E0,3.4440098E0,5.133964E0,0E0,0E0,0E0,0E0,0E0,0E0,0E0,0E0,0E0,0E0,0E0,0E0],"parents":[2147483647,0,0,1,1,2,2,3,3,4,4,5,5,7,7,8,8,9,9,10,10,12,12,13,13,14,14,15,15,16,16,18,18,23,23,27,27,28,28,29,29,30,30],"right_children":[2,4,6,8,10,12,-1,14,16,18,20,-1,22,24,26,28,30,-1,32,-1,-1,-1,-1,34,-1,-1,-1,36,38,40,42,-1,-1,-1,-1,-1,-1,-1,-1,-1,-1,-1,-1],"split_conditions":[1.0060291E7,4.387859E6,3.2941276E7,8.8497E4,4.17E2,3E0,4.0744095E0,1.77E2,1.03E2,6E0,8.06E2,2.4562678E0,6.22E2,4.6E1,5.372E3,7.30962E5,4.33326E5,2.2178201E-1,9E0,9.503398E-1,2.014143E-1,6.512453E-1,1.6276021E0,6.2586E4,-3.0754358E-1,-1.0349256E-1,-5.526869E-2,1.3E1,4E0,3.59632E5,1.7E2,-1.18784525E-1,2.0920621E-1,-3.699232E-1,-2.9453263E-1,-3.2681358E-1,-1.8580282E-1,1.17327206E-1,-1.338259E-1,3.1887308E-2,3.0960375E-1,-2.7952418E-1,2.8647793E-2],"split_indices":[1,1,1,1,0,0,0,0,0,0,0,0,0,0,1,1,1,0,0,0,0,0,0,1,0,0,0,0,0,1,0,0,0,0,0,0,0,0,0,0,0,0,0],"split_type":[0,0,0,0,0,0,0,0,0,0,0,0,0,0,0,0,0,0,0,0,0,0,0,0,0,0,0,0,0,0,0,0,0,0,0,0,0,0,0,0,0,0,0],"sum_hessian":[7.93E2,7.14E2,7.9E1,6.99E2,1.5E1,7.4E1,5E0,5.14E2,1.85E2,7E0,8E0,6.9E1,5E0,4.99E2,1.5E1,1.48E2,3.7E1,4E0,3E0,7E0,1E0,3E0,2E0,3.98E2,1.01E2,8E0,7E0,1.19E2,2.9E1,1.8E1,1.9E1,1E0,2E0,3.7E2,2.8E1,2.2E1,9.7E1,1.1E1,1.8E1,1.3E1,5E0,7E0,1.2E1],"tree_param":{"num_deleted":"0","num_feature":"3","num_nodes":"43","size_leaf_vector":"1"}},{"base_weights":[3.5740644E-2,-6.3795114E-1,6.056414E0,-6.853946E-1,1.4775709E0,5.645293E0,3.0558069E0,-7.9556674E-1,-2.8296095E-1,3.4722498E-1,2.121056E0,1.3593352E0,1.8532859E0,-8.15149E-1,-2.0642287E-1,-3.487314E-1,2.978835E-1,5.618477E-1,-1.2622118E-1,6.689738E-1,1.7120218E-1,-2.7258396E-1,-7.670499E-1,-2.144077E-1,-9.404398E-3,-5.57506E-1,-2.1036758E-1,4.5277387E-1,3.40568E-2,5.918403E-2,2.2173981E-1,-1.0096686E-1,4.416733E-2,-2.3361655E-1,-6.876329E-2,-2.6621176E-2,-7.008779E-2,-3.015647E-2,-1.8376046E-1,-4.3739386E-2,-2.4166626E-1,7.271524E-2,3.5194224E-1,-8.482483E-2,4.019482E-2],"categories":[],"categories_nodes":[],"categories_segments":[],"categories_sizes":[],"default_left":[0,0,0,0,0,0,0,0,0,0,0,0,0,0,0,0,0,0,0,0,0,0,0,0,0,0,0,0,0,0,0,0,0,0,0,0,0,0,0,0,0,0,0,0,0],"id":5,"left_children":[1,3,5,7,9,11,-1,13,15,17,19,-1,-1,21,23,25,27,29,31,-1,-1,-1,33,35,-1,37,39,41,43,-1,-1,-1,-1,-1,-1,-1,-1,-1,-1,-1,-1,-1,-1,-1,-1],"loss_changes":[3.2243901E3,7.277557E1,7.8318115E1,3.081076E1,1.0901287E1,1.6491455E1,0E0,6.165436E0,5.9106455E0,7.822032E-1,4.1513443E-1,0E0,0E0,1.6902161E0,1.9839704E-2,3.8402157E0,6.3840735E-1,1.7734587E-1,2.2209486E-1,0E0,0E0,0E0,2.0625916E0,2.2741616E-2,0E0,1.2963848E0,3.1107533E0,1.2312274E0,2.5948367E-1,0E0,0E0,0E0,0E0,0E0,0E0,0E0,0E0,0E0,0E0,0E0,0E0,0E0,0E0,0E0,0E0],"parents":[2147483647,0,0,1,1,2,2,3,3,4,4,5,5,7,7,8,8,9,9,10,10,13,13,14,14,15,15,16,16,17,17,18,18,22,22,23,23,25,25,26,26,27,27,28,28],"right_children":[2,4,6,8,10,12,-1,14,16,18,20,-1,-1,22,24,26,28,30,32,-1,-1,-1,34,36,-1,38,40,42,44,-1,-1,-1,-1,-1,-1,-1,-1,-1,-1,-1,-1,-1,-1,-1,-1],"split_conditions":[1.0060291E7,4.387859E6,3.2941276E7,2.18559E5,2.6E1,2.6245044E7,3.0558069E0,1.77E2,1.96E2,6E0,8.06E2,1.3593352E0,1.8532859E0,2.9E2,5.11E2,3.59632E5,6.31986E5,3E0,9E0,6.689738E-1,1.7120218E-1,-2.7258396E-1,1.15E2,2.17E2,-9.404398E-3,2.41963E5,1.13E2,5.60524E5,2.49E2,5.918403E-2,2.2173981E-1,-1.0096686E-1,4.416733E-2,-2.3361655E-1,-6.876329E-2,-2.6621176E-2,-7.008779E-2,-3.015647E-2,-1.8376046E-1,-4.3739386E-2,-2.4166626E-1,7.271524E-2,3.5194224E-1,-8.482483E-2,4.019482E-2],"split_indices":[1,1,1,1,0,1,0,0,0,0,0,0,0,1,0,1,1,0,0,0,0,0,0,0,0,1,0,1,0,0,0,0,0,0,0,0,0,0,0,0,0,0,0,0,0],"split_type":[0,0,0,0,0,0,0,0,0,0,0,0,0,0,0,0,0,0,0,0,0,0,0,0,0,0,0,0,0,0,0,0,0,0,0,0,0,0,0,0,0,0,0,0,0],"sum_hessian":[7.93E2,7.14E2,7.9E1,6.99E2,1.5E1,7.4E1,5E0,5.48E2,1.51E2,6E0,9E0,2.7E1,4.7E1,5.3E2,1.8E1,1.36E2,1.5E1,4E0,2E0,8E0,1E0,1.74E2,3.56E2,1.7E1,1E0,5.3E1,8.3E1,9E0,6E0,2E0,2E0,1E0,1E0,3.48E2,8E0,3E0,1.4E1,6E0,4.7E1,7.6E1,7E0,8E0,1E0,1E0,5E0],"tree_param":{"num_deleted":"0","num_feature":"3","num_nodes":"45","size_leaf_vector":"1"}},{"base_weights":[3.3245567E-2,-4.4619668E-1,4.317845E0,-4.8091957E-1,1.1008183E0,3.9945397E0,2.2918558E0,-5.724173E-1,-2.2499351E-1,3.2946908E-1,1.6641488E0,9.660989E-1,1.3088828E0,-5.8458275E-1,-1.5647186E-1,-3.0127648E-1,8.0036886E-2,4.4947815E-1,9.709048E-2,5.252698E-1,1.4552179E-1,-6.04791E-1,-4.9438965E-1,-1.74025E-1,-1.8091857E-2,-3.624529E-1,-4.652822E-2,3.3851165E-1,-1.6951598E-1,4.7347214E-2,1.7739187E-1,-8.582182E-2,9.605074E-2,-1.8453307E-1,-1.4466588E-1,-8.205251E-3,-1.5746486E-1,-7.523418E-3,-5.5304226E-2,-1.8576086E-1,-8.954903E-2,9.7090535E-2,-8.336002E-2,2.4122892E-1,-2.6249887E-5,-1.0154818E-1,2.7025712E-1],"categories":[],"categories_nodes":[],"categories_segments":[],"categories_sizes":[],"default_left":[0,0,0,0,0,0,0,0,0,0,0,0,0,0,0,0,0,0,0,0,0,0,0,0,0,0,0,0,0,0,0,0,0,0,0,0,0,0,0,0,0,0,0,0,0,0,0],"id":6,"left_children":[1,3,5,7,9,11,-1,13,15,17,19,-1,-1,21,23,25,27,29,31,-1,-1,33,35,37,-1,39,41,43,45,-1,-1,-1,-1,-1,-1,-1,-1,-1,-1,-1,-1,-1,-1,-1,-1,-1,-1],"loss_changes":[1.6329756E3,3.8936966E1,5.539685E1,1.6262878E1,6.404106E0,7.3414307E0,0E0,2.514511E0,4.3520765E0,1.7946029E-1,7.125473E-2,0E0,0E0,6.1231995E-1,1.6513348E-2,2.3052397E0,2.5085015E0,1.1350131E-1,4.334938E-1,0E0,0E0,2.1438599E-1,1.3670692E0,1.5364319E-2,0E0,1.7856588E0,2.6589184E0,2.9953558E0,3.9223228E0,0E0,0E0,0E0,0E0,0E0,0E0,0E0,0E0,0E0,0E0,0E0,0E0,0E0,0E0,0E0,0E0,0E0,0E0],"parents":[2147483647,0,0,1,1,2,2,3,3,4,4,5,5,7,7,8,8,9,9,10,10,13,13,14,14,15,15,16,16,17,17,18,18,21,21,22,22,23,23,25,25,26,26,27,27,28,28],"right_children":[2,4,6,8,10,12,-1,14,16,18,20,-1,-1,22,24,26,28,30,32,-1,-1,34,36,38,-1,40,42,44,46,-1,-1,-1,-1,-1,-1,-1,-1,-1,-1,-1,-1,-1,-1,-1,-1,-1,-1],"split_conditions":[1.0060291E7,4.387859E6,3.2941276E7,8.8497E4,4.17E2,2.6245044E7,2.2918558E0,1.77E2,1.03E2,6E0,8.06E2,9.660989E-1,1.3088828E0,4.9E1,2.4395E4,7.30962E5,4.33326E5,3E0,9E0,5.252698E-1,1.4552179E-1,5.6674E4,5.1E1,1.415E3,-1.8091857E-2,1.3E1,4E0,1.58E2,1.386637E6,4.7347214E-2,1.7739187E-1,-8.582182E-2,9.605074E-2,-1.8453307E-1,-1.4466588E-1,-8.205251E-3,-1.5746486E-1,-7.523418E-3,-5.5304226E-2,-1.8576086E-1,-8.954903E-2,9.7090535E-2,-8.336002E-2,2.4122892E-1,-2.6249887E-5,-1.0154818E-1,2.7025712E-1],"split_indices":[1,1,1,1,0,1,0,0,0,0,0,0,0,0,1,1,1,0,0,0,0,1,0,1,0,0,0,0,1,0,0,0,0,0,0,0,0,0,0,0,0,0,0,0,0,0,0],"split_type":[0,0,0,0,0,0,0,0,0,0,0,0,0,0,0,0,0,0,0,0,0,0,0,0,0,0,0,0,0,0,0,0,0,0,0,0,0,0,0,0,0,0,0,0,0,0,0],"sum_hessian":[7.93E2,7.14E2,7.9E1,6.99E2,1.5E1,7.4E1,5E0,5.14E2,1.85E2,7E0,8E0,2.7E1,4.7E1,4.99E2,1.5E1,1.48E2,3.7E1,4E0,3E0,7E0,1E0,4.03E2,9.6E1,1.2E1,3E0,1.19E2,2.9E1,1.8E1,1.9E1,2E0,2E0,1E0,2E0,3.68E2,3.5E1,6E0,9E1,1E0,1.1E1,2.2E1,9.7E1,1.1E1,1.8E1,7E0,1.1E1,1.7E1,2E0],"tree_param":{"num_deleted":"0","num_feature":"3","num_nodes":"47","size_leaf_vector":"1"}},{"base_weights":[2.9625935E-2,-3.0490124E-1,3.1485984E0,-3.3725435E-1,9.031034E-1,8.6693436E-1,5.7296395E0,-4.0263164E-1,-1.5836322E-1,3.2204273E-1,1.2964164E0,2.6333165E0,1.0093437E0,-4.1602764E-1,-2.1395047E-1,-2.0391536E-1,1.9668777E-1,4.3605042E-1,7.052052E-2,6.663766E-1,9.8180693E-1,-4.2958444E-1,-3.484529E-1,-3.259647E-1,-1.3066383E-1,-1.8153265E-1,-3.228669E-1,1.082537E-1,7.2068566E-1,5.6002416E-2,1.8696037E-1,-7.2948575E-2,2.561353E-1,2.4472427E-1,1.6699448E0,-1.2590855E-1,-1.8368831E-1,-1.3393241E-1,-6.465247E-2,3.5789415E-2,-9.348062E-2,-6.0540553E-2,4.713921E-1,8.102089E-2,-9.429853E-2,2.782661E-1,4.6042442E-2,2.3134518E-2,9.212637E-2,-6.499005E-2,1.5886846E-1,5.6438255E-1,1.2369347E-1],"categories":[],"categories_nodes":[],"categories_segments":[],"categories_sizes":[],"default_left":[0,0,0,0,0,0,0,0,0,0,0,0,0,0,0,0,0,0,0,0,0,0,0,0,0,0,0,0,0,0,0,0,0,0,0,0,0,0,0,0,0,0,0,0,0,0,0,0,0,0,0,0,0],"id":7,"left_children":[1,3,5,7,9,-1,11,13,15,17,19,-1,-1,21,23,25,27,29,31,-1,33,35,37,-1,39,41,-1,43,45,-1,-1,-1,47,49,51,-1,-1,-1,-1,-1,-1,-1,-1,-1,-1,-1,-1,-1,-1,-1,-1,-1,-1],"loss_changes":[8.2940454E2,2.8365967E1,3.4880005E1,8.123032E0,3.924734E0,0E0,1.3722733E1,1.2051163E0,3.0968676E0,2.2732872E-1,1.0197487E0,0E0,0E0,2.8727722E-1,2.4743562E0,3.0847626E0,9.414467E-1,1.6368926E-1,2.9517877E-1,0E0,4.6634693E0,4.53125E-1,1.0110874E0,0E0,1.5749137E0,6.179318E0,0E0,1.4525009E0,2.0965731E-1,0E0,0E0,0E0,3.6835223E-3,9.0319204E-1,5.532093E-1,0E0,0E0,0E0,0E0,0E0,0E0,0E0,0E0,0E0,0E0,0E0,0E0,0E0,0E0,0E0,0E0,0E0,0E0],"parents":[2147483647,0,0,1,1,2,2,3,3,4,4,6,6,7,7,8,8,9,9,10,10,13,13,14,14,15,15,16,16,17,17,18,18,20,20,21,21,22,22,24,24,25,25,27,27,28,28,32,32,33,33,34,34],"right_children":[2,4,6,8,10,-1,12,14,16,18,20,-1,-1,22,24,26,28,30,32,-1,34,36,38,-1,40,42,-1,44,46,-1,-1,-1,48,50,52,-1,-1,-1,-1,-1,-1,-1,-1,-1,-1,-1,-1,-1,-1,-1,-1,-1,-1],"split_conditions":[1.6023591E7,4.387859E6,3.2941276E7,7.7089E4,4.17E2,8.6693436E-1,7E0,1.06E2,1.78E2,8E0,5.11E2,2.6333165E0,1.0093437E0,3.018E4,2.9E2,1.58E2,1.386637E6,5E0,9E0,6.663766E-1,6.77E2,2.3075E4,1.6E1,-3.259647E-1,1.52E2,1.51E2,-3.228669E-1,7.47643E5,1.96E2,5.6002416E-2,1.8696037E-1,-7.2948575E-2,2.6E1,6.28E2,9.68E2,-1.2590855E-1,-1.8368831E-1,-1.3393241E-1,-6.465247E-2,3.5789415E-2,-9.348062E-2,-6.0540553E-2,4.713921E-1,8.102089E-2,-9.429853E-2,2.782661E-1,4.6042442E-2,2.3134518E-2,9.212637E-2,-6.499005E-2,1.5886846E-1,5.6438255E-1,1.2369347E-1],"split_indices":[1,1,1,1,0,0,0,0,0,0,0,0,0,1,1,0,1,0,0,0,0,1,0,0,0,0,0,1,0,0,0,0,0,0,0,0,0,0,0,0,0,0,0,0,0,0,0,0,0,0,0,0,0],"split_type":[0,0,0,0,0,0,0,0,0,0,0,0,0,0,0,0,0,0,0,0,0,0,0,0,0,0,0,0,0,0,0,0,0,0,0,0,0,0,0,0,0,0,0,0,0,0,0,0,0,0,0,0,0],"sum_hessian":[7.93E2,7.17E2,7.6E1,6.99E2,1.8E1,7.1E1,5E0,5.11E2,1.88E2,8E0,1E1,1E0,4E0,4.76E2,3.5E1,1.67E2,2.1E1,5E0,3E0,1E0,9E0,3.92E2,8.4E1,2E0,3.3E1,1.64E2,3E0,1.9E1,2E0,3E0,2E0,1E0,2E0,5E0,4E0,3.75E2,1.7E1,4.7E1,3.7E1,1.4E1,1.9E1,1.63E2,1E0,1.4E1,5E0,1E0,1E0,1E0,1E0,2E0,3E0,3E0,1E0],"tree_param":{"num_deleted":"0","num_feature":"3","num_nodes":"53","size_leaf_vector":"1"}},{"base_weights":[2.7980318E-2,-2.1711928E-1,2.218208E0,-2.3678209E-1,6.566993E-1,1.99666E0,4.617859E0,-2.741067E-1,-4.4529937E-2,2.1033925E-1,9.804971E-1,1.5211341E0,6.697359E-1,2.2383192E0,7.6710165E-1,-2.9138026E-1,-7.4428335E-2,-1.8661444E-1,5.6419857E-2,2.885889E-1,5.9942365E-2,5.664202E-1,6.310425E-1,1.371274E0,6.9386333E-1,-3.4651822E-1,-2.7864942E-1,3.4103394E-1,-1.2438552E-1,1.4312689E-1,-3.265999E-1,3.278899E-1,-3.3414956E-2,2.6677277E-2,1.1761718E-1,-6.200631E-2,2.1771495E-1,-2.238865E-2,7.4251395E-1,1.5633427E0,-6.223666E-1,1.7467726E-2,-1.0540225E-1,-8.048656E-2,-1.1460436E-1,-2.2461136E-1,-1.9440694E-2,-1.0010006E-1,8.703927E-2,-2.9847713E-2,-1.5019767E-1,2.0505095E-2,1.6529918E-1,-4.797944E-2,7.094039E-2,1.9664384E-2,7.8307346E-2,1.280444E-1,3.0635244E-1,4.811582E-1,9.4714455E-2,-2.2446586E-1,-5.559912E-2],"categories":[],"categories_nodes":[],"categories_segments":[],"categories_sizes":[],"default_left":[0,0,0,0,0,0,0,0,0,0,0,0,0,0,0,0,0,0,0,0,0,0,0,0,0,0,0,0,0,0,0,0,0,0,0,0,0,0,0,0,0,0,0,0,0,0,0,0,0,0,0,0,0,0,0,0,0,0,0,0,0,0,0],"id":8,"left_children":[1,3,5,7,9,11,13,15,17,19,21,23,-1,-1,-1,25,27,29,31,33,35,-1,37,39,-1,41,43,-1,45,47,49,51,53,-1,-1,-1,55,-1,57,59,61,-1,-1,-1,-1,-1,-1,-1,-1,-1,-1,-1,-1,-1,-1,-1,-1,-1,-1,-1,-1,-1,-1],"loss_changes":[4.2671985E2,1.2440437E1,3.331076E1,5.010811E0,2.1062493E0,5.01355E0,1.6078583E1,1.9995155E0,1.6600199E0,7.684934E-2,1.662941E0,1.5063477E-1,0E0,0E0,0E0,2.817955E-1,3.0458095E0,2.2623768E0,1.6693037E0,6.843147E-2,2.1326664E-1,0E0,6.8471074E-1,1.0928787E1,0E0,2.0979309E-1,3.7194443E-1,0E0,1.699832E0,1.148166E0,1.2942114E0,9.467273E-1,1.8133402E0,0E0,0E0,0E0,2.6612282E-3,0E0,1.7995834E-1,7.068672E-1,2.6338935E-2,0E0,0E0,0E0,0E0,0E0,0E0,0E0,0E0,0E0,0E0,0E0,0E0,0E0,0E0,0E0,0E0,0E0,0E0,0E0,0E0,0E0,0E0],"parents":[2147483647,0,0,1,1,2,2,3,3,4,4,5,5,6,6,7,7,8,8,9,9,10,10,11,11,15,15,16,16,17,17,18,18,19,19,20,20,22,22,23,23,25,25,26,26,28,28,29,29,30,30,31,31,32,32,36,36,38,38,39,39,40,40],"right_children":[2,4,6,8,10,12,14,16,18,20,22,24,-1,-1,-1,26,28,30,32,34,36,-1,38,40,-1,42,44,-1,46,48,50,52,54,-1,-1,-1,56,-1,58,60,62,-1,-1,-1,-1,-1,-1,-1,-1,-1,-1,-1,-1,-1,-1,-1,-1,-1,-1,-1,-1,-1,-1],"split_conditions":[1.0060291E7,4.387859E6,3.2941276E7,3.11423E5,4.17E2,2.6245044E7,7E0,1.02E2,5.6E1,6E0,5.11E2,6.22E2,6.697359E-1,2.2383192E0,7.6710165E-1,9.1E1,1.03E2,4E0,6.9E1,3E0,9E0,5.664202E-1,6.28E2,8E0,6.9386333E-1,2E0,1.71056E5,3.4103394E-1,2.9E2,6.31986E5,5.16683E5,6.4E1,1.78E2,2.6677277E-2,1.1761718E-1,-6.200631E-2,2.6E1,-2.238865E-2,7.77E2,2E0,2.9E1,1.7467726E-2,-1.0540225E-1,-8.048656E-2,-1.1460436E-1,-2.2461136E-1,-1.9440694E-2,-1.0010006E-1,8.703927E-2,-2.9847713E-2,-1.5019767E-1,2.0505095E-2,1.6529918E-1,-4.797944E-2,7.094039E-2,1.9664384E-2,7.8307346E-2,1.280444E-1,3.0635244E-1,4.811582E-1,9.4714455E-2,-2.2446586E-1,-5.559912E-2],"split_indices":[1,1,1,1,0,1,0,0,0,0,0,0,0,0,0,1,0,0,0,0,0,0,0,0,0,0,1,0,1,1,1,0,0,0,0,0,0,0,0,0,0,0,0,0,0,0,0,0,0,0,0,0,0,0,0,0,0,0,0,0,0,0,0],"split_type":[0,0,0,0,0,0,0,0,0,0,0,0,0,0,0,0,0,0,0,0,0,0,0,0,0,0,0,0,0,0,0,0,0,0,0,0,0,0,0,0,0,0,0,0,0,0,0,0,0,0,0,0,0,0,0,0,0,0,0,0,0,0,0],"sum_hessian":[7.93E2,7.14E2,7.9E1,6.99E2,1.5E1,7.4E1,5E0,5.85E2,1.14E2,7E0,8E0,2.7E1,4.7E1,1E0,4E0,5.38E2,4.7E1,4.7E1,6.7E1,4E0,3E0,1E0,7E0,2.5E1,2E0,9.6E1,4.42E2,1E0,4.6E1,1.4E1,3.3E1,1.6E1,5.1E1,2E0,2E0,1E0,2E0,1E0,6E0,2.3E1,2E0,1E0,9.5E1,4.05E2,3.7E1,3E0,4.3E1,3E0,1.1E1,1.5E1,1.8E1,8E0,8E0,3.5E1,1.6E1,1E0,1E0,4E0,2E0,2.2E1,1E0,1E0,1E0],"tree_param":{"num_deleted":"0","num_feature":"3","num_nodes":"63","size_leaf_vector":"1"}},{"base_weights":[2.6706045E-2,-1.5060127E-1,1.6110563E0,-1.6933168E-1,4.4710377E-1,1.4197878E0,3.7334049E0,-2.0215155E-1,-7.65825E-2,1.9148009E-1,7.9506236E-1,1.1001385E0,4.7300124E-1,1.9025712E0,1.9433243E0,-2.0797184E-1,-8.724257E-3,-1.6879153E-1,-4.8522903E-5,2.134185E-2,2.0560856E-1,4.8145726E-1,4.9323082E-1,9.712682E-1,5.550907E-1,1.640173E-1,6.46738E-1,-2.0165326E-1,-7.8938985E-1,-6.543892E-2,3.184843E-2,2.5790632E-2,-2.3511437E-1,-9.722466E-2,1.0101563E-1,9.0036556E-2,1.4075726E-1,1.3810968E-1,6.7868155E-1,1.1183336E0,-5.290114E-1,-6.2053762E-2,1.4545614E-1,-3.6800224E-1,-2.6692702E-2,1.2422741E-3,-3.5597708E-2,1.4228654E-2,-6.094647E-3,-5.336571E-2,6.3103415E-2,-3.8673423E-2,-1.8765049E-1,-9.391113E-4,-1.3429655E-1,7.666368E-2,-5.637039E-2,-5.2705336E-2,6.0681913E-2,-1.9030381E-2,6.7930795E-2,2.2491232E-1,5.9186555E-2,3.4308642E-1,8.050733E-2,-1.9079591E-1,-4.7259238E-2],"categories":[],"categories_nodes":[],"categories_segments":[],"categories_sizes":[],"default_left":[0,0,0,0,0,0,0,0,0,0,0,0,0,0,0,0,0,0,0,0,0,0,0,0,0,0,0,0,0,0,0,0,0,0,0,0,0,0,0,0,0,0,0,0,0,0,0,0,0,0,0,0,0,0,0,0,0,0,0,0,0,0,0,0,0,0,0],"id":9,"left_children":[1,3,5,7,9,11,13,15,17,19,21,23,-1,-1,25,27,29,31,33,-1,35,-1,37,39,-1,-1,-1,41,43,45,47,49,51,53,55,-1,57,59,61,63,65,-1,-1,-1,-1,-1,-1,-1,-1,-1,-1,-1,-1,-1,-1,-1,-1,-1,-1,-1,-1,-1,-1,-1,-1,-1,-1],"loss_changes":[2.2329066E2,8.08032E0,2.7174454E1,2.0970669E0,1.8045835E0,2.0265045E0,1.5692162E1,5.745945E-1,1.2914455E0,9.176314E-3,1.4082303E0,9.097252E-1,0E0,0E0,3.0504417E-1,1.666666E0,3.8901187E-2,1.0771987E0,1.0017446E0,0E0,3.13074E-2,0E0,4.3312728E-1,6.3282337E0,0E0,0E0,0E0,1.8577137E0,1.422256E0,2.6412679E-2,9.090895E-3,8.643819E-1,2.4899027E0,1.7132212E0,2.2803335E0,0E0,2.1073164E-1,8.557051E-2,2.304864E-2,2.0895576E-1,1.9029856E-2,0E0,0E0,0E0,0E0,0E0,0E0,0E0,0E0,0E0,0E0,0E0,0E0,0E0,0E0,0E0,0E0,0E0,0E0,0E0,0E0,0E0,0E0,0E0,0E0,0E0,0E0],"parents":[2147483647,0,0,1,1,2,2,3,3,4,4,5,5,6,6,7,7,8,8,9,9,10,10,11,11,14,14,15,15,16,16,17,17,18,18,20,20,22,22,23,23,27,27,28,28,29,29,30,30,31,31,32,32,33,33,34,34,36,36,37,37,38,38,39,39,40,40],"right_children":[2,4,6,8,10,12,14,16,18,20,22,24,-1,-1,26,28,30,32,34,-1,36,-1,38,40,-1,-1,-1,42,44,46,48,50,52,54,56,-1,58,60,62,64,66,-1,-1,-1,-1,-1,-1,-1,-1,-1,-1,-1,-1,-1,-1,-1,-1,-1,-1,-1,-1,-1,-1,-1,-1,-1,-1],"split_conditions":[1.0060291E7,3.008639E6,3.2941276E7,7.7089E4,4.17E2,2.6245044E7,7E0,1.77E2,5.6E1,3E0,5.11E2,6.22E2,4.7300124E-1,1.9025712E0,3.642E3,1.52E2,4.065E3,4E0,3.73496E5,2.134185E-2,6E0,4.8145726E-1,6.74E2,8E0,5.550907E-1,1.640173E-1,6.46738E-1,1.37E2,7.363E3,2.077E3,5E2,6.31986E5,5.16683E5,3.35958E5,1.13E2,9.0036556E-2,9E0,6.28E2,8.06E2,2E0,2.9E1,-6.2053762E-2,1.4545614E-1,-3.6800224E-1,-2.6692702E-2,1.2422741E-3,-3.5597708E-2,1.4228654E-2,-6.094647E-3,-5.336571E-2,6.3103415E-2,-3.8673423E-2,-1.8765049E-1,-9.391113E-4,-1.3429655E-1,7.666368E-2,-5.637039E-2,-5.2705336E-2,6.0681913E-2,-1.9030381E-2,6.7930795E-2,2.2491232E-1,5.9186555E-2,3.4308642E-1,8.050733E-2,-1.9079591E-1,-4.7259238E-2],"split_indices":[1,1,1,1,0,1,0,0,0,0,0,0,0,0,0,0,1,0,1,0,0,0,0,0,0,0,0,0,1,1,0,1,1,1,0,0,0,0,0,0,0,0,0,0,0,0,0,0,0,0,0,0,0,0,0,0,0,0,0,0,0,0,0,0,0,0,0],"split_type":[0,0,0,0,0,0,0,0,0,0,0,0,0,0,0,0,0,0,0,0,0,0,0,0,0,0,0,0,0,0,0,0,0,0,0,0,0,0,0,0,0,0,0,0,0,0,0,0,0,0,0,0,0,0,0,0,0,0,0,0,0,0,0,0,0,0,0],"sum_hessian":[7.93E2,7.14E2,7.9E1,6.93E2,2.1E1,7.4E1,5E0,5.11E2,1.82E2,1.3E1,8E0,2.7E1,4.7E1,1E0,4E0,4.96E2,1.5E1,8.2E1,1E2,2E0,1.1E1,1E0,7E0,2.5E1,2E0,1E0,3E0,4.92E2,4E0,6E0,9E0,2.1E1,6.1E1,5.1E1,4.9E1,3E0,8E0,3E0,4E0,2.3E1,2E0,4.89E2,3E0,2E0,2E0,3E0,3E0,7E0,2E0,1E1,1.1E1,4.9E1,1.2E1,4.1E1,1E1,3.2E1,1.7E1,1E0,7E0,1E0,2E0,3E0,1E0,2.2E1,1E0,1E0,1E0],"tree_param":{"num_deleted":"0","num_feature":"3","num_nodes":"67","size_leaf_vector":"1"}},{"base_weights":[2.397359E-2,-1.05050586E-1,1.1768274E0,-1.1983122E-1,3.891205E-1,1.0100342E0,3.0656052E0,-1.2994309E-1,8.0577075E-2,-3.569466E-2,6.040777E-1,7.965482E-1,3.3405763E-1,1.6171852E0,1.5224793E0,-1.2597868E-1,-5.4238755E-1,1.1854856E-2,5.9303E-1,2.249023E-2,-6.644833E-2,1.0450766E0,3.2317042E-1,6.8702394E-1,4.4407272E-1,1.3941479E-1,5.012224E-1,-1.5781306E-1,-7.352108E-2,6.7173354E-2,-7.404295E-1,1.7241848E-1,-1.7090757E-1,2.171108E-1,3.0151822E-2,-8.800292E-3,3.6016703E-2,3.631743E-1,5.7458926E-2,1.331231E-1,7.222398E-1,8.004834E-1,-4.4965997E-1,-4.6042364E-2,-1.4304076E-1,-3.4446586E-2,-1.1273063E-3,-2.5520626E-1,-4.4909623E-2,4.2100012E-2,8.261137E-2,-1.5311058E-1,1.4957936E-2,1.9864334E-2,-4.8757554E-3,-2.1756317E-2,6.41274E-2,2.7469942E-1,5.0308514E-2,2.4463558E-1,6.8431236E-2,-1.6217652E-1,-4.017048E-2],"categories":[],"categories_nodes":[],"categories_segments":[],"categories_sizes":[],"default_left":[0,0,0,0,0,0,0,0,0,0,0,0,0,0,0,0,0,0,0,0,0,0,0,0,0,0,0,0,0,0,0,0,0,0,0,0,0,0,0,0,0,0,0,0,0,0,0,0,0,0,0,0,0,0,0,0,0,0,0,0,0,0,0],"id":10,"left_children":[1,3,5,7,9,11,13,15,17,19,21,23,-1,-1,25,27,29,31,33,35,-1,37,39,41,-1,-1,-1,43,45,-1,47,49,51,-1,-1,-1,53,-1,-1,55,57,59,61,-1,-1,-1,-1,-1,-1,-1,-1,-1,-1,-1,-1,-1,-1,-1,-1,-1,-1,-1,-1],"loss_changes":[1.18227974E2,5.2691045E0,2.210646E1,1.418889E0,1.9392211E0,7.700653E-1,1.3319622E1,1.0141029E0,1.1903442E0,9.146737E-2,1.3965793E0,1.07971E0,0E0,0E0,7.709503E-3,1.0855579E0,1.0763463E0,9.3916255E-1,1.8470109E-1,5.9635476E-3,0E0,4.7446585E-1,6.6227376E-1,3.7131033E0,0E0,0E0,0E0,4.914713E-1,7.198907E-1,0E0,1.9831705E-1,1.7511487E-2,1.1495756E0,0E0,0E0,0E0,1.0546625E-2,0E0,0E0,1.4815871E-1,1.682359E-1,1.9615173E-2,1.3748586E-2,0E0,0E0,0E0,0E0,0E0,0E0,0E0,0E0,0E0,0E0,0E0,0E0,0E0,0E0,0E0,0E0,0E0,0E0,0E0,0E0],"parents":[2147483647,0,0,1,1,2,2,3,3,4,4,5,5,6,6,7,7,8,8,9,9,10,10,11,11,14,14,15,15,16,16,17,17,18,18,19,19,21,21,22,22,23,23,27,27,28,28,30,30,31,31,32,32,36,36,39,39,40,40,41,41,42,42],"right_children":[2,4,6,8,10,12,14,16,18,20,22,24,-1,-1,26,28,30,32,34,36,-1,38,40,42,-1,-1,-1,44,46,-1,48,50,52,-1,-1,-1,54,-1,-1,56,58,60,62,-1,-1,-1,-1,-1,-1,-1,-1,-1,-1,-1,-1,-1,-1,-1,-1,-1,-1,-1,-1],"split_conditions":[1.0060291E7,3.85E2,3.2941276E7,1.142217E6,5.60524E5,2.6245044E7,7E0,8.45809E5,1.39E2,1E3,5.11E2,6.22E2,3.3405763E-1,1.6171852E0,3.642E3,3.3E1,9E0,6E0,1.96E2,4.33E2,-6.644833E-2,5.351442E6,8.02E2,8E0,4.4407272E-1,1.3941479E-1,5.012224E-1,4.27254E5,2.18559E5,6.7173354E-2,1.96E2,5E0,1.3E1,2.171108E-1,3.0151822E-2,-8.800292E-3,5E2,3.631743E-1,5.7458926E-2,6.28E2,8.06E2,2E0,2.9E1,-4.6042364E-2,-1.4304076E-1,-3.4446586E-2,-1.1273063E-3,-2.5520626E-1,-4.4909623E-2,4.2100012E-2,8.261137E-2,-1.5311058E-1,1.4957936E-2,1.9864334E-2,-4.8757554E-3,-2.1756317E-2,6.41274E-2,2.7469942E-1,5.0308514E-2,2.4463558E-1,6.8431236E-2,-1.6217652E-1,-4.017048E-2],"split_indices":[1,0,1,1,1,1,0,1,0,0,0,0,0,0,0,0,0,0,0,0,0,1,0,0,0,0,0,1,1,0,0,0,0,0,0,0,0,0,0,0,0,0,0,0,0,0,0,0,0,0,0,0,0,0,0,0,0,0,0,0,0,0,0],"split_type":[0,0,0,0,0,0,0,0,0,0,0,0,0,0,0,0,0,0,0,0,0,0,0,0,0,0,0,0,0,0,0,0,0,0,0,0,0,0,0,0,0,0,0,0,0,0,0,0,0,0,0,0,0,0,0,0,0,0,0,0,0,0,0],"sum_hessian":[7.93E2,7.14E2,7.9E1,6.94E2,2E1,7.4E1,5E0,6.61E2,3.3E1,7E0,1.3E1,2.7E1,4.7E1,1E0,4E0,6.56E2,5E0,3E1,3E0,6E0,1E0,4E0,9E0,2.5E1,2E0,1E0,3E0,4.07E2,2.49E2,1E0,4E0,1.6E1,1.4E1,2E0,1E0,1E0,5E0,3E0,1E0,7E0,2E0,2.3E1,2E0,4.03E2,4E0,1.56E2,9.3E1,3E0,1E0,1.4E1,2E0,5E0,9E0,3E0,2E0,2E0,5E0,1E0,1E0,2.2E1,1E0,1E0,1E0],"tree_param":{"num_deleted":"0","num_feature":"3","num_nodes":"63","size_leaf_vector":"1"}},{"base_weights":[2.1379326E-2,-8.273256E-2,7.8829443E-1,-9.088278E-2,6.576693E-2,6.639401E-1,2.5222282E0,-8.303587E-2,-7.239498E-1,1.0406675E-2,4.1799125E-1,3.83315E-1,7.2877246E-1,1.3746077E0,3.581591E-1,-8.9408964E-2,4.0083036E-1,-2.7664167E-1,-2.9522598E-1,6.1758466E-2,-2.449276E-1,1.7368865E-1,3.530698E-2,2.5983593E-1,7.814026E-1,5.8892286E-1,2.3592842E-1,-8.3399616E-2,-5.649903E-1,2.1095152E-1,-2.5872475E-1,-3.3812247E-2,2.0403968E-1,6.9837976E-1,1.0491199E-1,2.8405288E-1,4.276228E-2,5.189329E-1,3.4030238E-1,-2.6943266E-2,1.5495601E-1,-5.5355843E-2,-2.2691065E-1,2.7195858E-3,-4.9277376E-2,1.4612928E-1,-1.01276105E-2,4.2843536E-2,3.5476255E-1,4.3680914E-2,1.4770051E-2,1.7443554E-1,-1.378501E-1],"categories":[],"categories_nodes":[],"categories_segments":[],"categories_sizes":[],"default_left":[0,0,0,0,0,0,0,0,0,0,0,0,0,0,0,0,0,0,0,0,0,0,0,0,0,0,0,0,0,0,0,0,0,0,0,0,0,0,0,0,0,0,0,0,0,0,0,0,0,0,0,0,0],"id":11,"left_children":[1,3,5,7,9,11,13,15,17,19,21,23,25,-1,-1,27,-1,-1,29,31,-1,-1,-1,33,35,37,-1,39,41,-1,-1,43,45,47,49,-1,-1,51,-1,-1,-1,-1,-1,-1,-1,-1,-1,-1,-1,-1,-1,-1,-1],"loss_changes":[6.346213E1,8.5318947E-1,1.8809517E1,3.2383857E0,7.1712154E-1,1.3580704E0,1.0946659E1,6.0615587E0,4.0750742E-1,1.4515783E0,1.7356086E-1,7.3091793E-1,1.1739731E-1,0E0,0E0,1.8248277E0,0E0,0E0,2.8715503E0,4.420324E-1,0E0,0E0,0E0,1.0137867E0,2.878101E-1,3.656988E-1,0E0,2.5387588E0,4.429469E-1,0E0,0E0,1.133528E-1,8.9148307E-1,9.0705884E-1,2.2284463E-2,0E0,0E0,1.73527E0,0E0,0E0,0E0,0E0,0E0,0E0,0E0,0E0,0E0,0E0,0E0,0E0,0E0,0E0,0E0],"parents":[2147483647,0,0,1,1,2,2,3,3,4,4,5,5,6,6,7,7,8,8,9,9,10,10,11,11,12,12,15,15,18,18,19,19,23,23,24,24,25,25,27,27,28,28,31,31,32,32,33,33,34,34,37,37],"right_children":[2,4,6,8,10,12,14,16,18,20,22,24,26,-1,-1,28,-1,-1,30,32,-1,-1,-1,34,36,38,-1,40,42,-1,-1,44,46,48,50,-1,-1,52,-1,-1,-1,-1,-1,-1,-1,-1,-1,-1,-1,-1,-1,-1,-1],"split_conditions":[4.387859E6,1.78E2,3.2941276E7,1.58E2,1.142217E6,1.6023591E7,7E0,1.51E2,1.7E2,9.35008E5,1.96E2,7.77E2,2.6245044E7,1.3746077E0,3.581591E-1,1.22E2,4.0083036E-1,-2.7664167E-1,1.75E2,2.64707E5,-2.449276E-1,1.7368865E-1,3.530698E-2,5.351442E6,9.68E2,2.9E1,2.3592842E-1,1.12E2,1.107E3,2.1095152E-1,-2.5872475E-1,7.4708E4,4.05153E5,9E0,6.212376E6,2.8405288E-1,4.276228E-2,2E0,3.4030238E-1,-2.6943266E-2,1.5495601E-1,-5.5355843E-2,-2.2691065E-1,2.7195858E-3,-4.9277376E-2,1.4612928E-1,-1.01276105E-2,4.2843536E-2,3.5476255E-1,4.3680914E-2,1.4770051E-2,1.7443554E-1,-1.378501E-1],"split_indices":[1,0,1,0,1,1,0,0,0,1,0,0,1,0,0,0,0,0,0,1,0,0,0,1,0,0,0,0,1,0,0,1,1,0,1,0,0,0,0,0,0,0,0,0,0,0,0,0,0,0,0,0,0],"split_type":[0,0,0,0,0,0,0,0,0,0,0,0,0,0,0,0,0,0,0,0,0,0,0,0,0,0,0,0,0,0,0,0,0,0,0,0,0,0,0,0,0,0,0,0,0,0,0,0,0,0,0,0,0],"sum_hessian":[7.93E2,6.99E2,9.4E1,6.63E2,3.6E1,8.9E1,5E0,6.56E2,7E0,3.2E1,4E0,1.8E1,7.1E1,1E0,4E0,6.54E2,2E0,4E0,3E0,3.1E1,1E0,2E0,2E0,1.5E1,3E0,2.4E1,4.7E1,6.47E2,7E0,1E0,2E0,1.9E1,1.2E1,3E0,1.2E1,2E0,1E0,2.3E1,1E0,6.41E2,6E0,3E0,4E0,1.5E1,4E0,5E0,7E0,2E0,1E0,6E0,6E0,2.2E1,1E0],"tree_param":{"num_deleted":"0","num_feature":"3","num_nodes":"53","size_leaf_vector":"1"}},{"base_weights":[1.8875083E-2,-5.7947546E-2,5.847379E-1,-7.061835E-2,2.4489941E-2,4.8026633E-1,2.054355E0,-6.743881E-2,-3.3351636E-1,-6.186368E-2,1.1594293E-1,3.095243E-1,5.186529E-1,1.1684166E0,9.073372E-1,-7.198933E-2,1.2849995E-1,4.588995E-2,-1.6761085E-1,-1.5795025E-1,3.6697444E-2,2.644439E-1,-1.2974992E-1,2.1038881E-1,6.2868524E-1,4.9879757E-1,2.8925717E-1,6.4778715E-2,3.078621E-1,-7.9143524E-2,8.322014E-3,2.088955E-1,-1.24712825E-1,-1.9267572E-2,-5.1181036E-1,3.941047E-2,-1.1844554E-1,1.8785334E-1,3.61347E-1,-3.0577758E-1,2.732683E-1,5.882673E-1,7.793474E-2,2.272421E-1,3.634801E-2,5.170825E-1,-1.1717263E-1,-2.1048937E-2,-6.884144E-2,2.9423028E-1,-9.710979E-3,2.1001728E-2,1.0846863E-1,1.4160383E-1,-1.4428769E-1,-9.934894E-2,1.7973162E-2,-9.253538E-2,-2.0404166E-1,-1.9605096E-1,2.9102031E-2,5.6591835E-3,1.2348016E-1,-2.4383825E-1,2.962081E-3,2.4092676E-2,1.3183741E-1,3.4274865E-2,3.0154812E-1,3.344293E-2,9.977859E-3,1.24380365E-1,1.666247E-1],"categories":[],"categories_nodes":[],"categories_segments":[],"categories_sizes":[],"default_left":[0,0,0,0,0,0,0,0,0,0,0,0,0,0,0,0,0,0,0,0,0,0,0,0,0,0,0,0,0,0,0,0,0,0,0,0,0,0,0,0,0,0,0,0,0,0,0,0,0,0,0,0,0,0,0,0,0,0,0,0,0,0,0,0,0,0,0,0,0,0,0,0,0],"id":12,"left_children":[1,3,5,7,9,11,13,15,17,19,21,23,25,-1,27,29,31,-1,-1,33,35,37,39,41,43,45,-1,-1,-1,47,49,51,53,55,57,-1,59,61,-1,63,65,67,69,-1,-1,71,-1,-1,-1,-1,-1,-1,-1,-1,-1,-1,-1,-1,-1,-1,-1,-1,-1,-1,-1,-1,-1,-1,-1,-1,-1,-1,-1],"loss_changes":[3.454991E1,7.32914E-1,1.3599014E1,4.8489618E-1,7.495185E-1,4.2934418E-1,9.131777E0,5.4511595E-1,8.5230815E-1,4.69846E-1,1.7126504E0,4.6889508E-1,1.5599823E-1,0E0,1.8934965E-1,3.385017E-1,3.1105256E-1,0E0,0E0,1.2169954E0,3.8274762E-1,1.8616939E0,1.3605217E0,7.549783E-1,1.6967773E-1,1.3565712E0,0E0,0E0,0E0,7.1290207E-1,1.9707117E0,2.0793056E-1,1.0773433E0,4.8905084E-1,2.982831E-2,0E0,1.2161882E0,1.0509408E0,0E0,2.08855E0,1.5711483E-1,6.756195E-1,1.577261E-2,0E0,0E0,4.4713974E-2,0E0,0E0,0E0,0E0,0E0,0E0,0E0,0E0,0E0,0E0,0E0,0E0,0E0,0E0,0E0,0E0,0E0,0E0,0E0,0E0,0E0,0E0,0E0,0E0,0E0,0E0,0E0],"parents":[2147483647,0,0,1,1,2,2,3,3,4,4,5,5,6,6,7,7,8,8,9,9,10,10,11,11,12,12,14,14,15,15,16,16,19,19,20,20,21,21,22,22,23,23,24,24,25,25,29,29,30,30,31,31,32,32,33,33,34,34,36,36,37,37,39,39,40,40,41,41,42,42,45,45],"right_children":[2,4,6,8,10,12,14,16,18,20,22,24,26,-1,28,30,32,-1,-1,34,36,38,40,42,44,46,-1,-1,-1,48,50,52,54,56,58,-1,60,62,-1,64,66,68,70,-1,-1,72,-1,-1,-1,-1,-1,-1,-1,-1,-1,-1,-1,-1,-1,-1,-1,-1,-1,-1,-1,-1,-1,-1,-1,-1,-1,-1,-1],"split_conditions":[4.387859E6,3.59632E5,3.2941276E7,3.43178E5,6.4E1,1.6023591E7,7E0,3.2526E5,6.9E1,8.45809E5,1.13E2,7.77E2,2.9E1,1.1684166E0,3.642E3,1.02E2,3.35958E5,4.588995E-2,-1.6761085E-1,6.31986E5,9E0,1.12E2,1.142217E6,5.351442E6,9.68E2,3E0,2.8925717E-1,6.4778715E-2,3.078621E-1,2.27954E5,1.03E2,8.1E1,5.8E1,1.2E1,7.09276E5,3.941047E-2,1.3E1,4.5734E5,3.61347E-1,1.96E2,1.386637E6,9E0,4.17E2,2.272421E-1,3.634801E-2,2E0,-1.1717263E-1,-2.1048937E-2,-6.884144E-2,2.9423028E-1,-9.710979E-3,2.1001728E-2,1.0846863E-1,1.4160383E-1,-1.4428769E-1,-9.934894E-2,1.7973162E-2,-9.253538E-2,-2.0404166E-1,-1.9605096E-1,2.9102031E-2,5.6591835E-3,1.2348016E-1,-2.4383825E-1,2.962081E-3,2.4092676E-2,1.3183741E-1,3.4274865E-2,3.0154812E-1,3.344293E-2,9.977859E-3,1.24380365E-1,1.666247E-1],"split_indices":[1,1,1,1,0,1,0,1,0,1,0,0,0,0,0,0,1,0,0,1,0,0,1,1,0,0,0,0,0,1,0,0,0,0,1,0,0,1,0,0,1,0,0,0,0,0,0,0,0,0,0,0,0,0,0,0,0,0,0,0,0,0,0,0,0,0,0,0,0,0,0,0,0],"split_type":[0,0,0,0,0,0,0,0,0,0,0,0,0,0,0,0,0,0,0,0,0,0,0,0,0,0,0,0,0,0,0,0,0,0,0,0,0,0,0,0,0,0,0,0,0,0,0,0,0,0,0,0,0,0,0,0,0,0,0,0,0,0,0,0,0,0,0,0,0,0,0,0,0],"sum_hessian":[7.93E2,6.99E2,9.4E1,6.06E2,9.3E1,8.9E1,5E0,6E2,6E0,4.8E1,4.5E1,1.8E1,7.1E1,1E0,4E0,5.87E2,1.3E1,2E0,4E0,2.4E1,2.4E1,2.8E1,1.7E1,1.5E1,3E0,7E1,1E0,1E0,3E0,5.39E2,4.8E1,1E1,3E0,1.8E1,6E0,1.5E1,9E0,2.7E1,1E0,1.2E1,5E0,3E0,1.2E1,2E0,1E0,6.9E1,1E0,5.1E2,2.9E1,1E0,4.7E1,6E0,4E0,1E0,2E0,3E0,1.5E1,4E0,2E0,2E0,7E0,1.6E1,1.1E1,4E0,8E0,3E0,2E0,2E0,1E0,6E0,6E0,2.2E1,4.7E1],"tree_param":{"num_deleted":"0","num_feature":"3","num_nodes":"73","size_leaf_vector":"1"}},{"base_weights":[1.66718E-2,-4.0420793E-2,4.3717855E-1,-6.9138184E-2,-1.1995655E-2,3.4847346E-1,1.6948923E0,-6.087371E-2,-2.9547074E-1,1.0509846E-1,-2.4805367E-2,2.9149026E-1,1.17678314E-1,9.9315435E-1,7.0966494E-1,-6.959839E-2,4.3203744E-1,-2.5495386E-1,-1.625159E-2,-5.7422463E-3,2.3138735E-1,-4.0570002E-2,8.0132104E-2,2.1841632E-1,4.6206322E-1,5.5062104E-2,2.385933E-1,-1.049608E-1,-4.8822027E-2,-1.4457335E-1,2.1336283E-1,-2.2629786E-2,1.1433363E-2,-5.2130293E-2,4.445896E-1,-1.7016166E-1,-1.9342314E-2,7.0787245E-1,-4.574048E-3,2.728542E-1,-1.3011913E-1,2.5631592E-1,3.48726E-1,-2.5550447E-2,-4.5517888E-2,-2.9717788E-2,-1.2081873E-2,2.3488857E-2,-3.8279416E-3,1.0143732E-4,-2.281869E-1,1.8076545E-1,1.9299889E-2,-1.6363755E-2,-6.2444493E-2,-1.7698883E-3,-7.077729E-2,3.227534E-1,3.1182839E-2,-1.3458042E-1,1.8257588E-2,3.0055821E-2,8.923735E-2,-6.743045E-2,3.7271548E-2,-3.9212037E-2,1.409369E-1],"categories":[],"categories_nodes":[],"categories_segments":[],"categories_sizes":[],"default_left":[0,0,0,0,0,0,0,0,0,0,0,0,0,0,0,0,0,0,0,0,0,0,0,0,0,0,0,0,0,0,0,0,0,0,0,0,0,0,0,0,0,0,0,0,0,0,0,0,0,0,0,0,0,0,0,0,0,0,0,0,0,0,0,0,0,0,0],"id":13,"left_children":[1,3,5,7,9,11,13,15,17,19,21,23,-1,-1,25,27,29,-1,31,33,-1,35,37,39,41,-1,-1,43,45,-1,-1,-1,47,49,51,53,55,57,59,61,63,-1,65,-1,-1,-1,-1,-1,-1,-1,-1,-1,-1,-1,-1,-1,-1,-1,-1,-1,-1,-1,-1,-1,-1,-1,-1],"loss_changes":[1.9079882E1,5.7057774E-1,1.000811E1,6.329547E-1,5.320865E-1,1.1022377E-1,7.2011757E0,1.4793346E0,1.8436954E0,2.5888734E0,5.309729E-1,4.3504882E-1,0E0,0E0,7.933092E-2,2.3879683E-1,1.8736324E0,0E0,1.5608264E-2,6.7076707E-1,0E0,7.614675E-1,2.2365236E0,6.426568E-1,2.3563099E-1,0E0,0E0,1.0000253E-1,8.6631775E-2,0E0,0E0,0E0,1.2322408E-2,1.0782883E0,1.414342E-1,1.5992868E-1,6.973546E-1,9.9932003E-1,1.1313493E0,8.914995E-2,1.4829837E-1,0E0,6.998652E-1,0E0,0E0,0E0,0E0,0E0,0E0,0E0,0E0,0E0,0E0,0E0,0E0,0E0,0E0,0E0,0E0,0E0,0E0,0E0,0E0,0E0,0E0,0E0,0E0],"parents":[2147483647,0,0,1,1,2,2,3,3,4,4,5,5,6,6,7,7,8,8,9,9,10,10,11,11,14,14,15,15,16,16,18,18,19,19,21,21,22,22,23,23,24,24,27,27,28,28,32,32,33,33,34,34,35,35,36,36,37,37,38,38,39,39,40,40,42,42],"right_children":[2,4,6,8,10,12,14,16,18,20,22,24,-1,-1,26,28,30,-1,32,34,-1,36,38,40,42,-1,-1,44,46,-1,-1,-1,48,50,52,54,56,58,60,62,64,-1,66,-1,-1,-1,-1,-1,-1,-1,-1,-1,-1,-1,-1,-1,-1,-1,-1,-1,-1,-1,-1,-1,-1,-1,-1],"split_conditions":[4.387859E6,7.363E3,3.2941276E7,1.4E2,1.3044E4,2.6245044E7,7E0,1.14E2,1.77E2,1.2143E4,1.08E2,4.17E2,1.17678314E-1,9.9315435E-1,3.642E3,1E1,2.9E2,-2.5495386E-1,2.48E2,1.15E2,2.3138735E-1,3.018E4,1.13E2,8E0,5.11E2,5.5062104E-2,2.385933E-1,4.9E2,9.9E1,-1.4457335E-1,2.1336283E-1,-2.2629786E-2,3.24E2,3.9E1,1.75E2,9E0,1E2,4.33326E5,1.51E2,1.0060291E7,2.9E1,2.5631592E-1,6.28E2,-2.5550447E-2,-4.5517888E-2,-2.9717788E-2,-1.2081873E-2,2.3488857E-2,-3.8279416E-3,1.0143732E-4,-2.281869E-1,1.8076545E-1,1.9299889E-2,-1.6363755E-2,-6.2444493E-2,-1.7698883E-3,-7.077729E-2,3.227534E-1,3.1182839E-2,-1.3458042E-1,1.8257588E-2,3.0055821E-2,8.923735E-2,-6.743045E-2,3.7271548E-2,-3.9212037E-2,1.409369E-1],"split_indices":[1,1,1,0,1,1,0,0,0,1,0,0,0,0,0,0,1,0,0,0,0,1,0,0,0,0,0,1,1,0,0,0,0,0,0,0,0,1,0,1,0,0,0,0,0,0,0,0,0,0,0,0,0,0,0,0,0,0,0,0,0,0,0,0,0,0,0],"split_type":[0,0,0,0,0,0,0,0,0,0,0,0,0,0,0,0,0,0,0,0,0,0,0,0,0,0,0,0,0,0,0,0,0,0,0,0,0,0,0,0,0,0,0,0,0,0,0,0,0,0,0,0,0,0,0,0,0,0,0,0,0,0,0,0,0,0,0],"sum_hessian":[7.93E2,6.99E2,9.4E1,3.47E2,3.52E2,8.9E1,5E0,3.36E2,1.1E1,3.4E1,3.18E2,4.2E1,4.7E1,1E0,4E0,3.31E2,5E0,3E0,8E0,3E1,4E0,2.77E2,4.1E1,3.1E1,1.1E1,1E0,3E0,1.21E2,2.1E2,1E0,4E0,2E0,6E0,2.8E1,2E0,3.8E1,2.39E2,4E0,3.7E1,2.7E1,4E0,1E0,1E1,8.7E1,3.4E1,2.9E1,1.81E2,1E0,5E0,2.7E1,1E0,1E0,1E0,1E1,2.8E1,2.26E2,1.3E1,2E0,2E0,4E0,3.3E1,4E0,2.3E1,3E0,1E0,2E0,8E0],"tree_param":{"num_deleted":"0","num_feature":"3","num_nodes":"67","size_leaf_vector":"1"}},{"base_weights":[1.3986647E-2,3.422104E-3,1.4008929E0,-2.9650789E-2,2.4247591E-1,8.441815E-1,5.554962E-1,-5.0006166E-2,-7.4336813E-3,2.2398026E-1,3.532804E-1,4.6802904E-2,1.8490964E-1,-4.2520206E-2,-1.2097305E-1,-1.0554682E-2,3.3939472E-1,5.6533128E-2,2.5905418E-1,2.4919805E-1,2.2472793E-1,-5.058087E-2,1.7463073E-1,-1.04923425E-2,-4.7872382E-1,-1.078504E-4,-1.7299753E-1,1.532065E-1,-4.7886375E-4,1.0007188E-1,-8.948222E-2,6.308093E-2,8.310993E-2,2.1786863E-1,1.2887211E-1,-1.9850735E-2,-7.4985293E-3,-1.01897875E-2,9.85442E-2,-4.7231E-2,2.556194E-2,-1.8975247E-1,-5.0043702E-2,-3.446933E-3,1.153081E-1,2.4748906E-2,-1.0506045E-1,-6.45808E-3,3.967965E-2,-1.3387544E-2,1.2008229E-1],"categories":[],"categories_nodes":[],"categories_segments":[],"categories_sizes":[],"default_left":[0,0,0,0,0,0,0,0,0,0,0,0,0,0,0,0,0,0,0,0,0,0,0,0,0,0,0,0,0,0,0,0,0,0,0,0,0,0,0,0,0,0,0,0,0,0,0,0,0,0,0],"id":14,"left_children":[1,3,5,7,9,-1,11,13,15,17,19,-1,-1,21,23,25,27,29,31,33,-1,35,37,39,41,43,45,-1,-1,47,-1,-1,-1,-1,49,-1,-1,-1,-1,-1,-1,-1,-1,-1,-1,-1,-1,-1,-1,-1,-1],"loss_changes":[1.1628919E1,6.245182E0,5.60437E0,3.1348115E-1,1.1761522E-1,0E0,2.542317E-2,1.8717057E-1,3.6403877E-1,4.8456192E-1,3.076929E-1,0E0,0E0,5.847082E-1,1.338812E0,5.616928E-1,1.7604378E-1,2.770146E-1,3.144741E-3,5.3780013E-1,0E0,1.2517631E-1,3.9626816E-1,3.9309928E-1,2.7822685E-1,1.3697246E0,9.343809E-1,0E0,0E0,6.1567828E-2,0E0,0E0,0E0,0E0,4.8873755E-1,0E0,0E0,0E0,0E0,0E0,0E0,0E0,0E0,0E0,0E0,0E0,0E0,0E0,0E0,0E0,0E0],"parents":[2147483647,0,0,1,1,2,2,3,3,4,4,6,6,7,7,8,8,9,9,10,10,13,13,14,14,15,15,16,16,17,17,18,18,19,19,21,21,22,22,23,23,24,24,25,25,26,26,29,29,34,34],"right_children":[2,4,6,8,10,-1,12,14,16,18,20,-1,-1,22,24,26,28,30,32,34,-1,36,38,40,42,44,46,-1,-1,48,-1,-1,-1,-1,50,-1,-1,-1,-1,-1,-1,-1,-1,-1,-1,-1,-1,-1,-1,-1,-1],"split_conditions":[3.2941276E7,3.008639E6,7E0,2.2E1,4.17E2,8.441815E-1,3.642E3,1.71056E5,1.551752E6,2.1412646E7,1.6023591E7,4.6802904E-2,1.8490964E-1,8.8497E4,9E0,7.09276E5,1.96E2,1.6023591E7,2E0,5.11E2,2.2472793E-1,4.855E3,6E0,4.8353E5,1.3E1,5.60524E5,1E2,1.532065E-1,-4.7886375E-4,5E0,-8.948222E-2,6.308093E-2,8.310993E-2,2.1786863E-1,7.77E2,-1.9850735E-2,-7.4985293E-3,-1.01897875E-2,9.85442E-2,-4.7231E-2,2.556194E-2,-1.8975247E-1,-5.0043702E-2,-3.446933E-3,1.153081E-1,2.4748906E-2,-1.0506045E-1,-6.45808E-3,3.967965E-2,-1.3387544E-2,1.2008229E-1],"split_indices":[1,1,0,0,0,0,0,1,1,1,1,0,0,1,0,1,0,1,0,0,0,1,0,1,0,1,0,0,0,0,0,0,0,0,0,0,0,0,0,0,0,0,0,0,0,0,0,0,0,0,0],"split_type":[0,0,0,0,0,0,0,0,0,0,0,0,0,0,0,0,0,0,0,0,0,0,0,0,0,0,0,0,0,0,0,0,0,0,0,0,0,0,0,0,0,0,0,0,0,0,0,0,0,0,0],"sum_hessian":[7.93E2,7.88E2,5E0,6.93E2,9.5E1,1E0,4E0,3.61E2,3.32E2,8.4E1,1.1E1,1E0,3E0,3.28E2,3.3E1,3.3E2,2E0,1.5E1,6.9E1,1E1,1E0,3.17E2,1.1E1,2.6E1,7E0,3.11E2,1.9E1,1E0,1E0,1.4E1,1E0,2.2E1,4.7E1,1E0,9E0,1.96E2,1.21E2,5E0,6E0,1E1,1.6E1,4E0,3E0,3.03E2,8E0,8E0,1.1E1,3E0,1.1E1,6E0,3E0],"tree_param":{"num_deleted":"0","num_feature":"3","num_nodes":"51","size_leaf_vector":"1"}},{"base_weights":[1.1930336E-2,3.1850985E-3,1.1599407E0,-2.077888E-2,1.7639151E-1,7.1755433E-1,4.351898E-1,-2.4014626E-2,6.004548E-2,1.5784398E-1,2.9307055E-1,3.9782524E-2,1.4330493E-1,-1.9352317E-2,-1.9130066E-1,-3.2653927E-3,2.1081698E-1,1.7693952E-1,-3.0664443E-3,2.0394439E-1,1.9101878E-1,-2.4337137E-2,3.1964436E-1,-2.8702062E-1,1.1489182E-1,8.1198044E-2,-1.5268728E-1,2.2660826E-1,2.5116308E-2,6.615448E-2,5.5142857E-2,5.293359E-2,-7.606001E-2,1.851883E-1,1.0087995E-1,-6.635551E-3,-1.4841314E-1,-1.9926628E-2,-1.4979492E-1,-5.5333665E-3,1.0318732E-1,4.3532968E-2,-5.720282E-3,-5.0049666E-3,4.6365976E-2,-2.9238082E-2,2.5174607E-2,-9.944998E-3,9.306371E-2],"categories":[],"categories_nodes":[],"categories_segments":[],"categories_sizes":[],"default_left":[0,0,0,0,0,0,0,0,0,0,0,0,0,0,0,0,0,0,0,0,0,0,0,0,0,0,0,0,0,0,0,0,0,0,0,0,0,0,0,0,0,0,0,0,0,0,0,0,0],"id":15,"left_children":[1,3,5,7,9,-1,11,13,15,17,19,-1,-1,21,23,25,27,29,31,33,-1,35,-1,37,-1,39,-1,-1,41,43,-1,45,-1,-1,47,-1,-1,-1,-1,-1,-1,-1,-1,-1,-1,-1,-1,-1,-1],"loss_changes":[7.967767E0,3.2785792E0,4.3160458E0,1.8294182E-1,1.6149497E-1,0E0,9.434819E-4,5.1729727E-1,2.5841624E-1,2.6171947E-1,2.3769045E-1,0E0,0E0,3.5463433E0,1.099371E0,8.955763E-1,7.900053E-1,4.5683384E-2,1.53682E-1,4.0634575E-1,0E0,6.663456E-1,0E0,7.161484E-1,0E0,4.7762114E-1,0E0,0E0,3.98794E-2,4.651495E-2,0E0,5.011362E-2,0E0,0E0,2.9085165E-1,0E0,0E0,0E0,0E0,0E0,0E0,0E0,0E0,0E0,0E0,0E0,0E0,0E0,0E0],"parents":[2147483647,0,0,1,1,2,2,3,3,4,4,6,6,7,7,8,8,9,9,10,10,13,13,14,14,15,15,16,16,17,17,18,18,19,19,21,21,23,23,25,25,28,28,29,29,31,31,34,34],"right_children":[2,4,6,8,10,-1,12,14,16,18,20,-1,-1,22,24,26,28,30,32,34,-1,36,-1,38,-1,40,-1,-1,42,44,-1,46,-1,-1,48,-1,-1,-1,-1,-1,-1,-1,-1,-1,-1,-1,-1,-1,-1],"split_conditions":[3.2941276E7,3.008639E6,7E0,2.22E2,4.17E2,7.1755433E-1,3.642E3,1.58E2,5.60524E5,8E0,1.6023591E7,3.9782524E-2,1.4330493E-1,1.51E2,1.142217E6,4.05153E5,6.31986E5,1.0060291E7,1.0060291E7,5.11E2,1.9101878E-1,1.4E2,3.1964436E-1,3.9894E4,1.1489182E-1,1.71056E5,-1.5268728E-1,2.2660826E-1,7.30962E5,5E0,5.5142857E-2,9E0,-7.606001E-2,1.851883E-1,7.77E2,-6.635551E-3,-1.4841314E-1,-1.9926628E-2,-1.4979492E-1,-5.5333665E-3,1.0318732E-1,4.3532968E-2,-5.720282E-3,-5.0049666E-3,4.6365976E-2,-2.9238082E-2,2.5174607E-2,-9.944998E-3,9.306371E-2],"split_indices":[1,1,0,0,0,0,0,0,1,0,1,0,0,0,1,1,1,1,1,0,0,0,0,1,0,1,0,0,1,0,0,0,0,0,0,0,0,0,0,0,0,0,0,0,0,0,0,0,0],"split_type":[0,0,0,0,0,0,0,0,0,0,0,0,0,0,0,0,0,0,0,0,0,0,0,0,0,0,0,0,0,0,0,0,0,0,0,0,0,0,0,0,0,0,0,0,0,0,0,0,0],"sum_hessian":[7.93E2,7.88E2,5E0,6.93E2,9.5E1,1E0,4E0,6.67E2,2.6E1,8.4E1,1.1E1,1E0,3E0,6.5E2,1.7E1,1.9E1,7E0,7.5E1,9E0,1E1,1E0,6.48E2,2E0,1.5E1,2E0,1.7E1,2E0,1E0,6E0,5E0,7E1,8E0,1E0,1E0,9E0,6.46E2,2E0,8E0,7E0,1.3E1,4E0,1E0,5E0,3E0,2E0,1E0,7E0,6E0,3E0],"tree_param":{"num_deleted":"0","num_feature":"3","num_nodes":"49","size_leaf_vector":"1"}},{"base_weights":[1.048675E-2,3.2371287E-3,9.620641E-1,-1.3466378E-2,1.3311733E-1,6.099209E-1,3.4124908E-1,-2.2210924E-2,2.0749869E-2,1.1467646E-1,2.4342656E-1,5.3849317E-2,1.4823818E-1,-1.9404469E-2,-4.060539E-1,-3.7171874E-2,6.554394E-2,1.2692833E-1,-9.2036724E-2,1.6715266E-1,1.6236591E-1,-2.3056295E-2,5.2862935E-2,-5.343585E-2,-1.6347857E-1,1.4338642E-2,-2.5728646E-1,1.070545E-1,-2.6384344E-2,9.7139E-2,4.2498328E-2,-1.5163386E-1,2.1952773E-2,1.5741006E-1,7.89279E-2,-5.9950394E-3,-1.6654944E-1,1.9089799E-1,-2.2882614E-2,-6.294834E-3,2.6488049E-2,-2.6987968E-2,-1.4206551E-1,2.3236856E-2,2.602443E-1,-8.905369E-2,2.6664821E-2,2.5195595E-2,5.3627398E-2,-1.7552806E-2,-6.465111E-2,-7.3877336E-3,7.212446E-2],"categories":[],"categories_nodes":[],"categories_segments":[],"categories_sizes":[],"default_left":[0,0,0,0,0,0,0,0,0,0,0,0,0,0,0,0,0,0,0,0,0,0,0,0,0,0,0,0,0,0,0,0,0,0,0,0,0,0,0,0,0,0,0,0,0,0,0,0,0,0,0,0,0],"id":16,"left_children":[1,3,5,7,9,-1,11,13,15,17,19,-1,-1,21,23,25,27,29,31,33,-1,35,37,-1,-1,39,41,43,45,47,-1,49,-1,-1,51,-1,-1,-1,-1,-1,-1,-1,-1,-1,-1,-1,-1,-1,-1,-1,-1,-1,-1],"loss_changes":[5.4743543E0,1.7134925E0,3.2955942E0,2.0990476E-1,1.5516245E-1,0E0,3.494656E-2,5.9321964E-1,3.7345713E-1,2.1175909E-1,1.8209976E-1,0E0,0E0,1.4768772E-1,2.9554844E-2,7.179967E-1,3.119202E-1,1.9155264E-2,6.032694E-2,3.055765E-1,0E0,8.538629E-1,2.082919E0,0E0,0E0,1.3768655E-1,3.9164227E-1,1.1932197E0,8.369417E-1,1.5047491E-2,0E0,1.1182405E-2,0E0,0E0,1.7314607E-1,0E0,0E0,0E0,0E0,0E0,0E0,0E0,0E0,0E0,0E0,0E0,0E0,0E0,0E0,0E0,0E0,0E0,0E0],"parents":[2147483647,0,0,1,1,2,2,3,3,4,4,6,6,7,7,8,8,9,9,10,10,13,13,14,14,15,15,16,16,17,17,18,18,19,19,21,21,22,22,25,25,26,26,27,27,28,28,29,29,31,31,34,34],"right_children":[2,4,6,8,10,-1,12,14,16,18,20,-1,-1,22,24,26,28,30,32,34,-1,36,38,-1,-1,40,42,44,46,48,-1,50,-1,-1,52,-1,-1,-1,-1,-1,-1,-1,-1,-1,-1,-1,-1,-1,-1,-1,-1,-1,-1],"split_conditions":[3.2941276E7,4.387859E6,7E0,2.47476E5,4.17E2,6.099209E-1,3.871E3,2.41963E5,5.6E1,8E0,1.6023591E7,5.3849317E-2,1.4823818E-1,1.37E2,3.3E1,4.9E1,1.13E2,2.6245044E7,2.9E1,5.11E2,1.6236591E-1,2.27954E5,1.58E2,-5.343585E-2,-1.6347857E-1,2.2E1,5.16683E5,1.12E2,1.78E2,5E0,4.2498328E-2,2.6E1,2.1952773E-2,1.5741006E-1,7.77E2,-5.9950394E-3,-1.6654944E-1,1.9089799E-1,-2.2882614E-2,-6.294834E-3,2.6488049E-2,-2.6987968E-2,-1.4206551E-1,2.3236856E-2,2.602443E-1,-8.905369E-2,2.6664821E-2,2.5195595E-2,5.3627398E-2,-1.7552806E-2,-6.465111E-2,-7.3877336E-3,7.212446E-2],"split_indices":[1,1,0,1,0,0,0,1,0,0,1,0,0,0,0,0,0,1,0,0,0,1,0,0,0,0,1,0,0,0,0,0,0,0,0,0,0,0,0,0,0,0,0,0,0,0,0,0,0,0,0,0,0],"split_type":[0,0,0,0,0,0,0,0,0,0,0,0,0,0,0,0,0,0,0,0,0,0,0,0,0,0,0,0,0,0,0,0,0,0,0,0,0,0,0,0,0,0,0,0,0,0,0,0,0,0,0,0,0],"sum_hessian":[7.93E2,7.88E2,5E0,6.99E2,8.9E1,1E0,4E0,5.57E2,1.42E2,7.8E1,1.1E1,3E0,1E0,5.54E2,3E0,6.2E1,8E1,7.4E1,4E0,1E1,1E0,5.28E2,2.6E1,2E0,1E0,5.1E1,1.1E1,5.5E1,2.5E1,2.7E1,4.7E1,3E0,1E0,1E0,9E0,5.26E2,2E0,4E0,2.2E1,3.5E1,1.6E1,7E0,4E0,5.4E1,1E0,7E0,1.8E1,2.5E1,2E0,2E0,1E0,6E0,3E0],"tree_param":{"num_deleted":"0","num_feature":"3","num_nodes":"53","size_leaf_vector":"1"}},{"base_weights":[8.736583E-3,2.6415302E-3,8.0878E-1,-1.192847E-2,8.559406E-2,5.1843286E-1,2.792923E-1,-8.482774E-3,-1.183411E-1,6.186199E-2,2.1400213E-1,4.173346E-2,1.2600231E-1,-1.313337E-2,4.9442032E-1,5.953698E-2,-3.621271E-1,9.057968E-2,-9.636201E-2,2.3954548E-1,-3.3035234E-2,-6.2577575E-2,-9.50973E-3,5.2210715E-2,1.8333112E-1,-2.8329486E-1,5.067232E-1,-6.212753E-1,-3.0553436E-2,7.6605104E-2,3.0014088E-2,-2.1813723E-1,-1.4831543E-3,3.3405653E-1,1.5762524E-1,-1.3188011E-2,-1.2946981E-1,-1.9175013E-3,-1.8980378E-2,-1.1244338E-1,5.3598013E-2,2.0412521E-1,-5.426209E-2,-2.7205333E-1,-9.69516E-2,3.300333E-2,-2.7959205E-2,3.0726025E-2,1.7927516E-2,-2.2047501E-2,-1.1595023E-1,1.1717479E-2,-5.4953385E-2,4.4654418E-2,1.3072526E-1,1.3171537E-3,1.0218865E-1],"categories":[],"categories_nodes":[],"categories_segments":[],"categories_sizes":[],"default_left":[0,0,0,0,0,0,0,0,0,0,0,0,0,0,0,0,0,0,0,0,0,0,0,0,0,0,0,0,0,0,0,0,0,0,0,0,0,0,0,0,0,0,0,0,0,0,0,0,0,0,0,0,0,0,0,0,0],"id":17,"left_children":[1,3,5,7,9,-1,11,13,15,17,19,-1,-1,21,23,25,27,29,31,33,-1,35,37,-1,-1,39,41,43,45,47,-1,49,51,53,55,-1,-1,-1,-1,-1,-1,-1,-1,-1,-1,-1,-1,-1,-1,-1,-1,-1,-1,-1,-1,-1,-1],"loss_changes":[3.869652E0,9.5462096E-1,2.4379938E0,2.4539539E-1,3.463533E-1,0E0,4.0200084E-2,1.5313905E0,9.322078E-1,4.6765515E-1,1.7540205E-1,0E0,0E0,1.15326606E-1,1.1794746E-1,2.1365778E0,7.543584E-1,3.7138462E-3,1.8453877E-1,7.896435E-2,0E0,2.832933E-1,1.00838855E-1,0E0,0E0,4.0517533E-1,8.3965886E-1,1.3257861E-1,5.4280303E-2,1.0840535E-2,0E0,1.4206666E-1,8.0816254E-2,6.698191E-2,3.0697206E-1,0E0,0E0,0E0,0E0,0E0,0E0,0E0,0E0,0E0,0E0,0E0,0E0,0E0,0E0,0E0,0E0,0E0,0E0,0E0,0E0,0E0,0E0],"parents":[2147483647,0,0,1,1,2,2,3,3,4,4,6,6,7,7,8,8,9,9,10,10,13,13,14,14,15,15,16,16,17,17,18,18,19,19,21,21,22,22,25,25,26,26,27,27,28,28,29,29,31,31,32,32,33,33,34,34],"right_children":[2,4,6,8,10,-1,12,14,16,18,20,-1,-1,22,24,26,28,30,32,34,-1,36,38,-1,-1,40,42,44,46,48,-1,50,52,54,56,-1,-1,-1,-1,-1,-1,-1,-1,-1,-1,-1,-1,-1,-1,-1,-1,-1,-1,-1,-1,-1,-1],"split_conditions":[3.2941276E7,1.142217E6,7E0,6.33827E5,6.1E1,5.1843286E-1,3.871E3,5.60524E5,1E2,6E0,9.68E2,4.173346E-2,1.2600231E-1,2.4E1,6.6E1,6E1,1.96E2,2.6245044E7,3.008639E6,5.11E2,-3.3035234E-2,2.4E1,1.58E2,5.2210715E-2,1.8333112E-1,8.45809E5,8.45809E5,1.03E2,7.30962E5,5.351442E6,3.0014088E-2,1.834929E6,2.6E1,1.386637E6,6.212376E6,-1.3188011E-2,-1.2946981E-1,-1.9175013E-3,-1.8980378E-2,-1.1244338E-1,5.3598013E-2,2.0412521E-1,-5.426209E-2,-2.7205333E-1,-9.69516E-2,3.300333E-2,-2.7959205E-2,3.0726025E-2,1.7927516E-2,-2.2047501E-2,-1.1595023E-1,1.1717479E-2,-5.4953385E-2,4.4654418E-2,1.3072526E-1,1.3171537E-3,1.0218865E-1],"split_indices":[1,1,0,1,0,0,0,1,0,0,0,0,0,1,0,0,0,1,1,0,0,0,0,0,0,1,1,0,1,1,0,1,0,1,1,0,0,0,0,0,0,0,0,0,0,0,0,0,0,0,0,0,0,0,0,0,0],"split_type":[0,0,0,0,0,0,0,0,0,0,0,0,0,0,0,0,0,0,0,0,0,0,0,0,0,0,0,0,0,0,0,0,0,0,0,0,0,0,0,0,0,0,0,0,0,0,0,0,0,0,0,0,0,0,0,0,0],"sum_hessian":[7.93E2,7.88E2,5E0,6.71E2,1.17E2,1E0,4E0,6.51E2,2E1,1E2,1.7E1,3E0,1E0,6.46E2,5E0,1.2E1,8E0,8.5E1,1.5E1,1.6E1,1E0,4.3E1,6.03E2,2E0,3E0,7E0,5E0,4E0,4E0,3.8E1,4.7E1,6E0,9E0,6E0,1E1,4.2E1,1E0,5.71E2,3.2E1,6E0,1E0,4E0,1E0,1E0,3E0,1E0,3E0,1.3E1,2.5E1,4E0,2E0,8E0,1E0,3E0,3E0,6E0,4E0],"tree_param":{"num_deleted":"0","num_feature":"3","num_nodes":"57","size_leaf_vector":"1"}},{"base_weights":[6.907133E-3,1.7759413E-3,6.8050766E-1,-7.5134425E-3,6.891195E-2,4.4066793E-1,2.2905198E-1,-1.0885942E-2,5.266542E-2,5.528574E-2,1.5968823E-1,3.234358E-2,1.0710183E-1,-7.421558E-3,-2.914394E-1,9.009394E-2,-2.3363682E-2,6.0445987E-2,-1.0590967E-1,9.985221E-2,1.2268267E-1,-1.08022E-2,7.263978E-1,-1.6799557E-1,-1.08593285E-1,3.1815767E-2,2.6933885E-1,-4.12289E-1,8.483083E-2,1.9129204E-2,2.0147905E-2,-4.671049E-2,-9.488583E-4,1.1418972E-1,3.3710957E-2,-2.7579134E-3,-1.0627278E-1,6.015301E-2,2.6672602E-1,1.6343608E-1,-1.04468025E-1,1.8686164E-2,-2.1616803E-2,8.73983E-2,2.3909213E-2,-1.496526E-1,-3.5877444E-2,1.6111766E-1,-4.2293575E-3,2.7012153E-2,-3.3444718E-3,-3.557644E-2,2.5982775E-2],"categories":[],"categories_nodes":[],"categories_segments":[],"categories_sizes":[],"default_left":[0,0,0,0,0,0,0,0,0,0,0,0,0,0,0,0,0,0,0,0,0,0,0,0,0,0,0,0,0,0,0,0,0,0,0,0,0,0,0,0,0,0,0,0,0,0,0,0,0,0,0,0,0],"id":18,"left_children":[1,3,5,7,9,-1,11,13,15,17,19,-1,-1,21,23,25,27,29,31,33,-1,35,37,-1,39,41,43,45,47,49,-1,-1,-1,-1,51,-1,-1,-1,-1,-1,-1,-1,-1,-1,-1,-1,-1,-1,-1,-1,-1,-1,-1],"loss_changes":[2.7431521E0,4.9257925E-1,1.7990735E0,1.4142281E-1,1.099174E-1,0E0,3.90763E-2,6.3737684E-1,1.07394226E-1,7.710549E-2,1.3813859E-1,0E0,0E0,1.6228349E0,3.3200997E-1,2.5258243E-1,5.8200943E-1,2.17385E-2,1.4855433E-2,1.9145122E-1,0E0,3.5541254E-1,7.839751E-2,0E0,1.1291399E0,6.779063E-2,1.8018484E-3,1.6344309E-2,4.9969292E-1,2.8914958E-2,0E0,0E0,0E0,0E0,9.083443E-2,0E0,0E0,0E0,0E0,0E0,0E0,0E0,0E0,0E0,0E0,0E0,0E0,0E0,0E0,0E0,0E0,0E0,0E0],"parents":[2147483647,0,0,1,1,2,2,3,3,4,4,6,6,7,7,8,8,9,9,10,10,13,13,14,14,15,15,16,16,17,17,18,18,19,19,21,21,22,22,24,24,25,25,26,26,27,27,28,28,29,29,34,34],"right_children":[2,4,6,8,10,-1,12,14,16,18,20,-1,-1,22,24,26,28,30,32,34,-1,36,38,-1,40,42,44,46,48,50,-1,-1,-1,-1,52,-1,-1,-1,-1,-1,-1,-1,-1,-1,-1,-1,-1,-1,-1,-1,-1,-1,-1],"split_conditions":[3.2941276E7,3.008639E6,7E0,1.78E2,4.17E2,4.4066793E-1,3.871E3,1.58E2,4.05153E5,2.6E1,1.6023591E7,3.234358E-2,1.0710183E-1,1.51E2,7.363E3,2.64707E5,5.60524E5,1.0060291E7,2.9E1,5.11E2,1.2268267E-1,1.4E2,1.52E2,-1.6799557E-1,1.1433E4,7.4708E4,3.31344E5,3.15E2,6.31986E5,3.085902E6,2.0147905E-2,-4.671049E-2,-9.488583E-4,1.1418972E-1,6.28E2,-2.7579134E-3,-1.0627278E-1,6.015301E-2,2.6672602E-1,1.6343608E-1,-1.04468025E-1,1.8686164E-2,-2.1616803E-2,8.73983E-2,2.3909213E-2,-1.496526E-1,-3.5877444E-2,1.6111766E-1,-4.2293575E-3,2.7012153E-2,-3.3444718E-3,-3.557644E-2,2.5982775E-2],"split_indices":[1,1,0,0,0,0,0,0,1,0,1,0,0,0,1,1,1,1,0,0,0,0,0,0,1,1,1,0,1,1,0,0,0,0,0,0,0,0,0,0,0,0,0,0,0,0,0,0,0,0,0,0,0],"split_type":[0,0,0,0,0,0,0,0,0,0,0,0,0,0,0,0,0,0,0,0,0,0,0,0,0,0,0,0,0,0,0,0,0,0,0,0,0,0,0,0,0,0,0,0,0,0,0,0,0,0,0,0,0],"sum_hessian":[7.93E2,7.88E2,5E0,6.93E2,9.5E1,1E0,4E0,6.57E2,3.6E1,8.4E1,1.1E1,3E0,1E0,6.5E2,7E0,2.4E1,1.2E1,8.2E1,2E0,1E1,1E0,6.48E2,2E0,2E0,5E0,1.9E1,5E0,2E0,1E1,1.2E1,7E1,1E0,1E0,1E0,9E0,6.46E2,2E0,1E0,1E0,1E0,4E0,1.5E1,4E0,4E0,1E0,1E0,1E0,1E0,9E0,3E0,9E0,2E0,7E0],"tree_param":{"num_deleted":"0","num_feature":"3","num_nodes":"53","size_leaf_vector":"1"}},{"base_weights":[6.084396E-3,1.7652303E-3,5.7304066E-1,-8.550413E-3,3.9376605E-2,3.74568E-1,1.8822479E-1,-5.048334E-3,-5.4660845E-1,2.3936813E-1,3.060028E-2,2.5065996E-2,9.103661E-2,-7.2355154E-3,3.3194607E-1,-1.5189958E-2,-2.0851675E-1,3.269732E-2,2.2190896E-1,-1.0129492E-1,4.167947E-2,-1.0873607E-2,5.5145863E-2,-2.151239E-3,4.473753E-1,2.465147E-2,-4.416744E-2,9.726562E-2,-1.7171177E-1,1.7076856E-1,2.7346024E-2,-2.7239718E-3,-1.0603002E-1,1.4012492E-1,-4.604559E-3,1.8099605E-1,2.0322848E-2,3.9540054E-3,-2.3829354E-2,-1.0991128E-1,5.6846607E-2,1.1985195E-2,1.081011E-1,-6.1352346E-2,1.29561275E-2],"categories":[],"categories_nodes":[],"categories_segments":[],"categories_sizes":[],"default_left":[0,0,0,0,0,0,0,0,0,0,0,0,0,0,0,0,0,0,0,0,0,0,0,0,0,0,0,0,0,0,0,0,0,0,0,0,0,0,0,0,0,0,0,0,0],"id":19,"left_children":[1,3,5,7,9,-1,11,13,15,17,19,-1,-1,21,23,-1,-1,25,-1,27,29,31,33,-1,35,-1,37,39,-1,41,43,-1,-1,-1,-1,-1,-1,-1,-1,-1,-1,-1,-1,-1,-1],"loss_changes":[1.9433182E0,3.0645728E-1,1.3246932E0,1.16552E0,2.9105765E-1,0E0,3.4952074E-2,4.5717266E-1,2.5931203E-1,6.9963676E-1,2.4387388E-1,0E0,0E0,1.3994643E-1,1.5978405E-1,0E0,0E0,2.644626E-2,0E0,1.2716588E0,2.7657446E-1,3.5378623E-1,9.9450403E-1,0E0,1.3673449E-1,0E0,7.1137617E-3,4.9700287E-1,0E0,3.575885E-1,5.1568013E-1,0E0,0E0,0E0,0E0,0E0,0E0,0E0,0E0,0E0,0E0,0E0,0E0,0E0,0E0],"parents":[2147483647,0,0,1,1,2,2,3,3,4,4,6,6,7,7,8,8,9,9,10,10,13,13,14,14,17,17,19,19,20,20,21,21,22,22,24,24,26,26,27,27,29,29,30,30],"right_children":[2,4,6,8,10,-1,12,14,16,18,20,-1,-1,22,24,-1,-1,26,-1,28,30,32,34,-1,36,-1,38,40,-1,42,44,-1,-1,-1,-1,-1,-1,-1,-1,-1,-1,-1,-1,-1,-1],"split_conditions":[3.2941276E7,4.09551E5,7E0,4.05153E5,4.33326E5,3.74568E-1,3.871E3,4.0034E5,6.4E1,9E1,4.8353E5,2.5065996E-2,9.103661E-2,1.37E2,4.4E1,-1.5189958E-2,-2.0851675E-1,4.27254E5,2.2190896E-1,8.8E1,6.33827E5,1.22E2,1.58E2,-2.151239E-3,1.08E2,2.465147E-2,4.9E1,4E0,-1.7171177E-1,5.60524E5,7.30962E5,-2.7239718E-3,-1.0603002E-1,1.4012492E-1,-4.604559E-3,1.8099605E-1,2.0322848E-2,3.9540054E-3,-2.3829354E-2,-1.0991128E-1,5.6846607E-2,1.1985195E-2,1.081011E-1,-6.1352346E-2,1.29561275E-2],"split_indices":[1,1,0,1,1,0,0,1,0,0,1,0,0,0,0,0,0,1,0,0,1,0,0,0,0,0,0,0,0,1,1,0,0,0,0,0,0,0,0,0,0,0,0,0,0],"split_type":[0,0,0,0,0,0,0,0,0,0,0,0,0,0,0,0,0,0,0,0,0,0,0,0,0,0,0,0,0,0,0,0,0,0,0,0,0,0,0,0,0,0,0,0,0],"sum_hessian":[7.93E2,7.88E2,5E0,6.19E2,1.69E2,1E0,4E0,6.16E2,3E0,6E0,1.63E2,3E0,1E0,6.13E2,3E0,1E0,2E0,5E0,1E0,1.2E1,1.51E2,5.8E2,3.3E1,1E0,2E0,3E0,2E0,9E0,3E0,1.4E1,1.37E2,5.78E2,2E0,4E0,2.9E1,1E0,1E0,1E0,1E0,1E0,8E0,9E0,5E0,8E0,1.29E2],"tree_param":{"num_deleted":"0","num_feature":"3","num_nodes":"45","size_leaf_vector":"1"}},{"base_weights":[4.9726516E-3,1.3318725E-3,4.8290634E-1,-1.9788307E-3,7.971253E-2,3.1838265E-1,1.5497741E-1,-1.6873972E-2,8.309527E-3,9.9741004E-2,-4.4142917E-2,1.942606E-2,7.738095E-2,-1.2194352E-2,-1.4750709E-1,5.3800218E-2,3.2993022E-4,7.965465E-2,1.02336794E-1,-1.5394872E-2,1.4555477E-1,8.945944E-3,1.824612E-1,-7.960102E-2,1.0145048E-2,6.378537E-2,5.6135133E-2,-3.9546667E-3,-1.0386991E-1,-3.7274316E-3,2.3448166E-2,-3.4665596E-2,1.951748E-2,7.016086E-2,1.6361781E-3,-5.5238154E-2,2.5148688E-2],"categories":[],"categories_nodes":[],"categories_segments":[],"categories_sizes":[],"default_left":[0,0,0,0,0,0,0,0,0,0,0,0,0,0,0,0,0,0,0,0,0,0,0,0,0,0,0,0,0,0,0,0,0,0,0,0,0],"id":20,"left_children":[1,3,5,7,9,-1,11,13,15,17,-1,-1,-1,19,-1,21,23,25,-1,27,-1,29,-1,31,33,-1,35,-1,-1,-1,-1,-1,-1,-1,-1,-1,-1],"loss_changes":[1.3809575E0,2.0489937E-1,9.7351015E-1,1.16301104E-1,1.6007048E-1,0E0,2.9744536E-2,6.828116E-1,1.6296807E-1,1.1828229E-1,0E0,0E0,0E0,4.9776348E-1,0E0,1.6606735E0,3.0128315E-1,7.8754365E-2,0E0,2.2016887E-1,0E0,9.415856E-2,0E0,2.2594449E-1,3.576598E-1,0E0,1.8843353E-1,0E0,0E0,0E0,0E0,0E0,0E0,0E0,0E0,0E0,0E0],"parents":[2147483647,0,0,1,1,2,2,3,3,4,4,6,6,7,7,8,8,9,9,13,13,15,15,16,16,17,17,19,19,21,21,23,23,24,24,26,26],"right_children":[2,4,6,8,10,-1,12,14,16,18,-1,-1,-1,20,-1,22,24,26,-1,28,-1,30,-1,32,34,-1,36,-1,-1,-1,-1,-1,-1,-1,-1,-1,-1],"split_conditions":[3.2941276E7,2.49E2,7E0,3.028E3,1E3,3.1838265E-1,3.871E3,1.4E2,1.3044E4,1.6023591E7,-4.4142917E-2,1.942606E-2,7.738095E-2,1.37E2,-1.4750709E-1,1.2143E4,3.018E4,2.83E2,1.02336794E-1,1.22E2,1.4555477E-1,3.6E1,1.824612E-1,8.3E1,3.3718E4,6.378537E-2,3.15E2,-3.9546667E-3,-1.0386991E-1,-3.7274316E-3,2.3448166E-2,-3.4665596E-2,1.951748E-2,7.016086E-2,1.6361781E-3,-5.5238154E-2,2.5148688E-2],"split_indices":[1,0,0,1,0,0,0,0,1,1,0,0,0,0,0,1,1,0,0,0,0,0,0,0,1,0,0,0,0,0,0,0,0,0,0,0,0],"split_type":[0,0,0,0,0,0,0,0,0,0,0,0,0,0,0,0,0,0,0,0,0,0,0,0,0,0,0,0,0,0,0,0,0,0,0,0,0],"sum_hessian":[7.93E2,7.88E2,5E0,7.57E2,3.1E1,1E0,4E0,3.09E2,4.48E2,2.9E1,2E0,3E0,1E0,3.07E2,2E0,6.6E1,3.82E2,2.8E1,1E0,3.06E2,1E0,6.2E1,4E0,4.1E1,3.41E2,3E0,2.5E1,3.05E2,1E0,4.8E1,1.4E1,3.3E1,8E0,6E0,3.35E2,2E0,2.3E1],"tree_param":{"num_deleted":"0","num_feature":"3","num_nodes":"37","size_leaf_vector":"1"}},{"base_weights":[4.307194E-3,1.2376562E-3,4.0723357E-1,-8.892951E-3,1.7003302E-2,2.7062532E-1,1.2784652E-1,-5.108514E-3,-9.5868796E-2,2.765012E-1,1.3555606E-2,1.5055561E-2,6.577378E-2,-7.834458E-3,1.7319702E-1,5.8057312E-2,-1.8031237E-1,-6.2807403E-3,1.6872707E-1,3.7009765E-3,6.644713E-2,-4.317996E-2,-1.0947282E-3,-1.657782E-1,1.4066191E-1,-8.747121E-2,-1.3220884E-1,1.3656557E-3,-4.191989E-3,1.5638344E-2,-1.397325E-1,4.1888905E-1,2.4886755E-2,-1.2962886E-3,-8.6267866E-2,-1.784784E-3,3.8288727E-2,2.4840707E-2,-8.287176E-2,1.9326836E-2,-4.6189014E-2,3.5624441E-3,7.04154E-2,-6.1723065E-2,1.6717161E-1,2.1056052E-1,-1.1159898E-3,-1.4705344E-1,1.447935E-2],"categories":[],"categories_nodes":[],"categories_segments":[],"categories_sizes":[],"default_left":[0,0,0,0,0,0,0,0,0,0,0,0,0,0,0,0,0,0,0,0,0,0,0,0,0,0,0,0,0,0,0,0,0,0,0,0,0,0,0,0,0,0,0,0,0,0,0,0,0],"id":21,"left_children":[1,3,5,7,9,-1,11,13,15,17,19,-1,-1,21,23,-1,25,27,-1,29,31,33,35,37,-1,-1,39,-1,-1,41,43,45,47,-1,-1,-1,-1,-1,-1,-1,-1,-1,-1,-1,-1,-1,-1,-1,-1],"loss_changes":[9.815134E-1,1.2616679E-1,7.1420103E-1,1.578336E-1,2.7270484E-1,0E0,2.4488084E-2,2.2591239E-1,5.2364254E-1,3.2694706E-1,1.5924935E-1,0E0,0E0,1.08580634E-1,7.7931666E-1,0E0,4.7082484E-2,3.1360766E-4,0E0,4.4564968E-1,6.926609E-1,6.9199073E-1,2.4071951E-1,1.3270707E-1,0E0,0E0,6.5527916E-2,0E0,0E0,1.950959E-1,1.0348041E0,6.0055894E-1,5.534646E-1,0E0,0E0,0E0,0E0,0E0,0E0,0E0,0E0,0E0,0E0,0E0,0E0,0E0,0E0,0E0,0E0],"parents":[2147483647,0,0,1,1,2,2,3,3,4,4,6,6,7,7,8,8,9,9,10,10,13,13,14,14,16,16,17,17,19,19,20,20,21,21,22,22,23,23,26,26,29,29,30,30,31,31,32,32],"right_children":[2,4,6,8,10,-1,12,14,16,18,20,-1,-1,22,24,-1,26,28,-1,30,32,34,36,38,-1,-1,40,-1,-1,42,44,46,48,-1,-1,-1,-1,-1,-1,-1,-1,-1,-1,-1,-1,-1,-1,-1,-1],"split_conditions":[3.2941276E7,6.2586E4,7E0,4.9053E4,6.4143E4,2.7062532E-1,3.871E3,4.5414E4,8E0,7E0,1.08E2,1.5055561E-2,6.577378E-2,4E0,1.8E1,5.8057312E-2,9E0,3E0,1.6872707E-1,9.3E1,1.13E2,3.3718E4,3.5181E4,7E0,1.4066191E-1,-8.747121E-2,1.1E1,1.3656557E-3,-4.191989E-3,9E1,7.30962E5,4.33326E5,7.3921E4,-1.2962886E-3,-8.6267866E-2,-1.784784E-3,3.8288727E-2,2.4840707E-2,-8.287176E-2,1.9326836E-2,-4.6189014E-2,3.5624441E-3,7.04154E-2,-6.1723065E-2,1.6717161E-1,2.1056052E-1,-1.1159898E-3,-1.4705344E-1,1.447935E-2],"split_indices":[1,1,0,1,1,0,0,1,0,0,0,0,0,0,0,0,0,0,0,0,0,1,1,0,0,0,0,0,0,0,1,1,1,0,0,0,0,0,0,0,0,0,0,0,0,0,0,0,0],"split_type":[0,0,0,0,0,0,0,0,0,0,0,0,0,0,0,0,0,0,0,0,0,0,0,0,0,0,0,0,0,0,0,0,0,0,0,0,0,0,0,0,0,0,0,0,0,0,0,0,0],"sum_hessian":[7.93E2,7.88E2,5E0,4.8E2,3.08E2,1E0,4E0,4.61E2,1.9E1,3E0,3.05E2,3E0,1E0,4.55E2,6E0,4E0,1.5E1,2E0,1E0,2.58E2,4.7E1,7.2E1,3.83E2,3E0,3E0,3E0,1.2E1,1E0,1E0,2.39E2,1.9E1,4E0,4.3E1,6.3E1,9E0,3.7E2,1.3E1,1E0,2E0,1E0,1.1E1,2.36E2,3E0,1.8E1,1E0,2E0,2E0,1E0,4.2E1],"tree_param":{"num_deleted":"0","num_feature":"3","num_nodes":"49","size_leaf_vector":"1"}},{"base_weights":[3.958258E-3,1.3701194E-3,3.4363875E-1,-2.3451068E-3,2.8213836E-2,2.300314E-1,1.0565796E-1,2.923248E-4,-4.7883198E-2,2.0308021E-2,8.186221E-2,1.1667824E-2,5.5907823E-2,-2.5317743E-3,1.6637413E-1,-3.9954495E-1,-6.3251904E-3,2.49035E-2,-1.1360296E-1,8.9173794E-2,3.5259508E-2,-7.871997E-4,-6.0153127E-2,-4.915021E-2,1.06250845E-1,-5.908386E-1,2.6150394E-2,-6.653504E-2,6.933245E-2,-1.5470248E-3,2.9395802E-2,-4.2427257E-2,-8.694077E-3,-1.775751E-2,8.481446E-2,-9.5575635E-4,4.4402435E-2,2.157547E-2,-1.3330097E-1,1.4574981E-2,-2.352407E-2,-5.3261593E-2,-2.1261579E-1,1.4423919E-2,-1.02594845E-1,8.308757E-2,-1.5066329E-2,1.6849585E-2,-7.3431735E-3,5.7901135E-3,1.0060367E-2,-2.5076294E-2,3.0565383E-2],"categories":[],"categories_nodes":[],"categories_segments":[],"categories_sizes":[],"default_left":[0,0,0,0,0,0,0,0,0,0,0,0,0,0,0,0,0,0,0,0,0,0,0,0,0,0,0,0,0,0,0,0,0,0,0,0,0,0,0,0,0,0,0,0,0,0,0,0,0,0,0,0,0],"id":22,"left_children":[1,3,5,7,9,-1,11,13,15,17,19,-1,-1,21,23,25,27,29,31,-1,33,35,37,39,-1,41,-1,43,45,47,49,-1,-1,51,-1,-1,-1,-1,-1,-1,-1,-1,-1,-1,-1,-1,-1,-1,-1,-1,-1,-1,-1],"loss_changes":[6.9756633E-1,7.8753516E-2,5.23169E-1,8.336589E-2,3.9054416E-2,0E0,1.9692212E-2,3.0857491E-1,5.5281854E-1,5.5136863E-2,1.0996883E-1,0E0,0E0,6.499215E-2,4.626266E-1,4.2392254E-1,1.6404979E-1,9.907849E-3,2.9644147E-3,0E0,1.493331E-1,2.24967E-1,9.9600875E-1,2.096964E-2,0E0,2.0335197E-2,0E0,6.4785004E-1,4.1106814E-1,1.8578395E-2,2.319321E-3,0E0,0E0,8.727686E-2,0E0,0E0,0E0,0E0,0E0,0E0,0E0,0E0,0E0,0E0,0E0,0E0,0E0,0E0,0E0,0E0,0E0,0E0,0E0],"parents":[2147483647,0,0,1,1,2,2,3,3,4,4,6,6,7,7,8,8,9,9,10,10,13,13,14,14,15,15,16,16,17,17,18,18,20,20,21,21,22,22,23,23,25,25,27,27,28,28,29,29,30,30,33,33],"right_children":[2,4,6,8,10,-1,12,14,16,18,20,-1,-1,22,24,26,28,30,32,-1,34,36,38,40,-1,42,-1,44,46,48,50,-1,-1,52,-1,-1,-1,-1,-1,-1,-1,-1,-1,-1,-1,-1,-1,-1,-1,-1,-1,-1,-1],"split_conditions":[3.2941276E7,3.008639E6,7E0,7.09276E5,4.17E2,2.300314E-1,3.871E3,5.60524E5,7.30962E5,2.6E1,5.11E2,1.1667824E-2,5.5907823E-2,4.39589E5,5.2E1,1.03E2,6.1E1,1.0060291E7,2.9E1,8.9173794E-2,1.6023591E7,4.09551E5,8.8E1,3E0,1.06250845E-1,6E1,2.6150394E-2,9E0,1.39E2,3.085902E6,2E0,-4.2427257E-2,-8.694077E-3,7.77E2,8.481446E-2,-9.5575635E-4,4.4402435E-2,2.157547E-2,-1.3330097E-1,1.4574981E-2,-2.352407E-2,-5.3261593E-2,-2.1261579E-1,1.4423919E-2,-1.02594845E-1,8.308757E-2,-1.5066329E-2,1.6849585E-2,-7.3431735E-3,5.7901135E-3,1.0060367E-2,-2.5076294E-2,3.0565383E-2],"split_indices":[1,1,0,1,0,0,0,1,1,0,0,0,0,1,0,0,0,1,0,0,1,1,0,0,0,0,0,0,0,1,0,0,0,0,0,0,0,0,0,0,0,0,0,0,0,0,0,0,0,0,0,0,0],"split_type":[0,0,0,0,0,0,0,0,0,0,0,0,0,0,0,0,0,0,0,0,0,0,0,0,0,0,0,0,0,0,0,0,0,0,0,0,0,0,0,0,0,0,0,0,0,0,0,0,0,0,0,0,0],"sum_hessian":[7.93E2,7.88E2,5E0,6.93E2,9.5E1,1E0,4E0,6.56E2,3.7E1,8.4E1,1.1E1,3E0,1E0,6.46E2,1E1,3E0,3.4E1,8.2E1,2E0,1E0,1E1,6.28E2,1.8E1,5E0,5E0,2E0,1E0,1.9E1,1.5E1,1.2E1,7E1,1E0,1E0,9E0,1E0,6.19E2,9E0,1.4E1,4E0,1E0,4E0,1E0,1E0,1.4E1,5E0,5E0,1E1,3E0,9E0,2.2E1,4.8E1,6E0,3E0],"tree_param":{"num_deleted":"0","num_feature":"3","num_nodes":"53","size_leaf_vector":"1"}},{"base_weights":[3.0484817E-3,8.6135336E-4,2.9014778E-1,-1.289638E-3,5.1786043E-2,1.955269E-1,8.747482E-2,5.099598E-4,-5.4074243E-2,3.795283E-2,7.209235E-2,9.042263E-3,4.7521595E-2,-1.3394987E-3,2.0342447E-1,-2.6795062E-1,-5.763315E-4,4.62721E-2,1.501245E-2,-4.2705875E-4,-1.675249E-1,-1.2052155E-1,-1.34537695E-2,3.499492E-1,-5.5892136E-2,-7.533896E-2,3.4907535E-2,-4.6884932E-4,1.2413264E-1,-8.540648E-2,2.7594782E-2,1.365052E-1,2.0971943E-2,-3.0579252E-2,6.708737E-2,1.6645161E-2,-2.7639987E-2],"categories":[],"categories_nodes":[],"categories_segments":[],"categories_sizes":[],"default_left":[0,0,0,0,0,0,0,0,0,0,0,0,0,0,0,0,0,0,0,0,0,0,0,0,0,0,0,0,0,0,0,0,0,0,0,0,0],"id":23,"left_children":[1,3,5,7,9,-1,11,13,15,17,-1,-1,-1,19,-1,21,23,-1,25,27,29,-1,-1,31,33,-1,35,-1,-1,-1,-1,-1,-1,-1,-1,-1,-1],"loss_changes":[4.983209E-1,8.649271E-2,3.8271737E-1,7.20308E-2,7.433121E-2,0E0,1.5559148E-2,9.207134E-1,2.858941E-1,8.0382526E-2,0E0,0E0,0E0,1.1107632E-1,0E0,1.3122717E-1,4.2674106E-1,0E0,1.5172927E-1,3.4406766E-1,1.4780548E-1,0E0,0E0,5.646202E-2,2.6729736E-1,0E0,7.307681E-2,0E0,0E0,0E0,0E0,0E0,0E0,0E0,0E0,0E0,0E0],"parents":[2147483647,0,0,1,1,2,2,3,3,4,4,6,6,7,7,8,8,9,9,13,13,15,15,16,16,18,18,19,19,20,20,23,23,24,24,26,26],"right_children":[2,4,6,8,10,-1,12,14,16,18,-1,-1,-1,20,-1,22,24,-1,26,28,30,-1,-1,32,34,-1,36,-1,-1,-1,-1,-1,-1,-1,-1,-1,-1],"split_conditions":[3.2941276E7,2.49E2,7E0,1.58E2,1.6023591E7,1.955269E-1,3.871E3,1.52E2,7.363E3,3.09E2,7.209235E-2,9.042263E-3,4.7521595E-2,1.4E2,2.0342447E-1,1.77E2,1.1433E4,4.62721E-2,3.15E2,1.39E2,1.51E2,-1.2052155E-1,-1.34537695E-2,1.75E2,1.142217E6,-7.533896E-2,8.754403E6,-4.6884932E-4,1.2413264E-1,-8.540648E-2,2.7594782E-2,1.365052E-1,2.0971943E-2,-3.0579252E-2,6.708737E-2,1.6645161E-2,-2.7639987E-2],"split_indices":[1,0,0,0,1,0,0,0,1,0,0,0,0,0,0,0,1,0,0,0,0,0,0,0,1,0,1,0,0,0,0,0,0,0,0,0,0],"split_type":[0,0,0,0,0,0,0,0,0,0,0,0,0,0,0,0,0,0,0,0,0,0,0,0,0,0,0,0,0,0,0,0,0,0,0,0,0],"sum_hessian":[7.93E2,7.88E2,5E0,7.57E2,3.1E1,1E0,4E0,7.33E2,2.4E1,3E1,1E0,3E0,1E0,7.32E2,1E0,4E0,2E1,4E0,2.6E1,7.29E2,3E0,2E0,2E0,2E0,1.8E1,1E0,2.5E1,7.28E2,1E0,2E0,1E0,1E0,1E0,1.6E1,2E0,2.2E1,3E0],"tree_param":{"num_deleted":"0","num_feature":"3","num_nodes":"37","size_leaf_vector":"1"}},{"base_weights":[2.9065083E-3,1.0609038E-3,2.451191E-1,-1.0853421E-3,3.7425414E-2,1.6619797E-1,7.2545625E-2,7.2385016E-4,-1.03151634E-1,2.8795226E-2,6.1278537E-2,7.008076E-3,4.039307E-2,-8.477934E-4,1.729108E-1,-1.5499972E-1,7.78538E-2,3.674552E-2,-2.6837159E-2,3.7484756E-4,-9.924412E-2,3.968159E-3,-2.6911506E-1,2.3521593E-2,1.5318644E-1,-3.03023E-4,4.277184E-2,-1.117247E-1,9.602135E-3,-9.641724E-2,7.40986E-2,-9.5073976E-2,2.6510954E-3,1.4958928E-2,-2.0069076E-2,5.538769E-2,8.830333E-3],"categories":[],"categories_nodes":[],"categories_segments":[],"categories_sizes":[],"default_left":[0,0,0,0,0,0,0,0,0,0,0,0,0,0,0,0,0,0,0,0,0,0,0,0,0,0,0,0,0,0,0,0,0,0,0,0,0],"id":24,"left_children":[1,3,5,7,9,-1,11,13,15,17,-1,-1,-1,19,-1,21,-1,23,-1,25,27,29,31,33,35,-1,-1,-1,-1,-1,-1,-1,-1,-1,-1,-1,-1],"loss_changes":[3.546807E-1,6.161985E-2,2.7963108E-1,1.3782918E-1,5.7470724E-2,0E0,1.2126239E-2,6.6454536E-1,2.8466922E-1,4.371323E-2,0E0,0E0,0E0,8.8219576E-2,0E0,2.1875599E-1,0E0,5.952887E-2,0E0,1.4292072E-1,3.3460683E-1,5.538084E-1,9.5799744E-2,9.384253E-2,1.0128297E-2,0E0,0E0,0E0,0E0,0E0,0E0,0E0,0E0,0E0,0E0,0E0,0E0],"parents":[2147483647,0,0,1,1,2,2,3,3,4,4,6,6,7,7,8,8,9,9,13,13,15,15,17,17,19,19,20,20,21,21,22,22,23,23,24,24],"right_children":[2,4,6,8,10,-1,12,14,16,18,-1,-1,-1,20,-1,22,-1,24,-1,26,28,30,32,34,36,-1,-1,-1,-1,-1,-1,-1,-1,-1,-1,-1,-1],"split_conditions":[3.2941276E7,1.96E2,7E0,1.58E2,1.6023591E7,1.6619797E-1,3.871E3,1.52E2,1.386637E6,1E3,6.1278537E-2,7.008076E-3,4.039307E-2,1.22E2,1.729108E-1,2.4395E4,7.78538E-2,8.02E2,-2.6837159E-2,1.12E2,2.9E2,7.363E3,1.142217E6,5.11E2,9.68E2,-3.03023E-4,4.277184E-2,-1.117247E-1,9.602135E-3,-9.641724E-2,7.40986E-2,-9.5073976E-2,2.6510954E-3,1.4958928E-2,-2.0069076E-2,5.538769E-2,8.830333E-3],"split_indices":[1,0,0,0,1,0,0,0,1,0,0,0,0,0,0,1,0,0,0,0,1,1,1,0,0,0,0,0,0,0,0,0,0,0,0,0,0],"split_type":[0,0,0,0,0,0,0,0,0,0,0,0,0,0,0,0,0,0,0,0,0,0,0,0,0,0,0,0,0,0,0,0,0,0,0,0,0],"sum_hessian":[7.93E2,7.88E2,5E0,7.45E2,4.3E1,1E0,4E0,7.33E2,1.2E1,4.2E1,1E0,3E0,1E0,7.32E2,1E0,1.1E1,1E0,4E1,2E0,7.24E2,8E0,5E0,6E0,3.7E1,3E0,7.18E2,6E0,2E0,6E0,2E0,3E0,5E0,1E0,2.9E1,8E0,2E0,1E0],"tree_param":{"num_deleted":"0","num_feature":"3","num_nodes":"37","size_leaf_vector":"1"}},{"base_weights":[2.5174336E-3,9.5784926E-4,2.071832E-1,-5.037018E-3,1.0286566E-2,1.4126816E-1,6.02623E-2,-3.4015959E-3,-1.1529253E-1,2.3632175E-1,7.298241E-3,1.8104553E-2,3.4333993E-2,-4.35888E-3,1.10408366E-1,1.8262152E-2,-4.6439767E-2,-4.1868687E-3,1.4367715E-1,4.2899527E-2,-1.5910686E-4,1.5363694E-3,6.217575E-3,-2.7135718E-3,-1.5748797E-1,3.7793078E-2,9.555406E-3,1.4199526E-3,-3.3040436E-3,6.08318E-2,-1.4141664E-1,-1.21317305E-1,1.1852952E-2,-8.9164525E-3,6.8160496E-4,-6.7401476E-2,1.6686961E-2,5.60197E-4,4.61506E-2,-1.0600405E-1,-2.9218198E-5,-5.3554714E-2,9.585319E-2,1.1486101E-1,1.5961635E-3],"categories":[],"categories_nodes":[],"categories_segments":[],"categories_sizes":[],"default_left":[0,0,0,0,0,0,0,0,0,0,0,0,0,0,0,0,0,0,0,0,0,0,0,0,0,0,0,0,0,0,0,0,0,0,0,0,0,0,0,0,0,0,0,0,0],"id":25,"left_children":[1,3,5,7,9,-1,11,13,15,17,19,21,-1,23,25,-1,-1,27,-1,29,31,-1,-1,33,35,-1,-1,-1,-1,37,39,41,43,-1,-1,-1,-1,-1,-1,-1,-1,-1,-1,-1,-1],"loss_changes":[2.532412E-1,4.417618E-2,2.040905E-1,8.6339004E-2,2.069944E-1,0E0,9.349441E-3,5.22318E-2,5.814147E-2,2.3539673E-1,8.124713E-2,2.9962743E-5,0E0,1.184905E-1,8.795373E-4,0E0,0E0,2.3480968E-4,0E0,1.8377864E-1,3.7109926E-1,0E0,0E0,6.308395E-2,8.408483E-2,0E0,0E0,0E0,0E0,2.6842403E-1,1.4971466E-1,6.369747E-1,5.6024617E-1,0E0,0E0,0E0,0E0,0E0,0E0,0E0,0E0,0E0,0E0,0E0,0E0],"parents":[2147483647,0,0,1,1,2,2,3,3,4,4,6,6,7,7,8,8,9,9,10,10,11,11,13,13,14,14,17,17,19,19,20,20,23,23,24,24,29,29,30,30,31,31,32,32],"right_children":[2,4,6,8,10,-1,12,14,16,18,20,22,-1,24,26,-1,-1,28,-1,30,32,-1,-1,34,36,-1,-1,-1,-1,38,40,42,44,-1,-1,-1,-1,-1,-1,-1,-1,-1,-1,-1,-1],"split_conditions":[3.2941276E7,6.2586E4,7E0,5.871E4,6.4143E4,1.4126816E-1,3.871E3,5.6674E4,3E0,7E0,1.51119E5,3.642E3,3.4333993E-2,5.5918E4,7E0,1.8262152E-2,-4.6439767E-2,3E0,1.4367715E-1,1.01E2,2.47476E5,1.5363694E-3,6.217575E-3,4E0,9E0,3.7793078E-2,9.555406E-3,1.4199526E-3,-3.3040436E-3,1E1,1.7E2,1.01E2,2.60072E5,-8.9164525E-3,6.8160496E-4,-6.7401476E-2,1.6686961E-2,5.60197E-4,4.61506E-2,-1.0600405E-1,-2.9218198E-5,-5.3554714E-2,9.585319E-2,1.1486101E-1,1.5961635E-3],"split_indices":[1,1,0,1,1,0,0,1,0,0,1,0,0,1,0,0,0,0,0,0,1,0,0,0,0,0,0,0,0,0,0,0,1,0,0,0,0,0,0,0,0,0,0,0,0],"split_type":[0,0,0,0,0,0,0,0,0,0,0,0,0,0,0,0,0,0,0,0,0,0,0,0,0,0,0,0,0,0,0,0,0,0,0,0,0,0,0,0,0,0,0,0,0],"sum_hessian":[7.93E2,7.88E2,5E0,4.8E2,3.08E2,1E0,4E0,4.74E2,6E0,3E0,3.05E2,3E0,1E0,4.71E2,3E0,1E0,5E0,2E0,1E0,5.2E1,2.53E2,1E0,2E0,4.67E2,4E0,2E0,1E0,1E0,1E0,4.8E1,4E0,2.2E1,2.31E2,7.2E1,3.95E2,3E0,1E0,3E1,1.8E1,1E0,3E0,2E1,2E0,3E0,2.28E2],"tree_param":{"num_deleted":"0","num_feature":"3","num_nodes":"45","size_leaf_vector":"1"}},{"base_weights":[2.246982E-3,9.259564E-4,1.7558734E-1,-1.5194918E-3,1.8594863E-2,1.2007771E-1,5.0601196E-2,8.327335E-4,-4.2148244E-2,6.759155E-2,1.2749326E-2,1.4611244E-2,2.9184151E-2,-1.2220332E-3,1.2161467E-1,-3.557322E-1,-5.1058396E-3,2.2644334E-2,7.081747E-2,-2.3338467E-2,2.0591762E-2,1.305771E-3,4.9739843E-3,1.2171543E-3,-4.9730312E-2,-3.6583703E-2,7.786318E-2,-5.027625E-1,1.2803794E-2,-4.9440276E-2,6.4927265E-2,8.185387E-2,-5.9660845E-3,-4.9166568E-2,6.643748E-2,1.6013509E-2,5.1847175E-2,-2.1090306E-4,8.869743E-2,-1.2780952E-1,1.7409337E-3,1.2265063E-2,-1.8076159E-2,-4.539603E-2,-1.808471E-1,1.0154395E-2,-5.982772E-2,1.17055036E-1,-6.5392167E-3,-6.384516E-3,4.3218758E-2,1.2872941E-2,-1.6005136E-2,-1.8381486E-2,-5.2632526E-3,4.39909E-2,-2.6123859E-2,5.9065907E-3,-3.6186792E-2],"categories":[],"categories_nodes":[],"categories_segments":[],"categories_sizes":[],"default_left":[0,0,0,0,0,0,0,0,0,0,0,0,0,0,0,0,0,0,0,0,0,0,0,0,0,0,0,0,0,0,0,0,0,0,0,0,0,0,0,0,0,0,0,0,0,0,0,0,0,0,0,0,0,0,0,0,0,0,0],"id":26,"left_children":[1,3,5,7,9,-1,11,13,15,17,19,21,-1,23,25,27,29,31,-1,33,35,-1,-1,37,39,41,-1,43,-1,45,47,49,51,53,55,57,-1,-1,-1,-1,-1,-1,-1,-1,-1,-1,-1,-1,-1,-1,-1,-1,-1,-1,-1,-1,-1,-1,-1],"loss_changes":[1.8165311E-1,3.4119677E-2,1.4823149E-1,6.6359274E-2,2.66338E-2,0E0,6.9785416E-3,1.6320203E-1,4.39588E-1,7.0375696E-2,2.5102992E-2,8.6196815E-6,0E0,7.661408E-2,2.4951714E-1,2.5577176E-1,1.1188076E-1,1.5734432E-2,0E0,4.036638E-2,4.7413416E-2,0E0,0E0,3.4904426E-1,6.5028876E-1,1.3465363E-2,0E0,1.4277875E-2,0E0,2.815748E-1,4.034132E-1,2.2313675E-2,1.8500928E-2,3.9013177E-3,6.2016565E-2,3.8027894E-2,0E0,0E0,0E0,0E0,0E0,0E0,0E0,0E0,0E0,0E0,0E0,0E0,0E0,0E0,0E0,0E0,0E0,0E0,0E0,0E0,0E0,0E0,0E0],"parents":[2147483647,0,0,1,1,2,2,3,3,4,4,6,6,7,7,8,8,9,9,10,10,11,11,13,13,14,14,15,15,16,16,17,17,19,19,20,20,23,23,24,24,25,25,27,27,29,29,30,30,31,31,32,32,33,33,34,34,35,35],"right_children":[2,4,6,8,10,-1,12,14,16,18,20,22,-1,24,26,28,30,32,-1,34,36,-1,-1,38,40,42,-1,44,-1,46,48,50,52,54,56,58,-1,-1,-1,-1,-1,-1,-1,-1,-1,-1,-1,-1,-1,-1,-1,-1,-1,-1,-1,-1,-1,-1,-1],"split_conditions":[3.2941276E7,3.008639E6,7E0,7.09276E5,5.351442E6,1.2007771E-1,3.871E3,5.60524E5,7.30962E5,1.7E1,1.6023591E7,3.642E3,2.9184151E-2,4.05153E5,5.2E1,1.03E2,8.4E1,6E0,7.081747E-2,7.77E2,2.9E1,1.305771E-3,4.9739843E-3,4.0034E5,4.09551E5,3E0,7.786318E-2,6E1,1.2803794E-2,9E0,1E2,4.387859E6,3.085902E6,6.28E2,9.68E2,3E0,5.1847175E-2,-2.1090306E-4,8.869743E-2,-1.2780952E-1,1.7409337E-3,1.2265063E-2,-1.8076159E-2,-4.539603E-2,-1.808471E-1,1.0154395E-2,-5.982772E-2,1.17055036E-1,-6.5392167E-3,-6.384516E-3,4.3218758E-2,1.2872941E-2,-1.6005136E-2,-1.8381486E-2,-5.2632526E-3,4.39909E-2,-2.6123859E-2,5.9065907E-3,-3.6186792E-2],"split_indices":[1,1,0,1,1,0,0,1,1,0,1,0,0,1,0,0,0,0,0,0,0,0,0,1,1,0,0,0,0,0,0,1,1,0,0,0,0,0,0,0,0,0,0,0,0,0,0,0,0,0,0,0,0,0,0,0,0,0,0],"split_type":[0,0,0,0,0,0,0,0,0,0,0,0,0,0,0,0,0,0,0,0,0,0,0,0,0,0,0,0,0,0,0,0,0,0,0,0,0,0,0,0,0,0,0,0,0,0,0,0,0,0,0,0,0,0,0,0,0,0,0],"sum_hessian":[7.93E2,7.88E2,5E0,6.93E2,9.5E1,1E0,4E0,6.56E2,3.7E1,9E0,8.6E1,3E0,1E0,6.46E2,1E1,3E0,3.4E1,8E0,1E0,1.5E1,7.1E1,1E0,2E0,6.16E2,3E1,5E0,5E0,2E0,1E0,2.1E1,1.3E1,2E0,6E0,1.2E1,3E0,7E1,1E0,6.13E2,3E0,3E0,2.7E1,1E0,4E0,1E0,1E0,1.4E1,7E0,2E0,1.1E1,1E0,1E0,3E0,3E0,8E0,4E0,2E0,1E0,6.9E1,1E0],"tree_param":{"num_deleted":"0","num_feature":"3","num_nodes":"59","size_leaf_vector":"1"}},{"base_weights":[1.7716528E-3,6.51056E-4,1.4883487E-1,-1.6732845E-2,2.9414112E-3,1.02065854E-1,4.2514037E-2,-6.637176E-3,-1.6033125E-1,-4.069824E-3,1.046404E-2,3.5393715E-3,2.4806786E-2,5.2181955E-2,-1.0759465E-2,-1.9658023E-1,-1.7566659E-2,-4.9847254E-4,-1.1798308E-1,6.483206E-2,4.7442983E-3,-3.739854E-2,-2.6469138E-3,-1.629332E-2,-6.776988E-2,-2.2981726E-2,9.952244E-3,1.4020629E-2,-5.5678334E-2,-2.0364877E-2,2.0852403E-1,1.156661E-3,5.3378582E-2,-9.423876E-3,-1.6046342E-2,4.6684538E-4,-1.1668648E-2,2.4308437E-3,-1.8096047E-2,2.9442294E-2,-1.803988E-3,-7.5214606E-4,-2.8690027E-2,3.4458037E-2,9.500445E-2,1.4726954E-3,-1.0633467E-1,4.046674E-2,-2.1473519E-3],"categories":[],"categories_nodes":[],"categories_segments":[],"categories_sizes":[],"default_left":[0,0,0,0,0,0,0,0,0,0,0,0,0,0,0,0,0,0,0,0,0,0,0,0,0,0,0,0,0,0,0,0,0,0,0,0,0,0,0,0,0,0,0,0,0,0,0,0,0],"id":27,"left_children":[1,3,5,7,9,-1,11,13,15,17,19,-1,-1,-1,21,23,-1,25,27,29,31,33,35,-1,-1,37,39,-1,-1,41,43,45,47,-1,-1,-1,-1,-1,-1,-1,-1,-1,-1,-1,-1,-1,-1,-1,-1],"loss_changes":[1.3075316E-1,3.1463496E-2,1.0762493E-1,1.3231029E-1,3.685714E-2,0E0,5.194581E-3,6.6633485E-2,1.0624737E-2,1.4721157E-1,1.0448964E-1,0E0,0E0,0E0,1.8486544E-2,4.416123E-3,0E0,8.293679E-2,1.311791E-1,3.959943E-1,5.3329807E-2,2.4587847E-4,1.026832E-2,0E0,0E0,1.304813E-1,3.3991346E-1,0E0,0E0,2.7986854E-2,8.519131E-2,3.8336325E-1,1.04587E-1,0E0,0E0,0E0,0E0,0E0,0E0,0E0,0E0,0E0,0E0,0E0,0E0,0E0,0E0,0E0,0E0],"parents":[2147483647,0,0,1,1,2,2,3,3,4,4,6,6,7,7,8,8,9,9,10,10,14,14,15,15,17,17,18,18,19,19,20,20,21,21,22,22,25,25,26,26,29,29,30,30,31,31,32,32],"right_children":[2,4,6,8,10,-1,12,14,16,18,20,-1,-1,-1,22,24,-1,26,28,30,32,34,36,-1,-1,38,40,-1,-1,42,44,46,48,-1,-1,-1,-1,-1,-1,-1,-1,-1,-1,-1,-1,-1,-1,-1,-1],"split_conditions":[3.2941276E7,6.8E1,7E0,3.1E1,2.2E1,1.02065854E-1,3.871E3,2E0,5.5E1,2.1E1,2.7E1,3.5393715E-3,2.4806786E-2,5.2181955E-2,1E1,4.9E1,-1.7566659E-2,4.855E3,9.16E2,2.3075E4,1.142217E6,5E0,2.1E1,-1.629332E-2,-6.776988E-2,3.86E2,1.3044E4,1.4020629E-2,-5.5678334E-2,2.43E3,1.64739E5,9.35008E5,5.351442E6,-9.423876E-3,-1.6046342E-2,4.6684538E-4,-1.1668648E-2,2.4308437E-3,-1.8096047E-2,2.9442294E-2,-1.803988E-3,-7.5214606E-4,-2.8690027E-2,3.4458037E-2,9.500445E-2,1.4726954E-3,-1.0633467E-1,4.046674E-2,-2.1473519E-3],"split_indices":[1,1,0,0,0,0,0,0,1,0,0,0,0,0,1,0,0,1,1,1,1,0,0,0,0,1,1,0,0,1,1,1,1,0,0,0,0,0,0,0,0,0,0,0,0,0,0,0,0],"split_type":[0,0,0,0,0,0,0,0,0,0,0,0,0,0,0,0,0,0,0,0,0,0,0,0,0,0,0,0,0,0,0,0,0,0,0,0,0,0,0,0,0,0,0,0,0,0,0,0,0],"sum_hessian":[7.93E2,7.88E2,5E0,9.1E1,6.97E2,1E0,4E0,8.6E1,5E0,3.61E2,3.36E2,3E0,1E0,1E0,8.5E1,3E0,2E0,3.51E2,1E1,3.1E1,3.05E2,1.9E1,6.6E1,1E0,2E0,1.11E2,2.4E2,3E0,7E0,2E1,1.1E1,2.85E2,2E1,1.6E1,3E0,6E1,6E0,6.1E1,5E1,3.6E1,2.04E2,1.7E1,3E0,7E0,4E0,2.83E2,2E0,8E0,1.2E1],"tree_param":{"num_deleted":"0","num_feature":"3","num_nodes":"49","size_leaf_vector":"1"}},{"base_weights":[1.3007595E-3,3.5144106E-4,1.2591934E-1,3.2767153E-3,-1.1259876E-2,8.675595E-2,3.542862E-2,4.2972926E-4,5.6555305E-2,-6.730374E-2,1.7599369E-3,9.142876E-3,2.108574E-2,2.2507291E-3,-6.2152248E-2,-2.1818805E-2,1.4683388E-1,8.553843E-3,-1.546091E-1,-1.5749462E-1,8.065594E-3,5.7907106E-4,3.271103E-3,6.7420275E-4,3.073466E-1,-2.8272362E-2,-6.325028E-2,3.1803664E-2,-1.10626064E-1,1.065389E-1,8.175026E-2,4.7370076E-2,-1.6925018E-2,-2.1541318E-1,5.125439E-2,4.0968657E-3,-8.2844175E-2,8.453908E-2,-3.0302734E-3,7.6531555E-4,-4.0292583E-2,1.9489834E-2,1.18816145E-1,-2.3709038E-2,1.8310793E-2,1.9124375E-3,1.1871494E-2,1.9915313E-2,-4.5357563E-2,6.086932E-2,1.7202444E-2,2.2314843E-2,6.5065282E-3,-1.6650954E-2,1.2140823E-2,-8.5858874E-2,-4.0224165E-2,4.4564918E-2,-3.609474E-2,1.3215049E-2,1.0378093E-1,-1.4436741E-2,1.0014983E-2],"categories":[],"categories_nodes":[],"categories_segments":[],"categories_sizes":[],"default_left":[0,0,0,0,0,0,0,0,0,0,0,0,0,0,0,0,0,0,0,0,0,0,0,0,0,0,0,0,0,0,0,0,0,0,0,0,0,0,0,0,0,0,0,0,0,0,0,0,0,0,0,0,0,0,0,0,0,0,0,0,0,0,0],"id":28,"left_children":[1,3,5,7,9,-1,11,13,15,17,19,21,-1,23,25,27,29,31,33,35,37,-1,-1,39,41,43,-1,45,47,49,-1,51,53,55,57,-1,-1,59,61,-1,-1,-1,-1,-1,-1,-1,-1,-1,-1,-1,-1,-1,-1,-1,-1,-1,-1,-1,-1,-1,-1,-1,-1],"loss_changes":[9.3888104E-2,2.6836295E-2,7.8399494E-2,9.568791E-2,1.1613767E-1,0E0,3.9386204E-3,6.8516955E-2,2.2961983E-1,2.0000568E-1,1.318169E-1,2.9753399E-5,0E0,2.8069192E-1,7.967382E-2,8.923548E-2,4.6924293E-2,1.7614627E-2,1.8628368E-1,1.0530862E-1,1.0717217E-1,0E0,0E0,1.477879E-1,3.8772613E-2,7.2820045E-2,0E0,2.1181116E-3,6.0300775E-2,4.999341E-2,0E0,3.2428745E-3,2.6602063E-2,2.4953365E-2,8.464478E-2,0E0,0E0,1.5410057E-1,1.838648E-1,0E0,0E0,0E0,0E0,0E0,0E0,0E0,0E0,0E0,0E0,0E0,0E0,0E0,0E0,0E0,0E0,0E0,0E0,0E0,0E0,0E0,0E0,0E0,0E0],"parents":[2147483647,0,0,1,1,2,2,3,3,4,4,6,6,7,7,8,8,9,9,10,10,11,11,13,13,14,14,15,15,16,16,17,17,18,18,19,19,20,20,23,23,24,24,25,25,27,27,28,28,29,29,31,31,32,32,33,33,34,34,37,37,38,38],"right_children":[2,4,6,8,10,-1,12,14,16,18,20,22,-1,24,26,28,30,32,34,36,38,-1,-1,40,42,44,-1,46,48,50,-1,52,54,56,58,-1,-1,60,62,-1,-1,-1,-1,-1,-1,-1,-1,-1,-1,-1,-1,-1,-1,-1,-1,-1,-1,-1,-1,-1,-1,-1,-1],"split_conditions":[3.2941276E7,7.6E1,7E0,6.4E1,8.7E1,8.675595E-2,3.871E3,5.8E1,1.71056E5,2.27954E5,2.9E2,3.642E3,2.108574E-2,5.7E1,5.60524E5,1.143E3,6.31986E5,8E1,4.09551E5,1.05E2,1.107E3,5.7907106E-4,3.271103E-3,5.4E1,2E2,6.5605E4,-6.325028E-2,3.73E2,6.6E1,2.95927E5,8.175026E-2,7.8E1,8.4E1,2.95927E5,5.01271E5,4.0968657E-3,-8.2844175E-2,1.12E2,2.18559E5,7.6531555E-4,-4.0292583E-2,1.9489834E-2,1.18816145E-1,-2.3709038E-2,1.8310793E-2,1.9124375E-3,1.1871494E-2,1.9915313E-2,-4.5357563E-2,6.086932E-2,1.7202444E-2,2.2314843E-2,6.5065282E-3,-1.6650954E-2,1.2140823E-2,-8.5858874E-2,-4.0224165E-2,4.4564918E-2,-3.609474E-2,1.3215049E-2,1.0378093E-1,-1.4436741E-2,1.0014983E-2],"split_indices":[1,0,0,0,0,0,0,0,1,1,1,0,0,0,1,1,1,0,1,0,1,0,0,0,1,1,0,1,0,1,0,0,0,1,1,0,0,0,1,0,0,0,0,0,0,0,0,0,0,0,0,0,0,0,0,0,0,0,0,0,0,0,0],"split_type":[0,0,0,0,0,0,0,0,0,0,0,0,0,0,0,0,0,0,0,0,0,0,0,0,0,0,0,0,0,0,0,0,0,0,0,0,0,0,0,0,0,0,0,0,0,0,0,0,0,0,0,0,0,0,0,0,0,0,0,0,0,0,0],"sum_hessian":[7.93E2,7.88E2,5E0,6.3E2,1.58E2,1E0,4E0,5.99E2,3.1E1,2.9E1,1.29E2,3E0,1E0,5.83E2,1.6E1,1.7E1,1.4E1,1.6E1,1.3E1,4E0,1.25E2,1E0,2E0,5.81E2,2E0,1.4E1,2E0,1.1E1,6E0,1.2E1,2E0,6E0,1E1,1E1,3E0,2E0,2E0,1.5E1,1.1E2,5.74E2,7E0,1E0,1E0,9E0,5E0,3E0,8E0,1E0,5E0,3E0,9E0,2E0,4E0,6E0,4E0,4E0,6E0,2E0,1E0,1.4E1,1E0,4.9E1,6.1E1],"tree_param":{"num_deleted":"0","num_feature":"3","num_nodes":"63","size_leaf_vector":"1"}},{"base_weights":[1.2007166E-3,3.9646722E-4,1.0675939E-1,1.0790044E-2,-1.8817495E-3,7.37423E-2,2.9788207E-2,-1.844373E-2,2.687844E-2,-1.0531599E-2,5.651784E-3,7.3633194E-3,1.7923165E-2,1.3350651E-2,-9.564029E-2,7.340661E-2,1.2934413E-2,-1.6687738E-3,-6.854138E-2,-6.6845536E-2,8.448242E-3,4.9209595E-4,2.617264E-3,-1.3683479E-2,1.479869E-1,-6.8326384E-2,-6.807667E-3,3.5152078E-2,1.4489393E-1,-1.11065395E-2,1.4890616E-2,-7.455989E-3,1.3158888E-1,-2.0096023E-1,-4.613293E-3,-2.3914784E-2,-9.06879E-2,2.8742243E-2,-2.5753377E-3,-7.5878147E-3,2.5654074E-2,1.5710263E-2,-5.7603917E-3,1.517667E-2,-2.714451E-2,6.0157668E-2,1.5911652E-2,2.4952102E-3,5.3190235E-3,4.0216176E-4,-2.996414E-2,-3.8430266E-2,7.3495544E-2,-4.451335E-2,-9.8032705E-2,5.4141507E-3,-1.9056104E-2,-1.0435349E-2,-4.350722E-4,-4.148807E-2,-1.0339737E-2,4.8987526E-3,4.835114E-2,-3.1610362E-2,8.619563E-4],"categories":[],"categories_nodes":[],"categories_segments":[],"categories_sizes":[],"default_left":[0,0,0,0,0,0,0,0,0,0,0,0,0,0,0,0,0,0,0,0,0,0,0,0,0,0,0,0,0,0,0,0,0,0,0,0,0,0,0,0,0,0,0,0,0,0,0,0,0,0,0,0,0,0,0,0,0,0,0,0,0,0,0,0,0],"id":29,"left_children":[1,3,5,7,9,-1,11,13,15,17,19,21,-1,23,25,27,29,31,33,35,37,-1,-1,39,-1,-1,41,43,45,-1,47,49,51,53,55,57,59,61,63,-1,-1,-1,-1,-1,-1,-1,-1,-1,-1,-1,-1,-1,-1,-1,-1,-1,-1,-1,-1,-1,-1,-1,-1,-1,-1],"loss_changes":[6.736469E-2,1.8702893E-2,5.6894086E-2,6.728183E-2,4.228575E-2,0E0,2.9188497E-3,1.2645212E-1,5.87392E-2,1.5515305E-1,7.091401E-2,1.684307E-5,0E0,4.868151E-1,1.7449044E-1,5.233568E-2,7.5874394E-3,2.0380425E-1,3.376843E-1,1.1137642E-2,7.501772E-2,0E0,0E0,4.3620534E-2,0E0,0E0,8.339486E-3,3.366816E-2,2.5134698E-2,0E0,1.1590477E-3,2.0582657E-1,3.553092E-1,3.7517548E-2,3.852247E-2,1.4146527E-3,1.6645528E-2,1.9134137E-1,1.223975E-1,0E0,0E0,0E0,0E0,0E0,0E0,0E0,0E0,0E0,0E0,0E0,0E0,0E0,0E0,0E0,0E0,0E0,0E0,0E0,0E0,0E0,0E0,0E0,0E0,0E0,0E0],"parents":[2147483647,0,0,1,1,2,2,3,3,4,4,6,6,7,7,8,8,9,9,10,10,11,11,13,13,14,14,15,15,16,16,17,17,18,18,19,19,20,20,23,23,26,26,27,27,28,28,30,30,31,31,32,32,33,33,34,34,35,35,36,36,37,37,38,38],"right_children":[2,4,6,8,10,-1,12,14,16,18,20,22,-1,24,26,28,30,32,34,36,38,-1,-1,40,-1,-1,42,44,46,-1,48,50,52,54,56,58,60,62,64,-1,-1,-1,-1,-1,-1,-1,-1,-1,-1,-1,-1,-1,-1,-1,-1,-1,-1,-1,-1,-1,-1,-1,-1,-1,-1],"split_conditions":[3.2941276E7,3E0,7E0,6.7025E4,2.2E1,7.37423E-2,3.871E3,1.8438E4,6.31986E5,1.71056E5,8E1,3.642E3,1.7923165E-2,1.1433E4,4.1574E4,8.8497E4,8.754403E6,7.7089E4,5.60524E5,3.1E1,5.2E1,4.9209595E-4,2.617264E-3,8.162E3,1.479869E-1,-6.8326384E-2,6.2586E4,7.7089E4,2.68621E5,-1.11065395E-2,2E0,3.9894E4,6E0,3.35958E5,9E0,2.5E1,5.5E1,5E1,5.6E1,-7.5878147E-3,2.5654074E-2,1.5710263E-2,-5.7603917E-3,1.517667E-2,-2.714451E-2,6.0157668E-2,1.5911652E-2,2.4952102E-3,5.3190235E-3,4.0216176E-4,-2.996414E-2,-3.8430266E-2,7.3495544E-2,-4.451335E-2,-9.8032705E-2,5.4141507E-3,-1.9056104E-2,-1.0435349E-2,-4.350722E-4,-4.148807E-2,-1.0339737E-2,4.8987526E-3,4.835114E-2,-3.1610362E-2,8.619563E-4],"split_indices":[1,0,0,1,0,0,0,1,1,1,1,0,0,1,1,1,1,1,1,0,0,0,0,1,0,0,1,1,1,0,0,1,0,1,0,0,1,0,0,0,0,0,0,0,0,0,0,0,0,0,0,0,0,0,0,0,0,0,0,0,0,0,0,0,0],"split_type":[0,0,0,0,0,0,0,0,0,0,0,0,0,0,0,0,0,0,0,0,0,0,0,0,0,0,0,0,0,0,0,0,0,0,0,0,0,0,0,0,0,0,0,0,0,0,0,0,0,0,0,0,0,0,0,0,0,0,0,0,0,0,0,0,0],"sum_hessian":[7.93E2,7.88E2,5E0,1.41E2,6.47E2,1E0,4E0,5E1,9.1E1,3.01E2,3.46E2,3E0,1E0,3.6E1,1.4E1,2E1,7.1E1,2.62E2,3.9E1,1.2E1,3.34E2,1E0,2E0,3.5E1,1E0,5E0,9E0,1.4E1,6E0,2E0,6.9E1,2.52E2,1E1,1.2E1,2.7E1,5E0,7E0,1.17E2,2.17E2,3.2E1,3E0,1E0,8E0,1.3E1,1E0,3E0,3E0,2.2E1,4.7E1,2.31E2,2.1E1,3E0,7E0,1E1,2E0,2E1,7E0,3E0,2E0,3E0,4E0,1.08E2,9E0,1E1,2.07E2],"tree_param":{"num_deleted":"0","num_feature":"3","num_nodes":"65","size_leaf_vector":"1"}},{"base_weights":[9.317525E-4,2.492324E-4,9.0527855E-2,2.6277148E-3,-8.761682E-3,6.268101E-2,2.5058746E-2,3.395167E-4,5.5331223E-2,-1.1821524E-1,-5.3080823E-3,5.9318542E-3,1.5234948E-2,1.7382962E-3,-5.0824583E-2,1.4484316E-2,5.6722056E-2,3.1051042E-3,-6.2212728E-2,3.027091E-2,-2.1607365E-2,4.1828156E-4,2.0938874E-3,-7.998589E-5,1.7721586E-1,-2.1819096E-2,-5.0772596E-2,-9.14567E-3,9.1929406E-2,8.653838E-3,1.4538094E-1,-4.209809E-1,-6.6156858E-3,4.3293773E-4,-5.2657936E-2,7.0693553E-3,9.690371E-2,-1.9193992E-2,1.3517619E-2,4.810907E-3,-3.9602175E-2,5.814972E-2,5.398668E-3,1.1867408E-2,-2.0425105E-2,9.306338E-2,-4.667845E-3,-1.7402977E-1,8.456111E-3,1.0665937E-1,-3.9968877E-3],"categories":[],"categories_nodes":[],"categories_segments":[],"categories_sizes":[],"default_left":[0,0,0,0,0,0,0,0,0,0,0,0,0,0,0,0,0,0,0,0,0,0,0,0,0,0,0,0,0,0,0,0,0,0,0,0,0,0,0,0,0,0,0,0,0,0,0,0,0,0,0],"id":30,"left_children":[1,3,5,7,9,-1,11,13,15,17,19,21,-1,23,25,27,-1,-1,-1,29,31,-1,-1,33,35,37,-1,39,41,43,45,47,49,-1,-1,-1,-1,-1,-1,-1,-1,-1,-1,-1,-1,-1,-1,-1,-1,-1,-1],"loss_changes":[4.853144E-2,1.693311E-2,4.127704E-2,7.535376E-2,6.174394E-2,0E0,2.158902E-3,4.3028723E-2,1.3929835E-1,5.9461266E-2,9.401993E-2,9.285868E-6,0E0,1.8666878E-1,5.1263366E-2,3.9271314E-2,0E0,0E0,0E0,1.2564734E-1,6.6180307E-1,0E0,0E0,1.5524353E-1,1.2679932E-1,4.235764E-2,0E0,5.4713268E-2,3.4182273E-2,1.0703972E-1,2.1704958E-1,3.022347E-1,2.6707068E-1,0E0,0E0,0E0,0E0,0E0,0E0,0E0,0E0,0E0,0E0,0E0,0E0,0E0,0E0,0E0,0E0,0E0,0E0],"parents":[2147483647,0,0,1,1,2,2,3,3,4,4,6,6,7,7,8,8,9,9,10,10,11,11,13,13,14,14,15,15,19,19,20,20,23,23,24,24,25,25,27,27,28,28,29,29,30,30,31,31,32,32],"right_children":[2,4,6,8,10,-1,12,14,16,18,20,22,-1,24,26,28,-1,-1,-1,30,32,-1,-1,34,36,38,-1,40,42,44,46,48,50,-1,-1,-1,-1,-1,-1,-1,-1,-1,-1,-1,-1,-1,-1,-1,-1,-1,-1],"split_conditions":[3.2941276E7,7.3E1,7E0,6.4E1,2.9E2,6.268101E-2,3.871E3,5.9E1,4.33326E5,1.05E2,6.989E3,3.642E3,1.5234948E-2,5.6E1,5.60524E5,7.1E1,5.6722056E-2,3.1051042E-3,-6.2212728E-2,2.613E3,1.0648E4,4.1828156E-4,2.0938874E-3,5.5E1,2.4395E4,6.5605E4,-5.0772596E-2,7E1,7.2E1,1.337E3,1.18E2,1.77E2,1.1433E4,4.3293773E-4,-5.2657936E-2,7.0693553E-3,9.690371E-2,-1.9193992E-2,1.3517619E-2,4.810907E-3,-3.9602175E-2,5.814972E-2,5.398668E-3,1.1867408E-2,-2.0425105E-2,9.306338E-2,-4.667845E-3,-1.7402977E-1,8.456111E-3,1.0665937E-1,-3.9968877E-3],"split_indices":[1,0,0,0,1,0,0,0,1,0,1,0,0,0,1,0,0,0,0,1,1,0,0,0,1,1,0,0,0,1,0,0,1,0,0,0,0,0,0,0,0,0,0,0,0,0,0,0,0,0,0],"split_type":[0,0,0,0,0,0,0,0,0,0,0,0,0,0,0,0,0,0,0,0,0,0,0,0,0,0,0,0,0,0,0,0,0,0,0,0,0,0,0,0,0,0,0,0,0,0,0,0,0,0,0],"sum_hessian":[7.93E2,7.88E2,5E0,6.24E2,1.64E2,1E0,4E0,5.99E2,2.5E1,4E0,1.6E2,3E0,1E0,5.84E2,1.5E1,2E1,5E0,2E0,2E0,5E1,1.1E2,1E0,2E0,5.79E2,5E0,1.3E1,2E0,1.6E1,4E0,4.3E1,7E0,3E0,1.07E2,5.75E2,4E0,3E0,2E0,8E0,5E0,1.4E1,2E0,1E0,3E0,3.1E1,1.2E1,3E0,4E0,2E0,1E0,1E0,1.06E2],"tree_param":{"num_deleted":"0","num_feature":"3","num_nodes":"51","size_leaf_vector":"1"}},{"base_weights":[8.023016E-4,2.2355352E-4,7.6773964E-2,-1.6757431E-3,2.2521367E-2,5.3279117E-2,2.1089936E-2,-3.2862934E-4,-7.362636E-2,1.9374081E-1,7.1676925E-4,4.7798157E-3,1.2949563E-2,-1.422202E-3,1.1204385E-1,8.005885E-2,1.313749E-1,-1.3679466E-1,1.3925238E-2,3.5533906E-4,1.6750336E-3,-4.1396052E-4,-4.359489E-2,1.4203385E-1,-2.7097553E-2,2.1621712E-1,-4.207456E-2,-7.9583414E-2,5.657083E-2,9.066045E-2,2.3472414E-3,-3.870064E-4,4.6688512E-2,5.906077E-2,-1.7203972E-1,1.0993338E-2,8.630437E-2,-3.3069517E-2,2.4359537E-2,-5.8827065E-2,4.3345713E-3],"categories":[],"categories_nodes":[],"categories_segments":[],"categories_sizes":[],"default_left":[0,0,0,0,0,0,0,0,0,0,0,0,0,0,0,0,0,0,0,0,0,0,0,0,0,0,0,0,0,0,0,0,0,0,0,0,0,0,0,0,0],"id":31,"left_children":[1,3,5,7,9,-1,11,13,-1,15,17,19,-1,21,23,25,-1,27,29,-1,-1,31,-1,-1,33,35,37,-1,-1,-1,39,-1,-1,-1,-1,-1,-1,-1,-1,-1,-1],"loss_changes":[3.4893792E-2,3.345202E-2,2.9939897E-2,2.3896022E-1,2.3133013E-1,0E0,1.59393E-3,8.925277E-2,0E0,1.5924937E-1,1.0361855E-1,4.943933E-6,0E0,1.0425235E-1,3.648314E-1,1.088741E-1,0E0,2.590427E-1,1.7284906E-1,0E0,0E0,9.794311E-2,0E0,0E0,8.471076E-1,2.7957067E-2,4.2558394E-2,0E0,0E0,0E0,1.253024E-1,0E0,0E0,0E0,0E0,0E0,0E0,0E0,0E0,0E0,0E0],"parents":[2147483647,0,0,1,1,2,2,3,3,4,4,6,6,7,7,9,9,10,10,11,11,13,13,14,14,15,15,17,17,18,18,21,21,24,24,25,25,26,26,30,30],"right_children":[2,4,6,8,10,-1,12,14,-1,16,18,20,-1,22,24,26,-1,28,30,-1,-1,32,-1,-1,34,36,38,-1,-1,-1,40,-1,-1,-1,-1,-1,-1,-1,-1,-1,-1],"split_conditions":[3.2941276E7,1.37E2,7E0,1.22E2,1.58E2,5.3279117E-2,3.871E3,1.12E2,-7.362636E-2,1.52E2,1.7E2,3.642E3,1.2949563E-2,1.1E2,1.13E2,1.4E2,1.313749E-1,2.60072E5,1.75E2,3.5533906E-4,1.6750336E-3,1.08E2,-4.359489E-2,1.4203385E-1,4.342E3,1.39E2,1.51E2,-7.9583414E-2,5.657083E-2,9.066045E-2,1.78E2,-3.870064E-4,4.6688512E-2,5.906077E-2,-1.7203972E-1,1.0993338E-2,8.630437E-2,-3.3069517E-2,2.4359537E-2,-5.8827065E-2,4.3345713E-3],"split_indices":[1,0,0,0,0,0,0,0,0,0,0,0,0,0,0,0,0,1,0,0,0,0,0,0,1,0,0,0,0,0,0,0,0,0,0,0,0,0,0,0,0],"split_type":[0,0,0,0,0,0,0,0,0,0,0,0,0,0,0,0,0,0,0,0,0,0,0,0,0,0,0,0,0,0,0,0,0,0,0,0,0,0,0,0,0],"sum_hessian":[7.93E2,7.88E2,5E0,7.27E2,6.1E1,1E0,4E0,7.24E2,3E0,6E0,5.5E1,3E0,1E0,7.18E2,6E0,5E0,1E0,4E0,5.1E1,1E0,2E0,7.14E2,4E0,1E0,5E0,2E0,3E0,3E0,1E0,1E0,5E1,7.11E2,3E0,4E0,1E0,1E0,1E0,2E0,1E0,2E0,4.8E1],"tree_param":{"num_deleted":"0","num_feature":"3","num_nodes":"41","size_leaf_vector":"1"}},{"base_weights":[8.882958E-4,-8.148545E-4,1.9686908E-2,2.2972024E-4,-1.9020146E-1,1.6704178E-1,2.1673897E-3,-5.712397E-4,8.258135E-2,-1.7426848E-2,-6.446269E-2,2.4766621E-1,-2.3012877E-2,-1.00358784E-1,1.1282809E-2,2.079263E-3,-4.5681767E-2,1.2072874E-1,-3.7798125E-2,-1.998328E-2,1.0286648E-1,9.3443515E-3,-1.9700147E-2,-2.0559047E-1,4.8085198E-2,7.706137E-2,2.1471793E-3,3.2948816E-4,9.960176E-2,-1.3905853E-1,-1.1491725E-2,1.4962058E-1,-1.4623375E-1,-1.3325251E-2,-7.3352695E-2,-4.7061644E-2,1.110776E-2,6.9803535E-4,-1.6058406E-2,8.039236E-3,3.3444863E-2,-9.527504E-3,1.10755995E-1,-1.5762497E-2,9.057279E-2,-1.7718272E-3,1.1194461E-2],"categories":[],"categories_nodes":[],"categories_segments":[],"categories_sizes":[],"default_left":[0,0,0,0,0,0,0,0,0,0,0,0,0,0,0,0,0,0,0,0,0,0,0,0,0,0,0,0,0,0,0,0,0,0,0,0,0,0,0,0,0,0,0,0,0,0,0],"id":32,"left_children":[1,3,5,7,9,11,13,15,17,-1,-1,19,21,23,25,27,29,-1,31,-1,-1,-1,-1,33,-1,-1,35,37,39,-1,41,43,-1,-1,-1,-1,45,-1,-1,-1,-1,-1,-1,-1,-1,-1,-1],"loss_changes":[2.543743E-2,1.4426064E-1,1.7002265E-1,4.793439E-2,5.569905E-4,1.12960875E-1,5.720647E-2,8.618221E-2,2.8473282E-1,0E0,0E0,1.7247063E-1,8.975947E-3,1.7009225E-1,1.2509033E-1,1.16174676E-1,5.6612104E-1,0E0,5.785663E-1,0E0,0E0,0E0,0E0,1.4229953E-2,0E0,0E0,8.011229E-2,7.219603E-2,7.3924884E-3,0E0,3.0489722E-1,1.6979796E-1,0E0,0E0,0E0,0E0,2.3852231E-2,0E0,0E0,0E0,0E0,0E0,0E0,0E0,0E0,0E0,0E0],"parents":[2147483647,0,0,1,1,2,2,3,3,4,4,5,5,6,6,7,7,8,8,11,11,12,12,13,13,14,14,15,15,16,16,18,18,23,23,26,26,27,27,28,28,30,30,31,31,36,36],"right_children":[2,4,6,8,10,12,14,16,18,-1,-1,20,22,24,26,28,30,-1,32,-1,-1,-1,-1,34,-1,-1,36,38,40,-1,42,44,-1,-1,-1,-1,46,-1,-1,-1,-1,-1,-1,-1,-1,-1,-1],"split_conditions":[1.37E2,1.22E2,1.58E2,1.12E2,1.3E2,2.41963E5,1.7E2,9.6E1,1.13E2,-1.7426848E-2,-6.446269E-2,1.8E1,1.39E2,2.60072E5,1.75E2,9E1,9.8E1,1.2072874E-1,4.342E3,-1.998328E-2,1.0286648E-1,9.3443515E-3,-1.9700147E-2,1.61E2,4.8085198E-2,7.706137E-2,1.78E2,8.2E1,6.47E2,-1.3905853E-1,7.30962E5,2.613E3,-1.4623375E-1,-1.3325251E-2,-7.3352695E-2,-4.7061644E-2,1.142217E6,6.9803535E-4,-1.6058406E-2,8.039236E-3,3.3444863E-2,-9.527504E-3,1.10755995E-1,-1.5762497E-2,9.057279E-2,-1.7718272E-3,1.1194461E-2],"split_indices":[0,0,0,0,0,1,0,0,0,0,0,1,0,1,0,0,0,0,1,0,0,0,0,0,0,0,0,0,1,0,1,1,0,0,0,0,1,0,0,0,0,0,0,0,0,0,0],"split_type":[0,0,0,0,0,0,0,0,0,0,0,0,0,0,0,0,0,0,0,0,0,0,0,0,0,0,0,0,0,0,0,0,0,0,0,0,0,0,0,0,0,0,0,0,0,0,0],"sum_hessian":[7.93E2,7.28E2,6.5E1,7.25E2,3E0,6E0,5.9E1,7.19E2,6E0,1E0,2E0,4E0,2E0,4E0,5.5E1,6.8E2,3.9E1,1E0,5E0,1E0,3E0,1E0,1E0,3E0,1E0,1E0,5.4E1,6.69E2,1.1E1,2E0,3.7E1,4E0,1E0,1E0,2E0,2E0,5.2E1,6.46E2,2.3E1,2E0,9E0,3.6E1,1E0,2E0,2E0,3.2E1,2E1],"tree_param":{"num_deleted":"0","num_feature":"3","num_nodes":"47","size_leaf_vector":"1"}},{"base_weights":[6.584029E-4,2.2502616E-4,5.7537716E-2,2.9125114E-3,-9.36112E-3,4.518242E-2,8.802032E-3,1.4620739E-3,2.2482651E-1,-3.280089E-1,-1.8084603E-3,-1.3629914E-3,9.327508E-3,2.8894562E-3,-5.991784E-2,-1.7075408E-2,3.3771405E-1,3.2873155E-4,-1.3142271E-1,7.163775E-2,-6.359104E-3,-1.1027406E-3,5.34521E-2,-3.5340917E-1,5.2253354E-2,1.498091E-1,2.162218E-3,3.5831397E-3,1.0261939E-1,-1.2191238E-1,1.2849217E-3,4.918904E-4,-6.5160334E-2,1.0206432E-1,7.251476E-3,-4.1206934E-2,-1.5023512E-1,-1.1922751E-2,6.695452E-2,9.201273E-3,-3.1967856E-2,-7.3977117E-3,-1.0218516E-1,2.3605837E-2,-2.141269E-3],"categories":[],"categories_nodes":[],"categories_segments":[],"categories_sizes":[],"default_left":[0,0,0,0,0,0,0,0,0,0,0,0,0,0,0,0,0,0,0,0,0,0,0,0,0,0,0,0,0,0,0,0,0,0,0,0,0,0,0,0,0,0,0,0,0],"id":33,"left_children":[1,3,5,7,9,-1,11,13,15,17,19,-1,-1,21,23,-1,25,-1,-1,27,29,31,33,35,37,-1,-1,39,-1,41,43,-1,-1,-1,-1,-1,-1,-1,-1,-1,-1,-1,-1,-1,-1],"loss_changes":[1.955929E-2,2.0353977E-2,2.588942E-2,1.9826654E-1,4.1575524E-1,0E0,1.6285741E-3,5.3967267E-2,1.464438E-1,1.4537403E-1,5.7274234E-2,0E0,0E0,1.21374436E-1,4.7936466E-1,0E0,1.5667969E-1,0E0,0E0,1.8281227E-1,1.4236669E-1,3.310397E-1,3.612246E-1,5.8576852E-2,1.8184152E-1,0E0,0E0,3.011995E-2,0E0,