{"learner":{"attributes":{"scikit_learn":"{\"_estimator_type\": \"regressor\"}"},"feature_names":[],"feature_types":[],"gradient_booster":{"model":{"gbtree_model_param":{"num_parallel_tree":"1","num_trees":"100"},"iteration_indptr":[0,1,2,3,4,5,6,7,8,9,10,11,12,13,14,15,16,17,18,19,20,21,22,23,24,25,26,27,28,29,30,31,32,33,34,35,36,37,38,39,40,41,42,43,44,45,46,47,48,49,50,51,52,53,54,55,56,57,58,59,60,61,62,63,64,65,66,67,68,69,70,71,72,73,74,75,76,77,78,79,80,81,82,83,84,85,86,87,88,89,90,91,92,93,94,95,96,97,98,99,100],"tree_info":[0,0,0,0,0,0,0,0,0,0,0,0,0,0,0,0,0,0,0,0,0,0,0,0,0,0,0,0,0,0,0,0,0,0,0,0,0,0,0,0,0,0,0,0,0,0,0,0,0,0,0,0,0,0,0,0,0,0,0,0,0,0,0,0,0,0,0,0,0,0,0,0,0,0,0,0,0,0,0,0,0,0,0,0,0,0,0,0,0,0,0,0,0,0,0,0,0,0,0,0],"trees":[{"base_weights":[-2.3728325E-7,-2.1383376E0,2.939276E1,-5.3601446E0,5.8211207E0,2.6280325E1,8.103652E1,-7.400456E0,-1.3889086E0,2.823707E0,1.0871369E1,1.9351818E1,3.6075806E1,6.0403256E0,2.675702E1,-8.919829E0,-5.000739E0,-6.4495225E0,2.7341402E-1,6.05631E-1,7.6228094E0,1.2389655E1,1.6911867E0,3.5353131E0,2.0874546E1,5.063029E1,1.7724209E1,-2.840526E0,-7.951649E0,-2.7613149E0,-3.105114E0,-3.4393877E-1,-8.095033E0,1.0472431E1,-2.487015E-1,1.1757829E1,-2.5085208E-1,8.5086975E0,-1.2955967E0,7.766835E0,1.5329125E1,-2.0132432E0,4.745613E0,-5.086997E0,1.1273794E1,1.9839308E1,1.0179289E1,4.0936E1,8.886776E1,2.512147E0,1.131835E1,9.892941E-1,-2.4733038E0,7.0510545E0,-1.0888886E0,-1.1116335E0,1.3649358E0,-2.4774904E0,5.735323E-1,6.170016E0,7.7379054E-1,3.916066E-1,-8.646197E-1,3.9166752E-1,5.2258754E0,-8.8429093E-1,1.9496815E-1,1.6682827E0,4.1985154E0,-1.1650243E0,-4.3407848E-4,1.164344E0,3.6253307E0,3.6798325E0,6.40358E0,-8.024286E-2,-8.5580766E-1,-1.0019011E0,1.6873368E0,-1.7234298E0,-4.6705356E-1,4.170352E0,5.087491E-1,6.637603E0,2.7697206E0,1.4339299E1,-5.2645113E-2,3.0595617E1,7.4272304E0,1.5363574E-1,2.065254E0],"categories":[],"categories_nodes":[],"categories_segments":[],"categories_sizes":[],"default_left":[0,0,0,0,0,0,0,0,0,0,0,0,0,0,0,0,0,0,0,0,0,0,0,0,0,0,0,0,0,0,0,0,0,0,0,0,0,0,0,0,0,0,0,0,0,0,0,0,0,0,0,0,0,0,0,0,0,0,0,0,0,0,0,0,0,0,0,0,0,0,0,0,0,0,0,0,0,0,0,0,0,0,0,0,0,0,0,0,0,0,0],"id":0,"left_children":[1,3,5,7,9,11,13,15,17,19,21,23,25,-1,-1,27,29,31,33,35,37,39,41,43,45,47,49,-1,51,-1,53,55,57,59,61,63,65,67,69,71,73,75,77,79,81,83,-1,85,87,89,-1,-1,-1,-1,-1,-1,-1,-1,-1,-1,-1,-1,-1,-1,-1,-1,-1,-1,-1,-1,-1,-1,-1,-1,-1,-1,-1,-1,-1,-1,-1,-1,-1,-1,-1,-1,-1,-1,-1,-1,-1],"loss_changes":[1.0565359E5,4.02151E4,1.6194445E4,9.032176E3,6.811534E3,6.6994844E3,1.1836172E3,2.6425469E3,3.1984653E3,3.0291443E3,2.3206543E3,1.5157617E3,1.0854934E4,0E0,0E0,1.6372266E2,2.266356E3,9.41615E2,1.5308981E3,1.8750765E3,7.220874E2,1.8377051E3,2.924268E2,5.2441486E2,1.3782031E2,5.2585547E3,6.2954453E3,0E0,5.836406E2,0E0,2.876632E3,3.6231503E2,1.3668848E2,1.0624097E3,1.125079E3,8.0575256E2,4.4644415E2,1.2483135E3,3.013559E1,9.26156E2,1.3413711E3,1.6822758E1,1.1826352E2,3.4438324E-1,7.7085724E1,1.2020996E3,0E0,5.9323438E3,8.3900586E2,1.1014892E2,0E0,0E0,0E0,0E0,0E0,0E0,0E0,0E0,0E0,0E0,0E0,0E0,0E0,0E0,0E0,0E0,0E0,0E0,0E0,0E0,0E0,0E0,0E0,0E0,0E0,0E0,0E0,0E0,0E0,0E0,0E0,0E0,0E0,0E0,0E0,0E0,0E0,0E0,0E0,0E0,0E0],"parents":[2147483647,0,0,1,1,2,2,3,3,4,4,5,5,6,6,7,7,8,8,9,9,10,10,11,11,12,12,15,15,16,16,17,17,18,18,19,19,20,20,21,21,22,22,23,23,24,24,25,25,26,26,28,28,30,30,31,31,32,32,33,33,34,34,35,35,36,36,37,37,38,38,39,39,40,40,41,41,42,42,43,43,44,44,45,45,47,47,48,48,49,49],"right_children":[2,4,6,8,10,12,14,16,18,20,22,24,26,-1,-1,28,30,32,34,36,38,40,42,44,46,48,50,-1,52,-1,54,56,58,60,62,64,66,68,70,72,74,76,78,80,82,84,-1,86,88,90,-1,-1,-1,-1,-1,-1,-1,-1,-1,-1,-1,-1,-1,-1,-1,-1,-1,-1,-1,-1,-1,-1,-1,-1,-1,-1,-1,-1,-1,-1,-1,-1,-1,-1,-1,-1,-1,-1,-1,-1,-1],"split_conditions":[1.4301816E6,5.640994E4,7.24E2,1.0022665E4,4E0,2.9986988E6,1.8225482E6,4E0,3E0,4.2804722E5,1.56E2,1.2E1,5.5104555E6,6.0403256E0,2.675702E1,1.649784E3,7.5801056E2,1E1,6E0,5E0,4.42E2,1.3659956E5,5E0,4E0,3.75E2,1.31E2,3E0,-2.840526E0,1.7544554E3,-2.7613149E0,7.8281616E2,2.879791E4,5.3436984E4,1.8230639E4,3.0275184E4,3E0,1.0091189E5,7.9E1,6.49E2,5E0,2.9E1,3.38E2,9.282544E4,2.182629E6,8E0,1.73E2,1.0179289E1,1.19E2,1.7E2,1.23E2,1.131835E1,9.892941E-1,-2.4733038E0,7.0510545E0,-1.0888886E0,-1.1116335E0,1.3649358E0,-2.4774904E0,5.735323E-1,6.170016E0,7.7379054E-1,3.916066E-1,-8.646197E-1,3.9166752E-1,5.2258754E0,-8.8429093E-1,1.9496815E-1,1.6682827E0,4.1985154E0,-1.1650243E0,-4.3407848E-4,1.164344E0,3.6253307E0,3.6798325E0,6.40358E0,-8.024286E-2,-8.5580766E-1,-1.0019011E0,1.6873368E0,-1.7234298E0,-4.6705356E-1,4.170352E0,5.087491E-1,6.637603E0,2.7697206E0,1.4339299E1,-5.2645113E-2,3.0595617E1,7.4272304E0,1.5363574E-1,2.065254E0],"split_indices":[1,1,0,1,2,1,1,2,2,1,0,0,1,0,0,1,1,0,0,0,0,1,2,2,0,0,2,0,1,0,1,1,1,1,1,0,1,0,0,2,0,0,1,1,0,0,0,0,0,0,0,0,0,0,0,0,0,0,0,0,0,0,0,0,0,0,0,0,0,0,0,0,0,0,0,0,0,0,0,0,0,0,0,0,0,0,0,0,0,0,0],"split_type":[0,0,0,0,0,0,0,0,0,0,0,0,0,0,0,0,0,0,0,0,0,0,0,0,0,0,0,0,0,0,0,0,0,0,0,0,0,0,0,0,0,0,0,0,0,0,0,0,0,0,0,0,0,0,0,0,0,0,0,0,0,0,0,0,0,0,0,0,0,0,0,0,0,0,0,0,0,0,0,0,0,0,0,0,0,0,0,0,0,0,0],"sum_hessian":[1.679E3,1.566E3,1.13E2,1.115E3,4.51E2,1.08E2,5E0,7.36E2,3.79E2,2.84E2,1.67E2,6.5E1,4.3E1,1E0,4E0,4.49E2,2.87E2,9.3E1,2.86E2,1.95E2,8.9E1,1.43E2,2.4E1,6E0,5.9E1,2.3E1,2E1,2.81E2,1.68E2,8.8E1,1.99E2,2E1,7.3E1,1.3E1,2.73E2,1.3E1,1.82E2,8.1E1,8E0,5.7E1,8.6E1,1.1E1,1.3E1,3E0,3E0,5.7E1,2E0,2E1,3E0,1.2E1,8E0,4E0,1.64E2,3E0,1.96E2,1.2E1,8E0,7.2E1,1E0,5E0,8E0,1.72E2,1.01E2,5E0,8E0,4.5E1,1.37E2,5.4E1,2.7E1,2E0,6E0,3.1E1,2.6E1,5.9E1,2.7E1,4E0,7E0,1E0,1.2E1,2E0,1E0,2E0,1E0,4.6E1,1.1E1,1.7E1,3E0,2E0,1E0,9E0,3E0],"tree_param":{"num_deleted":"0","num_feature":"3","num_nodes":"91","size_leaf_vector":"1"}},{"base_weights":[8.849252E-2,-1.4790006E0,2.1633871E1,-3.8896418E0,3.906986E0,2.0152594E1,2.8352753E1,-5.072612E0,-7.9942554E-1,1.6316566E0,7.686069E0,1.41844425E1,2.8231606E1,-6.2573953E0,-3.2924974E0,-4.398294E0,3.513029E-1,-2.7478388E-1,4.7672396E0,8.690027E0,1.3280867E0,2.8302357E0,1.5254852E1,1.4020796E1,4.2450676E1,-1.9913902E0,-5.653253E0,-1.9422282E0,-2.0305831E0,1.9231664E-2,-5.7396717E0,2.1482782E0,-3.087869E0,8.631733E0,-9.777017E-1,2.6814165E0,7.727975E0,8.008174E0,6.1165566E0,-9.7401434E-1,3.3708887E0,-1.2325556E0,9.061431E0,1.4049709E1,8.674712E0,8.3657104E-1,3.3713474E1,-1.453824E0,4.4820805E1,7.5186366E-1,-1.7532761E0,3.6593154E-1,-1.5290693E0,5.922152E-1,-2.1948442E0,-1.8201593E0,1.0487867E-2,1.0900391E0,-8.6335903E-1,3.541642E0,-1.0290484E0,-1.1200881E0,3.7030575E0,2.4225174E-1,-9.167333E-1,2.1672447E0,-9.360394E-1,7.015886E0,1.5921223E0,3.4840286E0,1.7930034E0,7.777661E-1,-4.4618237E-1,-8.516159E-1,1.2200743E0,3.3362813E0,4.3243676E-1,4.6699705E0,1.8460344E0,1.0256755E1,-1.0998646E0,2.9226828E1,4.742975E0,2.1435236E1,9.835641E0],"categories":[],"categories_nodes":[],"categories_segments":[],"categories_sizes":[],"default_left":[0,0,0,0,0,0,0,0,0,0,0,0,0,0,0,0,0,0,0,0,0,0,0,0,0,0,0,0,0,0,0,0,0,0,0,0,0,0,0,0,0,0,0,0,0,0,0,0,0,0,0,0,0,0,0,0,0,0,0,0,0,0,0,0,0,0,0,0,0,0,0,0,0,0,0,0,0,0,0,0,0,0,0,0,0],"id":1,"left_children":[1,3,5,7,9,11,-1,13,15,17,19,21,23,25,27,29,31,33,35,37,39,41,43,45,47,-1,49,-1,51,53,55,57,59,61,63,65,67,69,-1,71,73,-1,75,77,-1,79,81,-1,83,-1,-1,-1,-1,-1,-1,-1,-1,-1,-1,-1,-1,-1,-1,-1,-1,-1,-1,-1,-1,-1,-1,-1,-1,-1,-1,-1,-1,-1,-1,-1,-1,-1,-1,-1,-1],"loss_changes":[5.676935E4,2.0360625E4,1.0401535E4,3.9549941E3,4.157808E3,5.048043E3,0E0,1.6307852E3,1.2480826E3,1.8185619E3,1.1501914E3,7.7111914E2,8.901836E3,7.030469E1,1.2515481E3,4.3267712E2,1.4218782E3,1.1979437E3,6.894685E2,1.0890605E3,1.2555443E2,3.3988617E2,5.980029E2,6.462614E3,2.7954922E3,0E0,3.076372E2,0E0,2.2686377E3,2.725505E2,1.0612695E2,1.1376342E3,4.432271E2,6.886531E2,6.591015E2,1.8410269E3,1.6575266E3,1.0291992E3,0E0,2.7653345E1,7.205345E1,0E0,4.6743195E1,5.989072E2,0E0,2.5282197E3,9.865982E3,0E0,4.7084688E3,0E0,0E0,0E0,0E0,0E0,0E0,0E0,0E0,0E0,0E0,0E0,0E0,0E0,0E0,0E0,0E0,0E0,0E0,0E0,0E0,0E0,0E0,0E0,0E0,0E0,0E0,0E0,0E0,0E0,0E0,0E0,0E0,0E0,0E0,0E0,0E0],"parents":[2147483647,0,0,1,1,2,2,3,3,4,4,5,5,7,7,8,8,9,9,10,10,11,11,12,12,13,13,14,14,15,15,16,16,17,17,18,18,19,19,20,20,21,21,22,22,23,23,24,24,26,26,28,28,29,29,30,30,31,31,32,32,33,33,34,34,35,35,36,36,37,37,39,39,40,40,42,42,43,43,45,45,46,46,48,48],"right_children":[2,4,6,8,10,12,-1,14,16,18,20,22,24,26,28,30,32,34,36,38,40,42,44,46,48,-1,50,-1,52,54,56,58,60,62,64,66,68,70,-1,72,74,-1,76,78,-1,80,82,-1,84,-1,-1,-1,-1,-1,-1,-1,-1,-1,-1,-1,-1,-1,-1,-1,-1,-1,-1,-1,-1,-1,-1,-1,-1,-1,-1,-1,-1,-1,-1,-1,-1,-1,-1,-1,-1],"split_conditions":[1.4301816E6,4.8285734E4,1.361E3,1.2712651E4,4E0,2.9986988E6,2.8352753E1,4E0,3E0,3.2281288E5,1.56E2,1.2E1,3E0,1.649784E3,7.5801056E2,1E1,3.0275184E4,5E0,8.7E1,1.31E2,5E0,4E0,3.75E2,1.01E2,1.5E1,-1.9913902E0,1.7544554E3,-1.9422282E0,5E1,3.1185188E4,4.4370305E4,1.01E2,3E0,8.901383E4,5.7E1,2.1E1,9E1,1.8E1,6.1165566E0,5.557781E4,9.282544E4,-1.2325556E0,8E0,1.75E2,8.674712E0,8E0,3.3208178E6,-1.453824E0,2.5E1,7.5186366E-1,-1.7532761E0,3.6593154E-1,-1.5290693E0,5.922152E-1,-2.1948442E0,-1.8201593E0,1.0487867E-2,1.0900391E0,-8.6335903E-1,3.541642E0,-1.0290484E0,-1.1200881E0,3.7030575E0,2.4225174E-1,-9.167333E-1,2.1672447E0,-9.360394E-1,7.015886E0,1.5921223E0,3.4840286E0,1.7930034E0,7.777661E-1,-4.4618237E-1,-8.516159E-1,1.2200743E0,3.3362813E0,4.3243676E-1,4.6699705E0,1.8460344E0,1.0256755E1,-1.0998646E0,2.9226828E1,4.742975E0,2.1435236E1,9.835641E0],"split_indices":[1,1,0,1,2,1,0,2,2,1,0,0,2,1,1,0,1,0,0,0,2,2,0,0,0,0,1,0,0,1,1,0,0,1,0,0,0,0,0,1,1,0,0,0,0,0,1,0,0,0,0,0,0,0,0,0,0,0,0,0,0,0,0,0,0,0,0,0,0,0,0,0,0,0,0,0,0,0,0,0,0,0,0,0,0],"split_type":[0,0,0,0,0,0,0,0,0,0,0,0,0,0,0,0,0,0,0,0,0,0,0,0,0,0,0,0,0,0,0,0,0,0,0,0,0,0,0,0,0,0,0,0,0,0,0,0,0,0,0,0,0,0,0,0,0,0,0,0,0,0,0,0,0,0,0,0,0,0,0,0,0,0,0,0,0,0,0,0,0,0,0,0,0],"sum_hessian":[1.679E3,1.566E3,1.13E2,1.082E3,4.84E2,1.12E2,1E0,7.82E2,3E2,3.03E2,1.81E2,6.6E1,4.6E1,4.68E2,3.14E2,7.2E1,2.28E2,1.89E2,1.14E2,1.56E2,2.5E1,6E0,6E1,2.4E1,2.2E1,2.81E2,1.87E2,8.8E1,2.26E2,1.7E1,5.5E1,1.5E2,7.8E1,1.3E1,1.76E2,6.8E1,4.6E1,1.49E2,7E0,1.2E1,1.3E1,3E0,3E0,5.7E1,3E0,1.5E1,9E0,1E0,2.1E1,4E0,1.83E2,1.1E2,1.16E2,1.4E1,3E0,5.2E1,3E0,1.16E2,3.4E1,1E0,7.7E1,3E0,1E1,9.5E1,8.1E1,3.8E1,3E1,5E0,4.1E1,5.2E1,9.7E1,1E0,1.1E1,1E0,1.2E1,2E0,1E0,4.7E1,1E1,1E0,1.4E1,1E0,8E0,5E0,1.6E1],"tree_param":{"num_deleted":"0","num_feature":"3","num_nodes":"85","size_leaf_vector":"1"}},{"base_weights":[1.4295278E-1,-1.0244069E0,1.6187775E1,-3.3574557E0,1.8182797E0,1.490921E1,2.409984E1,-3.8634665E0,-1.1163493E0,3.6607444E-1,3.967278E0,1.07637615E1,2.2498938E1,-4.796353E0,-2.741267E0,-1.302572E0,-4.08235E-2,-1.8993757E0,2.1692038E0,2.1346056E0,7.041936E0,2.6615782E0,1.6106071E1,3.3296448E1,1.4363144E1,-4.5934772E0,-5.5281563E0,-9.0785915E-1,-4.4477153E0,7.389677E0,-6.6249084E-1,4.041054E0,-2.552133E0,4.8325243E0,7.4622643E-1,4.5824223E0,1.749178E0,8.214251E0,1.5902711E0,8.654177E0,-1.0670602E0,1.0239382E1,2.9759508E1,2.16112E1,2.3018633E1,7.238931E0,3.4529293E1,-1.1706866E0,-1.4293245E0,-1.3749157E0,-2.1156485E0,-1.40397E0,3.577674E-1,-1.5155693E0,-1.1604699E0,2.6338917E-1,-6.8932843E-1,-9.817152E-1,2.897222E0,2.2895372E0,-8.5305107E-1,8.966686E0,1.1497506E0,-5.735679E-1,7.474547E-1,2.4638424E0,2.8825063E-1,1.7778716E0,3.8471305E0,8.7681407E-1,-2.3211958E-1,1.2471414E0,8.718242E0,4.8924885E0,-8.519652E-1,1.1707034E0,4.1024165E0,1.3426723E1,3.1535752E0,1.2187882E1,6.81484E-1,-3.3294946E-1,3.3532736E0,4.7603498E0,1.9175491E1],"categories":[],"categories_nodes":[],"categories_segments":[],"categories_sizes":[],"default_left":[0,0,0,0,0,0,0,0,0,0,0,0,0,0,0,0,0,0,0,0,0,0,0,0,0,0,0,0,0,0,0,0,0,0,0,0,0,0,0,0,0,0,0,0,0,0,0,0,0,0,0,0,0,0,0,0,0,0,0,0,0,0,0,0,0,0,0,0,0,0,0,0,0,0,0,0,0,0,0,0,0,0,0,0,0],"id":2,"left_children":[1,3,5,7,9,11,-1,13,15,17,19,21,23,25,27,-1,29,31,33,35,37,39,41,43,45,47,49,51,53,-1,55,57,59,61,63,-1,65,67,69,71,73,75,77,79,-1,81,83,-1,-1,-1,-1,-1,-1,-1,-1,-1,-1,-1,-1,-1,-1,-1,-1,-1,-1,-1,-1,-1,-1,-1,-1,-1,-1,-1,-1,-1,-1,-1,-1,-1,-1,-1,-1,-1,-1],"loss_changes":[3.1483113E4,1.0398646E4,8.1518457E3,9.7208203E2,2.204944E3,3.313127E3,0E0,7.2176465E2,5.5489E2,1.7320327E3,1.5908975E3,3.20346E3,2.9477637E3,3.1320312E1,1.00024756E3,0E0,1.8722708E3,7.3931335E2,8.9079736E2,8.8490466E2,6.6439014E2,7.0190576E2,3.2998018E3,6.462078E3,3.1980747E3,1.7443848E1,8.002612E1,1.2415469E3,3.8576904E1,0E0,3.0178552E2,8.120249E2,5.261411E2,1.9401239E3,7.238375E2,0E0,8.889265E2,8.4156006E2,6.525935E1,9.8042303E2,6.6238245E2,6.6504224E2,3.2818682E3,5.056124E3,0E0,6.371789E2,2.2764058E3,0E0,0E0,0E0,0E0,0E0,0E0,0E0,0E0,0E0,0E0,0E0,0E0,0E0,0E0,0E0,0E0,0E0,0E0,0E0,0E0,0E0,0E0,0E0,0E0,0E0,0E0,0E0,0E0,0E0,0E0,0E0,0E0,0E0,0E0,0E0,0E0,0E0,0E0],"parents":[2147483647,0,0,1,1,2,2,3,3,4,4,5,5,7,7,8,8,9,9,10,10,11,11,12,12,13,13,14,14,16,16,17,17,18,18,19,19,20,20,21,21,22,22,23,23,24,24,25,25,26,26,27,27,28,28,30,30,31,31,32,32,33,33,34,34,36,36,37,37,38,38,39,39,40,40,41,41,42,42,43,43,45,45,46,46],"right_children":[2,4,6,8,10,12,-1,14,16,18,20,22,24,26,28,-1,30,32,34,36,38,40,42,44,46,48,50,52,54,-1,56,58,60,62,64,-1,66,68,70,72,74,76,78,80,-1,82,84,-1,-1,-1,-1,-1,-1,-1,-1,-1,-1,-1,-1,-1,-1,-1,-1,-1,-1,-1,-1,-1,-1,-1,-1,-1,-1,-1,-1,-1,-1,-1,-1,-1,-1,-1,-1,-1,-1],"split_conditions":[1.4301816E6,1.746783E4,1.361E3,5E0,4E0,1.06E2,2.409984E1,2.159756E3,7.5801056E2,1.0091189E5,1.3659956E5,3E0,1.7E2,4E0,5.1E1,-1.302572E0,7.8281616E2,2.0392129E4,2.1E1,5E0,1.56E2,2.4E1,2.9986988E6,1.5E2,4E0,8E0,7.8281616E2,3E0,9.6E1,7.389677E0,6.1E1,3E0,3E0,1.2024373E5,7.6E1,4.5824223E0,2.0922268E4,2.9E1,4.42E2,3.7451922E6,1.5271682E6,4E0,2.5E1,3.3208178E6,2.3018633E1,2.33E2,3.75E2,-1.1706866E0,-1.4293245E0,-1.3749157E0,-2.1156485E0,-1.40397E0,3.577674E-1,-1.5155693E0,-1.1604699E0,2.6338917E-1,-6.8932843E-1,-9.817152E-1,2.897222E0,2.2895372E0,-8.5305107E-1,8.966686E0,1.1497506E0,-5.735679E-1,7.474547E-1,2.4638424E0,2.8825063E-1,1.7778716E0,3.8471305E0,8.7681407E-1,-2.3211958E-1,1.2471414E0,8.718242E0,4.8924885E0,-8.519652E-1,1.1707034E0,4.1024165E0,1.3426723E1,3.1535752E0,1.2187882E1,6.81484E-1,-3.3294946E-1,3.3532736E0,4.7603498E0,1.9175491E1],"split_indices":[1,1,0,2,2,0,0,1,1,1,1,2,0,2,0,0,1,1,0,0,0,0,1,0,2,0,1,2,0,0,0,2,0,1,0,0,1,0,0,1,1,2,0,1,0,0,0,0,0,0,0,0,0,0,0,0,0,0,0,0,0,0,0,0,0,0,0,0,0,0,0,0,0,0,0,0,0,0,0,0,0,0,0,0,0],"split_type":[0,0,0,0,0,0,0,0,0,0,0,0,0,0,0,0,0,0,0,0,0,0,0,0,0,0,0,0,0,0,0,0,0,0,0,0,0,0,0,0,0,0,0,0,0,0,0,0,0,0,0,0,0,0,0,0,0,0,0,0,0,0,0,0,0,0,0,0,0,0,0,0,0,0,0,0,0,0,0,0,0,0,0,0,0],"sum_hessian":[1.679E3,1.566E3,1.13E2,8.6E2,7.06E2,1.12E2,1E0,7.01E2,1.59E2,4.22E2,2.84E2,7.4E1,3.8E1,3.81E2,3.2E2,3.9E1,1.2E2,1.87E2,2.35E2,1.79E2,1.05E2,3E1,4.4E1,1.5E1,2.3E1,3.04E2,7.7E1,1.55E2,1.65E2,2E0,1.18E2,1.8E1,1.69E2,8.1E1,1.54E2,4E0,1.75E2,8.6E1,1.9E1,1.1E1,1.9E1,3.2E1,1.2E1,1.3E1,2E0,1.8E1,5E0,6.5E1,2.39E2,5E1,2.7E1,5.5E1,1E2,7.7E1,8.8E1,6.1E1,5.7E1,8E0,1E1,4E0,1.65E2,2E0,7.9E1,6.1E1,9.3E1,1.8E1,1.57E2,5.9E1,2.7E1,1.2E1,7E0,1E1,1E0,1E0,1.8E1,1.2E1,2E1,6E0,6E0,6E0,7E0,6E0,1.2E1,4E0,1E0],"tree_param":{"num_deleted":"0","num_feature":"3","num_nodes":"85","size_leaf_vector":"1"}},{"base_weights":[1.8691112E-1,-4.2751262E-1,1.8348112E1,-1.9839073E0,2.5630977E0,1.6158897E1,2.0484863E1,-2.6121206E0,-5.9176046E-1,1.7661781E0,6.0585856E0,2.1618969E1,6.5493083E0,-2.984094E0,-9.612592E-1,-9.4449244E-2,-4.2446365E0,5.815552E-1,4.7232623E0,9.66382E0,3.7106483E0,-2.49524E0,2.5862635E1,8.446813E-1,1.4061625E1,-3.3733907E0,-2.2945688E0,-3.071899E0,-8.996484E-2,6.2140946E0,-5.268243E-1,-1.8899734E0,-3.1388078E0,-1.2176882E0,1.8436192E0,1.5433438E1,4.0805645E0,-1.992321E-1,1.1078521E1,1.1947943E1,2.810065E0,7.4105053E0,-1.2874961E1,4.9838375E1,2.003298E1,-2.0490248E0,8.7281275E-1,7.8045446E-1,4.550685E0,-9.671876E-1,-1.1743381E0,1.0160421E0,-7.743715E-1,-9.33397E-1,-2.3015364E-1,5.9117417E0,-2.1229365E-1,5.3313655E-1,4.6594048E0,-8.4313124E-1,7.326967E-2,-1.672408E0,-5.074688E-1,1.6436751E-1,-9.5548177E-1,-9.210542E-2,1.2553817E0,6.1084366E0,-2.1201982E0,-3.4207603E-1,1.5286597E0,3.7243264E0,-2.8828993E0,5.302965E0,2.5406585E0,1.9888975E-2,7.142247E0,-1.0485234E0,1.1178143E0,-4.778345E0,-9.953127E-2,6.006743E0,2.5365297E1,1.2044666E0,9.699554E0,-7.53092E-1,3.8607504E-2],"categories":[],"categories_nodes":[],"categories_segments":[],"categories_sizes":[],"default_left":[0,0,0,0,0,0,0,0,0,0,0,0,0,0,0,0,0,0,0,0,0,0,0,0,0,0,0,0,0,0,0,0,0,0,0,0,0,0,0,0,0,0,0,0,0,0,0,0,0,0,0,0,0,0,0,0,0,0,0,0,0,0,0,0,0,0,0,0,0,0,0,0,0,0,0,0,0,0,0,0,0,0,0,0,0,0,0],"id":3,"left_children":[1,3,5,7,9,11,-1,13,15,17,19,21,23,25,27,29,31,33,35,37,39,41,43,45,47,49,51,53,55,57,59,-1,61,63,65,67,69,71,73,75,77,-1,79,81,83,85,-1,-1,-1,-1,-1,-1,-1,-1,-1,-1,-1,-1,-1,-1,-1,-1,-1,-1,-1,-1,-1,-1,-1,-1,-1,-1,-1,-1,-1,-1,-1,-1,-1,-1,-1,-1,-1,-1,-1,-1,-1],"loss_changes":[1.8754416E4,7.5734155E3,4.9091113E3,9.3423975E2,1.5408914E3,2.6917402E3,0E0,4.4970557E2,6.0634894E2,1.5911318E3,8.360217E2,3.5438428E3,8.880766E2,1.5358545E2,2.5166507E2,8.079325E2,7.1137085E1,7.425128E2,8.3186523E2,5.6033765E2,4.4120117E2,2.0118121E3,3.0549258E3,8.363143E1,7.474829E1,1.8266113E1,3.670509E2,1.2474976E0,1.2122361E3,7.578666E2,4.884265E2,0E0,8.927911E1,4.7064575E2,9.6793024E2,9.200901E2,6.6288135E2,8.314979E2,4.5295117E2,8.438873E2,3.5377142E2,0E0,1.8617828E2,3.4820195E3,4.795301E3,6.3503E0,0E0,0E0,0E0,0E0,0E0,0E0,0E0,0E0,0E0,0E0,0E0,0E0,0E0,0E0,0E0,0E0,0E0,0E0,0E0,0E0,0E0,0E0,0E0,0E0,0E0,0E0,0E0,0E0,0E0,0E0,0E0,0E0,0E0,0E0,0E0,0E0,0E0,0E0,0E0,0E0,0E0],"parents":[2147483647,0,0,1,1,2,2,3,3,4,4,5,5,7,7,8,8,9,9,10,10,11,11,12,12,13,13,14,14,15,15,16,16,17,17,18,18,19,19,20,20,21,21,22,22,23,23,24,24,25,25,26,26,27,27,28,28,29,29,30,30,32,32,33,33,34,34,35,35,36,36,37,37,38,38,39,39,40,40,42,42,43,43,44,44,45,45],"right_children":[2,4,6,8,10,12,-1,14,16,18,20,22,24,26,28,30,32,34,36,38,40,42,44,46,48,50,52,54,56,58,60,-1,62,64,66,68,70,72,74,76,78,-1,80,82,84,86,-1,-1,-1,-1,-1,-1,-1,-1,-1,-1,-1,-1,-1,-1,-1,-1,-1,-1,-1,-1,-1,-1,-1,-1,-1,-1,-1,-1,-1,-1,-1,-1,-1,-1,-1,-1,-1,-1,-1,-1,-1],"split_conditions":[2.6066228E6,4.4370305E4,1.361E3,1.0022665E4,5E0,5.5104555E6,2.0484863E1,5E0,3.641353E4,5.5569575E5,2.1E1,1.8E1,3E0,2.159756E3,7.5801056E2,6E0,2.2E1,3E0,6.1538106E5,7.503214E4,5.1524406E4,8E0,2.5E1,1.2501388E7,1.8E1,4E0,2.4043723E3,9.3E1,7.8281616E2,4E0,3E0,-1.8899734E0,3.926546E4,1.7752733E5,1.5838416E5,1.01E2,1.4E1,4.8285734E4,1.07326836E5,4.8285734E4,5.640994E4,7.4105053E0,1.5E1,2.2E1,1.15E2,2.6E2,8.7281275E-1,7.8045446E-1,4.550685E0,-9.671876E-1,-1.1743381E0,1.0160421E0,-7.743715E-1,-9.33397E-1,-2.3015364E-1,5.9117417E0,-2.1229365E-1,5.3313655E-1,4.6594048E0,-8.4313124E-1,7.326967E-2,-1.672408E0,-5.074688E-1,1.6436751E-1,-9.5548177E-1,-9.210542E-2,1.2553817E0,6.1084366E0,-2.1201982E0,-3.4207603E-1,1.5286597E0,3.7243264E0,-2.8828993E0,5.302965E0,2.5406585E0,1.9888975E-2,7.142247E0,-1.0485234E0,1.1178143E0,-4.778345E0,-9.953127E-2,6.006743E0,2.5365297E1,1.2044666E0,9.699554E0,-7.53092E-1,3.8607504E-2],"split_indices":[1,1,0,1,2,1,0,2,1,1,0,0,2,1,1,0,0,2,1,1,1,0,0,1,0,2,1,0,1,2,2,0,1,1,1,0,0,1,1,1,1,0,0,0,0,0,0,0,0,0,0,0,0,0,0,0,0,0,0,0,0,0,0,0,0,0,0,0,0,0,0,0,0,0,0,0,0,0,0,0,0,0,0,0,0,0,0],"split_type":[0,0,0,0,0,0,0,0,0,0,0,0,0,0,0,0,0,0,0,0,0,0,0,0,0,0,0,0,0,0,0,0,0,0,0,0,0,0,0,0,0,0,0,0,0,0,0,0,0,0,0,0,0,0,0,0,0,0,0,0,0,0,0,0,0,0,0,0,0,0,0,0,0,0,0,0,0,0,0,0,0,0,0,0,0,0,0],"sum_hessian":[1.679E3,1.625E3,5.4E1,1.069E3,5.56E2,5.3E1,1E0,7.36E2,3.33E2,4.54E2,1.02E2,3.3E1,2E1,6E2,1.36E2,2.94E2,3.9E1,3.25E2,1.29E2,3.9E1,6.3E1,5E0,2.8E1,1.2E1,8E0,3.81E2,2.19E2,3.9E1,9.7E1,1.8E1,2.76E2,1.2E1,2.7E1,1.34E2,1.91E2,6E0,1.23E2,5E0,3.4E1,5E0,5.8E1,1E0,4E0,4E0,2.4E1,5E0,7E0,1E0,7E0,3.04E2,7.7E1,1E1,2.09E2,3.8E1,1E0,2E0,9.5E1,1.3E1,5E0,6.9E1,2.07E2,9E0,1.8E1,7.1E1,6.3E1,1E2,9.1E1,5E0,1E0,2E1,1.03E2,2E0,3E0,8E0,2.6E1,3E0,2E0,7E0,5.1E1,3E0,1E0,3E0,1E0,1.1E1,1.3E1,4E0,1E0],"tree_param":{"num_deleted":"0","num_feature":"3","num_nodes":"87","size_leaf_vector":"1"}},{"base_weights":[1.8752544E-1,-4.1940695E-1,1.117225E1,-1.5585569E0,1.3016391E0,9.966404E0,1.7412134E1,-1.4183738E0,-4.7438054E0,1.1682229E1,1.1673297E0,1.5996884E0,1.1687251E1,-1.6694233E0,2.2078269E0,-5.3732204E0,-2.8158605E-1,1.789658E1,9.9373364E-1,2.942967E0,3.3071643E-1,9.238262E0,-1.7163581E0,2.1097963E1,9.256112E0,-1.9313046E0,-5.0998557E-1,-2.24602E0,3.742354E0,-2.557526E0,-6.1127768E0,1.232841E0,-1.9816912E0,-6.215553E-1,9.134757E0,-2.5831306E0,1.758649E0,-7.327587E-1,4.1327257E0,-1.5452042E0,1.724874E0,-1.6839172E-1,4.787523E0,9.92141E0,-8.775418E0,1.28055935E1,4.7234787E1,-1.2967463E-1,1.3717603E1,-6.97335E-1,-3.7496522E-1,-2.0491971E-1,1.9232717E0,-1.0995123E0,-4.9098825E-1,5.5191576E-1,2.8367934E0,-1.902822E-1,-9.0492487E-1,-2.4599454E0,-1.320829E0,-1.474774E0,4.8392838E-1,1.2010579E0,-1.4807578E0,4.1524932E-1,-1.577658E0,1.9103433E0,-6.7105883E-1,6.524136E-1,1.9558405E0,-3.711939E-1,-3.1265335E0,9.7874767E-1,-3.5212415E-1,-9.0466946E-1,5.8653746E0,-3.7030957E0,3.8585663E-1,4.9754505E0,-4.3149085E0,2.1560501E1,-3.0484515E-1,-1.5688492E0,1.6479293E0,4.556501E0,-2.845264E0],"categories":[],"categories_nodes":[],"categories_segments":[],"categories_sizes":[],"default_left":[0,0,0,0,0,0,0,0,0,0,0,0,0,0,0,0,0,0,0,0,0,0,0,0,0,0,0,0,0,0,0,0,0,0,0,0,0,0,0,0,0,0,0,0,0,0,0,0,0,0,0,0,0,0,0,0,0,0,0,0,0,0,0,0,0,0,0,0,0,0,0,0,0,0,0,0,0,0,0,0,0,0,0,0,0,0,0],"id":4,"left_children":[1,3,5,7,9,11,-1,13,15,17,19,21,23,25,27,29,31,33,35,37,39,41,43,45,47,49,51,53,55,57,59,-1,61,63,-1,65,-1,67,69,71,73,-1,-1,75,77,79,81,83,85,-1,-1,-1,-1,-1,-1,-1,-1,-1,-1,-1,-1,-1,-1,-1,-1,-1,-1,-1,-1,-1,-1,-1,-1,-1,-1,-1,-1,-1,-1,-1,-1,-1,-1,-1,-1,-1,-1],"loss_changes":[1.1205221E4,3.1251523E3,4.3949404E3,4.2148242E2,8.716874E2,1.233917E3,0E0,8.4121326E2,1.10830444E2,5.1359204E2,9.319343E2,4.21134E2,1.4519844E3,2.6044482E2,4.1847833E2,5.7249268E1,5.2935246E1,1.1811804E3,8.479758E1,8.820469E2,1.1220261E3,3.3823026E2,1.072885E3,2.429437E3,2.47238E3,1.8515869E2,1.9603806E2,7.8375473E0,4.7179596E2,6.0298233E0,6.0257507E1,0E0,6.066933E1,7.962286E1,0E0,3.912535E1,0E0,5.482437E2,6.9615967E2,4.8724756E2,1.1002446E3,0E0,0E0,6.818629E2,3.0309363E2,1.4715684E3,3.6388042E3,6.022289E2,1.5089956E3,0E0,0E0,0E0,0E0,0E0,0E0,0E0,0E0,0E0,0E0,0E0,0E0,0E0,0E0,0E0,0E0,0E0,0E0,0E0,0E0,0E0,0E0,0E0,0E0,0E0,0E0,0E0,0E0,0E0,0E0,0E0,0E0,0E0,0E0,0E0,0E0,0E0,0E0],"parents":[2147483647,0,0,1,1,2,2,3,3,4,4,5,5,7,7,8,8,9,9,10,10,11,11,12,12,13,13,14,14,15,15,16,16,17,17,18,18,19,19,20,20,21,21,22,22,23,23,24,24,25,25,26,26,27,27,28,28,29,29,30,30,32,32,33,33,35,35,37,37,38,38,39,39,40,40,43,43,44,44,45,45,46,46,47,47,48,48],"right_children":[2,4,6,8,10,12,-1,14,16,18,20,22,24,26,28,30,32,34,36,38,40,42,44,46,48,50,52,54,56,58,60,-1,62,64,-1,66,-1,68,70,72,74,-1,-1,76,78,80,82,84,86,-1,-1,-1,-1,-1,-1,-1,-1,-1,-1,-1,-1,-1,-1,-1,-1,-1,-1,-1,-1,-1,-1,-1,-1,-1,-1,-1,-1,-1,-1,-1,-1,-1,-1,-1,-1,-1,-1],"split_conditions":[1.8225482E6,2.7339469E4,1.361E3,2.2927113E4,2.8133818E4,1.8E1,1.7412134E1,1.746783E4,1.32E2,6.4E1,2.1E1,1.9540864E6,2.5E1,5E0,3E0,3E0,1.42E2,1.7E1,1E2,7.7694016E4,7.5E1,1.2E1,8E0,2.4E1,9.7E1,3.444985E3,1.6114947E4,1.8570832E4,8E1,2.3462564E4,4E0,1.232841E0,1.51E2,1E1,9.134757E0,7.9E1,1.758649E0,3.1185188E4,1.5E1,1.600525E6,1.56E2,-1.6839172E-1,4.787523E0,3E0,1.7E1,3.7451922E6,5.5104555E6,4.2012165E6,8.01E2,-6.97335E-1,-3.7496522E-1,-2.0491971E-1,1.9232717E0,-1.0995123E0,-4.9098825E-1,5.5191576E-1,2.8367934E0,-1.902822E-1,-9.0492487E-1,-2.4599454E0,-1.320829E0,-1.474774E0,4.8392838E-1,1.2010579E0,-1.4807578E0,4.1524932E-1,-1.577658E0,1.9103433E0,-6.7105883E-1,6.524136E-1,1.9558405E0,-3.711939E-1,-3.1265335E0,9.7874767E-1,-3.5212415E-1,-9.0466946E-1,5.8653746E0,-3.7030957E0,3.8585663E-1,4.9754505E0,-4.3149085E0,2.1560501E1,-3.0484515E-1,-1.5688492E0,1.6479293E0,4.556501E0,-2.845264E0],"split_indices":[1,1,0,1,1,0,0,1,0,0,0,1,0,2,2,2,0,0,0,1,0,0,0,0,0,1,1,1,0,1,2,0,0,0,0,0,0,1,0,1,0,0,0,0,0,1,1,1,0,0,0,0,0,0,0,0,0,0,0,0,0,0,0,0,0,0,0,0,0,0,0,0,0,0,0,0,0,0,0,0,0,0,0,0,0,0,0],"split_type":[0,0,0,0,0,0,0,0,0,0,0,0,0,0,0,0,0,0,0,0,0,0,0,0,0,0,0,0,0,0,0,0,0,0,0,0,0,0,0,0,0,0,0,0,0,0,0,0,0,0,0,0,0,0,0,0,0,0,0,0,0,0,0,0,0,0,0,0,0,0,0,0,0,0,0,0,0,0,0,0,0,0,0,0,0,0,0],"sum_hessian":[1.679E3,1.592E3,8.7E1,9.58E2,6.34E2,8.6E1,1E0,9.19E2,3.9E1,7E0,6.27E2,1.5E1,7.1E1,8.6E2,5.9E1,3.4E1,5E0,4E0,3E0,2E2,4.27E2,4E0,1.1E1,1.3E1,5.8E1,7.01E2,1.59E2,1.5E1,4.4E1,8E0,2.6E1,1E0,4E0,2E0,2E0,2E0,1E0,4.9E1,1.51E2,1.82E2,2.45E2,2E0,2E0,4E0,7E0,1.1E1,2E0,1.9E1,3.9E1,4.43E2,2.58E2,1.56E2,3E0,3E0,1.2E1,3.4E1,1E1,2E0,6E0,1E1,1.6E1,2E0,2E0,1E0,1E0,1E0,1E0,8E0,4.1E1,8.4E1,6.7E1,1.77E2,5E0,1.6E2,8.5E1,2E0,2E0,5E0,2E0,1E1,1E0,1E0,1E0,1E1,9E0,3.7E1,2E0],"tree_param":{"num_deleted":"0","num_feature":"3","num_nodes":"87","size_leaf_vector":"1"}},{"base_weights":[1.643745E-1,-2.137542E-1,1.1340245E1,-9.880708E-1,1.328155E0,9.723051E0,1.4800314E1,-1.7475487E0,-6.6725755E-1,8.062695E-1,3.6950393E0,1.4179703E1,2.0445163E0,-1.874779E0,6.684312E-2,-8.059823E-2,-1.3101051E0,2.4141316E-1,3.1745453E0,5.5180483E0,3.1972225E0,1.7874172E-1,1.7173525E1,-1.6624415E0,7.1718426E0,-1.642284E0,-2.1543608E0,6.2942405E0,-1.9281454E0,-7.990032E-1,2.2342703E0,-2.249179E0,-5.707786E-1,5.229719E-1,-4.868988E0,1.0611284E0,6.080371E0,-4.3987775E0,4.0335765E0,5.4191227E0,-5.812715E0,4.3567337E1,1.2263575E1,4.3359485E-1,-1.5308456E0,5.128396E0,3.5279126E0,-5.162512E-1,-1.9658434E-1,-7.0081705E-1,-4.3580082E-1,1.3018632E0,-8.448898E-1,-2.7200496E-1,3.1136732E0,7.310994E0,3.742688E-1,-5.2209824E-1,-8.135955E-1,-4.3888238E-1,4.1199276E-1,4.2290386E-2,1.5008281E0,-3.3598617E-1,-2.4393373E0,1.443795E0,-2.0175035E0,3.1675296E0,1.1063063E0,-1.9979962E0,-5.3439206E-1,2.462107E0,8.477727E-1,-2.8700204E0,3.390648E-1,5.209318E0,1.8326426E1,6.117172E-1,6.0454435E0,-2.5911835E-1,2.1111786E-1,3.9540613E-1,2.1453052E0],"categories":[],"categories_nodes":[],"categories_segments":[],"categories_sizes":[],"default_left":[0,0,0,0,0,0,0,0,0,0,0,0,0,0,0,0,0,0,0,0,0,0,0,0,0,0,0,0,0,0,0,0,0,0,0,0,0,0,0,0,0,0,0,0,0,0,0,0,0,0,0,0,0,0,0,0,0,0,0,0,0,0,0,0,0,0,0,0,0,0,0,0,0,0,0,0,0,0,0,0,0,0,0],"id":5,"left_children":[1,3,5,7,9,11,-1,13,15,17,19,21,23,25,27,29,31,33,35,-1,37,39,41,43,45,47,49,-1,51,53,55,57,59,61,63,65,67,69,71,-1,73,75,77,79,-1,81,-1,-1,-1,-1,-1,-1,-1,-1,-1,-1,-1,-1,-1,-1,-1,-1,-1,-1,-1,-1,-1,-1,-1,-1,-1,-1,-1,-1,-1,-1,-1,-1,-1,-1,-1,-1,-1],"loss_changes":[7.1019653E3,1.9426357E3,2.8997349E3,2.6270752E2,6.689928E2,1.8189194E3,0E0,7.422662E1,2.8764648E2,5.972014E2,6.582711E2,1.4220879E3,4.110652E2,1.596228E1,9.5836237E2,6.6699036E2,2.5143494E2,5.234202E2,5.2169293E2,0E0,6.276253E2,8.5509985E2,3.094293E3,9.595758E1,2.4067139E1,1.1897797E1,1.3563232E1,0E0,1.2912155E2,3.7772366E2,2.0445371E3,3.2960205E1,3.575697E2,5.8798096E2,2.2326086E2,1.5220685E3,3.4678882E2,4.7323013E1,4.1529944E2,0E0,1.6719586E2,7.7562256E2,1.9751599E3,3.7618551E0,0E0,5.2230392E1,0E0,0E0,0E0,0E0,0E0,0E0,0E0,0E0,0E0,0E0,0E0,0E0,0E0,0E0,0E0,0E0,0E0,0E0,0E0,0E0,0E0,0E0,0E0,0E0,0E0,0E0,0E0,0E0,0E0,0E0,0E0,0E0,0E0,0E0,0E0,0E0,0E0],"parents":[2147483647,0,0,1,1,2,2,3,3,4,4,5,5,7,7,8,8,9,9,10,10,11,11,12,12,13,13,14,14,15,15,16,16,17,17,18,18,20,20,21,21,22,22,23,23,24,24,25,25,26,26,28,28,29,29,30,30,31,31,32,32,33,33,34,34,35,35,36,36,37,37,38,38,40,40,41,41,42,42,43,43,45,45],"right_children":[2,4,6,8,10,12,-1,14,16,18,20,22,24,26,28,30,32,34,36,-1,38,40,42,44,46,48,50,-1,52,54,56,58,60,62,64,66,68,70,72,-1,74,76,78,80,-1,82,-1,-1,-1,-1,-1,-1,-1,-1,-1,-1,-1,-1,-1,-1,-1,-1,-1,-1,-1,-1,-1,-1,-1,-1,-1,-1,-1,-1,-1,-1,-1,-1,-1,-1,-1,-1,-1],"split_conditions":[2.6066228E6,4.8285734E4,1.361E3,3E0,5E0,5.5104555E6,1.4800314E1,2.9694473E4,5.1E1,8.996918E5,5.1524406E4,2.1E1,3E0,1.5589866E3,3.0275184E4,3.3E1,5.1623647E3,7.70908E5,8.7E1,5.5180483E0,5.794056E4,8E0,2.5E1,8.3E1,5E0,1.09E2,1.6909361E4,6.2942405E0,3E0,4.4370305E4,3.4E1,4E0,5E0,5.5569575E5,1.8E1,2.4E1,3E0,4.9E1,1.7E1,5.4191227E0,1.5E1,2.2E1,1.15E2,2.5E1,-1.5308456E0,7.60224E6,3.5279126E0,-5.162512E-1,-1.9658434E-1,-7.0081705E-1,-4.3580082E-1,1.3018632E0,-8.448898E-1,-2.7200496E-1,3.1136732E0,7.310994E0,3.742688E-1,-5.2209824E-1,-8.135955E-1,-4.3888238E-1,4.1199276E-1,4.2290386E-2,1.5008281E0,-3.3598617E-1,-2.4393373E0,1.443795E0,-2.0175035E0,3.1675296E0,1.1063063E0,-1.9979962E0,-5.3439206E-1,2.462107E0,8.477727E-1,-2.8700204E0,3.390648E-1,5.209318E0,1.8326426E1,6.117172E-1,6.0454435E0,-2.5911835E-1,2.1111786E-1,3.9540613E-1,2.1453052E0],"split_indices":[1,1,0,2,2,1,0,1,0,1,1,0,2,1,1,0,1,1,0,0,1,0,0,0,2,0,1,0,0,1,0,2,2,1,0,0,2,0,0,0,0,0,0,0,0,1,0,0,0,0,0,0,0,0,0,0,0,0,0,0,0,0,0,0,0,0,0,0,0,0,0,0,0,0,0,0,0,0,0,0,0,0,0],"split_type":[0,0,0,0,0,0,0,0,0,0,0,0,0,0,0,0,0,0,0,0,0,0,0,0,0,0,0,0,0,0,0,0,0,0,0,0,0,0,0,0,0,0,0,0,0,0,0,0,0,0,0,0,0,0,0,0,0,0,0,0,0,0,0,0,0,0,0,0,0,0,0,0,0,0,0,0,0,0,0,0,0,0,0],"sum_hessian":[1.679E3,1.625E3,5.4E1,1.082E3,5.43E2,5.3E1,1E0,3.2E2,7.62E2,4.46E2,9.7E1,3.3E1,2E1,2.99E2,2.1E1,3.99E2,3.63E2,3.61E2,8.5E1,2E0,9.5E1,6E0,2.7E1,1.2E1,8E0,1.67E2,1.32E2,1E0,2E1,3.05E2,9.4E1,1.59E2,2.04E2,3.43E2,1.8E1,5E1,3.5E1,9E0,8.6E1,1E0,5E0,3E0,2.4E1,8E0,4E0,7E0,1E0,1.54E2,1.3E1,1.03E2,2.9E1,2E0,1.8E1,3.03E2,2E0,3E0,9.1E1,7.8E1,8.1E1,1.4E2,6.4E1,3.17E2,2.6E1,9E0,9E0,3.4E1,1.6E1,1.1E1,2.4E1,4E0,5E0,1.8E1,6.8E1,3E0,2E0,2E0,1E0,1.1E1,1.3E1,1E0,7E0,3E0,4E0],"tree_param":{"num_deleted":"0","num_feature":"3","num_nodes":"83","size_leaf_vector":"1"}},{"base_weights":[1.5982452E-1,-1.3558759E-1,8.890375E0,-5.7813686E-1,1.3170295E0,7.501892E0,1.2580266E1,-5.22758E-1,-5.4180903E0,6.399569E0,1.0466282E0,8.460676E0,-3.4853E0,-9.2777103E-1,1.8000299E-1,-2.5386715E0,-2.7866478E0,2.455746E1,-7.969942E-2,-2.9485583E0,1.5105373E0,6.8940306E0,1.32539425E1,-1.2648329E0,-4.2297807E-1,5.261805E-1,-1.5395882E0,1.0021154E0,-3.9700751E0,2.1331491E0,8.142473E0,-2.0694582E0,4.1665387E0,-6.222403E0,1.4616263E0,5.794025E0,9.7358525E-1,8.678425E0,-3.7818942E0,-3.993304E-1,-2.287464E-1,7.27096E-1,-2.2267078E-1,2.548896E0,1.2537946E-1,-2.5102043E-1,-1.5655237E0,-4.1100726E-1,-1.8682861E0,2.1715055E0,-1.5797951E0,-2.1864257E0,-8.692931E-1,4.2882495E0,-1.0759194E0,6.013129E-1,2.973483E0,6.480247E-2,9.4272786E-1,1.7021761E0,1.4354608E1,-2.5268304E0,2.0281453E0],"categories":[],"categories_nodes":[],"categories_segments":[],"categories_sizes":[],"default_left":[0,0,0,0,0,0,0,0,0,0,0,0,0,0,0,0,0,0,0,0,0,0,0,0,0,0,0,0,0,0,0,0,0,0,0,0,0,0,0,0,0,0,0,0,0,0,0,0,0,0,0,0,0,0,0,0,0,0,0,0,0,0,0],"id":6,"left_children":[1,3,5,7,9,11,-1,13,15,17,19,21,-1,23,25,-1,27,29,31,33,35,37,-1,39,41,43,45,-1,47,-1,-1,49,-1,51,53,55,57,59,61,-1,-1,-1,-1,-1,-1,-1,-1,-1,-1,-1,-1,-1,-1,-1,-1,-1,-1,-1,-1,-1,-1,-1,-1],"loss_changes":[4.3341113E3,1.0460431E3,2.208858E3,3.3140225E2,5.1554565E2,1.0881958E3,0E0,3.5139713E2,8.8565735E1,2.2373042E3,6.7538586E2,2.605303E3,0E0,1.326897E2,2.698784E2,0E0,7.851964E1,3.2434814E1,4.456407E2,5.577487E2,7.4186804E2,1.00437427E3,0E0,1.45979E1,2.8807388E2,3.217094E2,1.9214482E2,0E0,3.8425858E1,0E0,0E0,4.546541E2,0E0,5.683069E1,1.1525068E3,5.4188464E2,4.7580978E2,4.906749E3,4.4834872E2,0E0,0E0,0E0,0E0,0E0,0E0,0E0,0E0,0E0,0E0,0E0,0E0,0E0,0E0,0E0,0E0,0E0,0E0,0E0,0E0,0E0,0E0,0E0,0E0],"parents":[2147483647,0,0,1,1,2,2,3,3,4,4,5,5,7,7,8,8,9,9,10,10,11,11,13,13,14,14,16,16,17,17,18,18,19,19,20,20,21,21,23,23,24,24,25,25,26,26,28,28,31,31,33,33,34,34,35,35,36,36,37,37,38,38],"right_children":[2,4,6,8,10,12,-1,14,16,18,20,22,-1,24,26,-1,28,30,32,34,36,38,-1,40,42,44,46,-1,48,-1,-1,50,-1,52,54,56,58,60,62,-1,-1,-1,-1,-1,-1,-1,-1,-1,-1,-1,-1,-1,-1,-1,-1,-1,-1,-1,-1,-1,-1,-1,-1],"split_conditions":[2.6066228E6,1.2944076E5,1.361E3,1.2024373E5,5E0,8.01E2,1.2580266E1,1.2712651E4,3E0,1.7752733E5,1.1E1,7.24E2,-3.4853E0,4E0,1.13E2,-2.5386715E0,5E0,3E0,4E0,4.6816688E5,1.7E1,1.7E2,1.32539425E1,7.6272896E3,6E0,1.3021194E4,7.7694016E4,1.0021154E0,1.23684445E5,2.1331491E0,8.142473E0,2E0,4.1665387E0,2.5510997E5,6.1538106E5,1.5E1,1.0874895E6,1.31E2,4E0,-3.993304E-1,-2.287464E-1,7.27096E-1,-2.2267078E-1,2.548896E0,1.2537946E-1,-2.5102043E-1,-1.5655237E0,-4.1100726E-1,-1.8682861E0,2.1715055E0,-1.5797951E0,-2.1864257E0,-8.692931E-1,4.2882495E0,-1.0759194E0,6.013129E-1,2.973483E0,6.480247E-2,9.4272786E-1,1.7021761E0,1.4354608E1,-2.5268304E0,2.0281453E0],"split_indices":[1,1,0,1,0,0,0,1,2,1,0,0,0,2,0,0,0,0,2,1,0,0,0,1,0,1,1,0,1,0,0,0,0,1,1,0,1,0,2,0,0,0,0,0,0,0,0,0,0,0,0,0,0,0,0,0,0,0,0,0,0,0,0],"split_type":[0,0,0,0,0,0,0,0,0,0,0,0,0,0,0,0,0,0,0,0,0,0,0,0,0,0,0,0,0,0,0,0,0,0,0,0,0,0,0,0,0,0,0,0,0,0,0,0,0,0,0,0,0,0,0,0,0,0,0,0,0,0,0],"sum_hessian":[1.679E3,1.625E3,5.4E1,1.246E3,3.79E2,5.3E1,1E0,1.233E3,1.3E1,1.8E1,3.61E2,5.1E1,2E0,7.82E2,4.51E2,5E0,8E0,4E0,1.4E1,3.7E1,3.24E2,5E1,1E0,4.68E2,3.14E2,3.76E2,7.5E1,1E0,7E0,1E0,3E0,1.3E1,1E0,2.1E1,1.6E1,3.5E1,2.89E2,4.3E1,7E0,4.12E2,5.6E1,3.1E1,2.83E2,4E0,3.72E2,6.4E1,1.1E1,4E0,3E0,3E0,1E1,1.5E1,6E0,4E0,1.2E1,1.9E1,1.6E1,2.15E2,7.4E1,4.1E1,2E0,5E0,2E0],"tree_param":{"num_deleted":"0","num_feature":"3","num_nodes":"63","size_leaf_vector":"1"}},{"base_weights":[1.4437601E-1,-8.464622E-2,6.912481E0,-4.8602945E-1,7.921215E-1,5.7203383E0,1.0693227E1,-4.3476343E-1,-3.27367E0,6.6465116E0,6.259497E-1,8.706958E0,6.1246234E-1,-5.048917E-1,4.6574826E0,-3.6971288E0,7.158075E-1,-3.2516963E0,1.4476629E1,1.9776514E-1,2.6464794E0,1.0122467E1,-9.294131E0,-1.8804734E0,4.145318E0,-3.8216555E-1,-1.8227116E0,-3.0211625E0,1.17539425E1,5.5101555E-2,-4.141809E0,-6.5686606E-2,-2.2433443E0,2.533843E1,-2.7197795E0,-2.0224633E0,6.043464E-1,-1.2565793E0,3.2279298E0,8.026235E0,1.126585E1,-6.543949E-1,-3.5279644E0,-3.605251E0,-1.2391273E0,2.3773167E0,2.7433996E0,-1.6622195E-1,1.3433642E0,-1.9355191E-1,-1.2356976E0,4.0638715E-1,-1.4116585E0,1.6201256E-1,6.84985E0,6.2997556E-1,-6.0517985E-1,-1.5413859E0,-5.95426E-1,8.424638E-1,-8.7530714E-1,9.5950145E-1,9.0221615E0,4.2070714E-1,-1.3683833E0,3.0298805E-1,-1.0904768E0,2.3086254E-1,-1.3624848E0,-3.0517657E0,8.537087E-1,4.3828154E0,5.5846786E-1,3.4990478E0,-6.482348E-1,-1.5803558E0,-4.2007256E-2,-2.7956805E-1,-6.4671993E-1,-1.0099712E-1,1.2219098E0],"categories":[],"categories_nodes":[],"categories_segments":[],"categories_sizes":[],"default_left":[0,0,0,0,0,0,0,0,0,0,0,0,0,0,0,0,0,0,0,0,0,0,0,0,0,0,0,0,0,0,0,0,0,0,0,0,0,0,0,0,0,0,0,0,0,0,0,0,0,0,0,0,0,0,0,0,0,0,0,0,0,0,0,0,0,0,0,0,0,0,0,0,0,0,0,0,0,0,0,0,0],"id":7,"left_children":[1,3,5,7,9,11,-1,13,15,17,19,21,23,25,27,29,-1,31,33,35,37,39,41,43,45,47,49,51,53,55,57,59,-1,61,63,65,67,69,71,73,-1,-1,-1,75,77,79,-1,-1,-1,-1,-1,-1,-1,-1,-1,-1,-1,-1,-1,-1,-1,-1,-1,-1,-1,-1,-1,-1,-1,-1,-1,-1,-1,-1,-1,-1,-1,-1,-1,-1,-1],"loss_changes":[2.604663E3,5.726067E2,1.6799734E3,1.580657E2,4.9295822E2,8.184524E2,0E0,3.941017E2,5.675438E1,1.1321313E3,4.3032614E2,9.604238E2,1.9274599E2,1.7445804E2,8.528784E2,3.1930542E1,0E0,9.375997E1,1.5631869E3,3.73136E2,2.0149695E2,1.5386055E3,2.6963257E1,9.912968E0,5.780989E1,8.3127606E2,2.4610669E2,6.533763E1,9.815698E2,1.6948929E1,2.6330963E1,4.917535E1,0E0,4.280288E2,3.6760166E1,3.1660925E2,3.001761E2,4.6785724E2,1.1547012E3,1.1738392E3,0E0,0E0,0E0,1.6546246E1,1.0888214E0,3.8188236E1,0E0,0E0,0E0,0E0,0E0,0E0,0E0,0E0,0E0,0E0,0E0,0E0,0E0,0E0,0E0,0E0,0E0,0E0,0E0,0E0,0E0,0E0,0E0,0E0,0E0,0E0,0E0,0E0,0E0,0E0,0E0,0E0,0E0,0E0,0E0],"parents":[2147483647,0,0,1,1,2,2,3,3,4,4,5,5,7,7,8,8,9,9,10,10,11,11,12,12,13,13,14,14,15,15,17,17,18,18,19,19,20,20,21,21,22,22,23,23,24,24,25,25,26,26,27,27,28,28,29,29,30,30,31,31,33,33,34,34,35,35,36,36,37,37,38,38,39,39,43,43,44,44,45,45],"right_children":[2,4,6,8,10,12,-1,14,16,18,20,22,24,26,28,30,-1,32,34,36,38,40,42,44,46,48,50,52,54,56,58,60,-1,62,64,66,68,70,72,74,-1,-1,-1,76,78,80,-1,-1,-1,-1,-1,-1,-1,-1,-1,-1,-1,-1,-1,-1,-1,-1,-1,-1,-1,-1,-1,-1,-1,-1,-1,-1,-1,-1,-1,-1,-1,-1,-1,-1,-1],"split_conditions":[2.6066228E6,5.640994E4,1.361E3,5.1524406E4,6.159118E4,5.5104555E6,1.0693227E1,4.8285734E4,1.25E2,4.6E1,5E0,8.01E2,3E0,3.1185188E4,6.5E1,3E0,7.158075E-1,3E0,1.09E2,1.0091189E5,1.2E1,2.71E2,9.73E2,7.60224E6,5E0,2.7339469E4,7.7E1,8E0,4E0,1.4E1,6.9E1,2.7E1,-2.2433443E0,7.9E1,1.23E2,7.315488E4,8.34E2,1.0091189E5,1.7E1,1.19E2,1.126585E1,-6.543949E-1,-3.5279644E0,1.23E2,2.55E2,7.60224E6,2.7433996E0,-1.6622195E-1,1.3433642E0,-1.9355191E-1,-1.2356976E0,4.0638715E-1,-1.4116585E0,1.6201256E-1,6.84985E0,6.2997556E-1,-6.0517985E-1,-1.5413859E0,-5.95426E-1,8.424638E-1,-8.7530714E-1,9.5950145E-1,9.0221615E0,4.2070714E-1,-1.3683833E0,3.0298805E-1,-1.0904768E0,2.3086254E-1,-1.3624848E0,-3.0517657E0,8.537087E-1,4.3828154E0,5.5846786E-1,3.4990478E0,-6.482348E-1,-1.5803558E0,-4.2007256E-2,-2.7956805E-1,-6.4671993E-1,-1.0099712E-1,1.2219098E0],"split_indices":[1,1,0,1,1,1,0,1,0,0,2,0,2,1,0,2,0,2,0,1,0,0,0,1,2,1,0,0,2,0,0,0,0,0,0,1,0,1,0,0,0,0,0,0,0,1,0,0,0,0,0,0,0,0,0,0,0,0,0,0,0,0,0,0,0,0,0,0,0,0,0,0,0,0,0,0,0,0,0,0,0],"split_type":[0,0,0,0,0,0,0,0,0,0,0,0,0,0,0,0,0,0,0,0,0,0,0,0,0,0,0,0,0,0,0,0,0,0,0,0,0,0,0,0,0,0,0,0,0,0,0,0,0,0,0,0,0,0,0,0,0,0,0,0,0,0,0,0,0,0,0,0,0,0,0,0,0,0,0,0,0,0,0,0,0],"sum_hessian":[1.679E3,1.625E3,5.4E1,1.115E3,5.1E2,5.3E1,1E0,1.096E3,1.9E1,1.3E1,4.97E2,3.3E1,2E1,1.082E3,1.4E1,1.8E1,1E0,6E0,7E0,4.11E2,8.6E1,3.1E1,2E0,1.2E1,8E0,9.91E2,9.1E1,7E0,7E0,2E0,1.6E1,4E0,2E0,4E0,3E0,6.3E1,3.48E2,1.1E1,7.5E1,3E1,1E0,1E0,1E0,2E0,1E1,7E0,1E0,9.58E2,3.3E1,6.1E1,3E1,2E0,5E0,4E0,3E0,1E0,1E0,1E1,6E0,2E0,2E0,1E0,3E0,1E0,2E0,2.2E1,4.1E1,3.38E2,1E1,3E0,8E0,7E0,6.8E1,2.2E1,8E0,1E0,1E0,9E0,1E0,3E0,4E0],"tree_param":{"num_deleted":"0","num_feature":"3","num_nodes":"81","size_leaf_vector":"1"}},{"base_weights":[1.2123194E-1,8.521424E-2,9.089244E0,-1.6655147E-1,2.6155615E0,-1.1818165E-1,-3.6320336E0,2.8664117E0,-7.382494E0,-1.5002806E-1,6.7320323E0,-7.167756E0,-1.35219E0,2.357637E0,2.6840895E1,-9.5381796E-1,-2.9987695E0,-4.6631014E-1,3.1451413E-1,4.719775E0,2.6098428E0,-4.6274716E-1,-7.7510095E0,1.4849586E0,-4.4014754E0,-1.6750662E0,2.9333248E0,2.502431E0,9.575973E0,-1.6579854E-1,1.000467E0,9.543732E-1,3.38365E-2,1.2651033E0,-8.138997E-1,-2.519215E0,-5.809146E-1,-9.1734E-1,2.0376503E0,-1.6245549E0,2.5211507E-1,1.3160726E0,-2.2708604E0,2.050375E0,3.8701552E-1],"categories":[],"categories_nodes":[],"categories_segments":[],"categories_sizes":[],"default_left":[0,0,0,0,0,0,0,0,0,0,0,0,0,0,0,0,0,0,0,0,0,0,0,0,0,0,0,0,0,0,0,0,0,0,0,0,0,0,0,0,0,0,0,0,0],"id":8,"left_children":[1,3,-1,5,7,9,11,13,15,17,19,21,23,25,27,-1,-1,29,31,-1,33,-1,35,37,39,41,43,-1,-1,-1,-1,-1,-1,-1,-1,-1,-1,-1,-1,-1,-1,-1,-1,-1,-1],"loss_changes":[1.823375E3,1.0700503E3,0E0,2.5570137E2,4.023794E2,3.2998734E2,1.5958658E2,1.7541625E3,1.2156723E1,2.2083005E2,2.1865433E2,1.4291809E1,1.2765389E2,3.4618536E2,1.56188965E1,0E0,0E0,2.952895E2,3.5182187E2,0E0,6.276896E1,0E0,1.0048401E1,2.1364401E2,4.174678E1,7.121171E2,8.181803E2,0E0,0E0,0E0,0E0,0E0,0E0,0E0,0E0,0E0,0E0,0E0,0E0,0E0,0E0,0E0,0E0,0E0,0E0],"parents":[2147483647,0,0,1,1,3,3,4,4,5,5,6,6,7,7,8,8,9,9,10,10,11,11,12,12,13,13,14,14,17,17,18,18,20,20,22,22,23,23,24,24,25,25,26,26],"right_children":[2,4,-1,6,8,10,12,14,16,18,20,22,24,26,28,-1,-1,30,32,-1,34,-1,36,38,40,42,44,-1,-1,-1,-1,-1,-1,-1,-1,-1,-1,-1,-1,-1,-1,-1,-1,-1,-1],"split_conditions":[2.644E3,8.996918E5,9.089244E0,7.70908E5,8.01E2,7.252986E5,8.26E5,7.24E2,1.057E3,4E0,1.7E1,3E0,2.6E1,1.5E1,1.8225482E6,-9.5381796E-1,-2.9987695E0,5.5569575E5,6E0,4.719775E0,4.12E2,-4.6274716E-1,1.05E2,1.2E1,1.95E2,8E0,2.5E1,2.502431E0,9.575973E0,-1.6579854E-1,1.000467E0,9.543732E-1,3.38365E-2,1.2651033E0,-8.138997E-1,-2.519215E0,-5.809146E-1,-9.1734E-1,2.0376503E0,-1.6245549E0,2.5211507E-1,1.3160726E0,-2.2708604E0,2.050375E0,3.8701552E-1],"split_indices":[0,1,0,1,0,1,1,0,0,2,0,0,0,0,1,0,0,1,0,0,0,0,0,0,0,0,0,0,0,0,0,0,0,0,0,0,0,0,0,0,0,0,0,0,0],"split_type":[0,0,0,0,0,0,0,0,0,0,0,0,0,0,0,0,0,0,0,0,0,0,0,0,0,0,0,0,0,0,0,0,0,0,0,0,0,0,0,0,0,0,0,0,0],"sum_hessian":[1.679E3,1.678E3,1E0,1.527E3,1.51E2,1.507E3,2E1,1.48E2,3E0,1.501E3,6E0,7E0,1.3E1,1.46E2,2E0,2E0,1E0,8.93E2,6.08E2,1E0,5E0,1E0,6E0,7E0,6E0,1.8E1,1.28E2,1E0,1E0,8.74E2,1.9E1,3.9E1,5.69E2,4E0,1E0,5E0,1E0,4E0,3E0,5E0,1E0,9E0,9E0,3.7E1,9.1E1],"tree_param":{"num_deleted":"0","num_feature":"3","num_nodes":"45","size_leaf_vector":"1"}},{"base_weights":[9.7884044E-2,6.726592E-2,7.7258563E0,-5.225469E-2,3.6649187E0,-6.651821E-1,1.7711954E-1,1.6524369E0,9.884867E0,-4.379352E-1,-1.1388613E0,2.6232183E0,1.168304E-2,4.439457E0,-7.780236E0,1.1535929E1,1.1949077E0,-5.0358385E-1,5.0960714E-1,-5.7403636E-1,-3.438177E0,7.310611E-1,7.790097E0,-3.9787233E0,1.1862399E-1,1.4848684E0,3.9399563E1,-7.1650276E0,1.761605E1,-1.6967732E-1,8.820317E-2,3.239701E0,-5.824212E-1,-4.2274535E-1,6.3028103E-1,-1.3870349E0,3.0880533E-2,-1.6929786E-1,9.850077E-1,-8.3006847E-1,2.9447563E0,-1.3192123E0,-3.2691744E-1,-8.979031E-3,2.9435202E-1,2.2424383E0,-4.010469E-1,1.9131159E1,-1.4013547E0,-3.854727E0,-3.5543165E-1,1.6200365E0,8.139576E0],"categories":[],"categories_nodes":[],"categories_segments":[],"categories_sizes":[],"default_left":[0,0,0,0,0,0,0,0,0,0,0,0,0,0,0,0,0,0,0,0,0,0,0,0,0,0,0,0,0,0,0,0,0,0,0,0,0,0,0,0,0,0,0,0,0,0,0,0,0,0,0,0,0],"id":9,"left_children":[1,3,-1,5,7,9,11,13,15,17,19,21,23,25,-1,-1,27,29,31,33,35,37,39,41,43,45,47,49,51,-1,-1,-1,-1,-1,-1,-1,-1,-1,-1,-1,-1,-1,-1,-1,-1,-1,-1,-1,-1,-1,-1,-1,-1],"loss_changes":[1.3179193E3,7.2215094E2,0E0,2.2871677E2,6.596126E2,4.718672E1,4.7910336E2,3.3442732E3,3.1813896E3,1.8980293E1,1.8374203E2,7.2754596E2,4.7415094E2,3.9699138E3,0E0,0E0,1.6362961E3,1.4113052E1,5.253537E2,2.6209402E2,1.1799704E2,1.8700089E2,4.5487744E2,3.028302E1,1.3867169E2,6.3535614E2,3.520023E3,2.5671393E2,3.1846497E2,0E0,0E0,0E0,0E0,0E0,0E0,0E0,0E0,0E0,0E0,0E0,0E0,0E0,0E0,0E0,0E0,0E0,0E0,0E0,0E0,0E0,0E0,0E0,0E0],"parents":[2147483647,0,0,1,1,3,3,4,4,5,5,6,6,7,7,8,8,9,9,10,10,11,11,12,12,13,13,16,16,17,17,18,18,19,19,20,20,21,21,22,22,23,23,24,24,25,25,26,26,27,27,28,28],"right_children":[2,4,-1,6,8,10,12,14,16,18,20,22,24,26,-1,-1,28,30,32,34,36,38,40,42,44,46,48,50,52,-1,-1,-1,-1,-1,-1,-1,-1,-1,-1,-1,-1,-1,-1,-1,-1,-1,-1,-1,-1,-1,-1,-1,-1],"split_conditions":[2.644E3,2.6066228E6,7.7258563E0,1.9946938E3,1.31E2,4E0,6E0,1.23E2,1.7E2,1.649784E3,1.2697621E3,4E0,7E0,1.18E2,-7.780236E0,1.1535929E1,4E0,1.01E2,8E0,7.5801056E2,1.8491691E3,1.2944076E5,2E0,4.374629E5,1.34E2,2.5E1,1.19E2,3.7451922E6,2.71E2,-1.6967732E-1,8.820317E-2,3.239701E0,-5.824212E-1,-4.2274535E-1,6.3028103E-1,-1.3870349E0,3.0880533E-2,-1.6929786E-1,9.850077E-1,-8.3006847E-1,2.9447563E0,-1.3192123E0,-3.2691744E-1,-8.979031E-3,2.9435202E-1,2.2424383E0,-4.010469E-1,1.9131159E1,-1.4013547E0,-3.854727E0,-3.5543165E-1,1.6200365E0,8.139576E0],"split_indices":[0,1,0,1,0,2,0,0,0,1,1,2,0,0,0,0,2,0,0,1,1,1,0,1,0,0,0,1,0,0,0,0,0,0,0,0,0,0,0,0,0,0,0,0,0,0,0,0,0,0,0,0,0],"split_type":[0,0,0,0,0,0,0,0,0,0,0,0,0,0,0,0,0,0,0,0,0,0,0,0,0,0,0,0,0,0,0,0,0,0,0,0,0,0,0,0,0,0,0,0,0,0,0,0,0,0,0,0,0],"sum_hessian":[1.679E3,1.678E3,1E0,1.625E3,5.3E1,4.42E2,1.183E3,4.1E1,1.2E1,3E2,1.42E2,7.4E1,1.109E3,3.8E1,3E0,2E0,1E1,2.81E2,1.9E1,1.15E2,2.7E1,5.5E1,1.9E1,2.8E1,1.081E3,3.6E1,2E0,7E0,3E0,2.61E2,2E1,3E0,1.6E1,8.8E1,2.7E1,2E1,7E0,3.7E1,1.8E1,3E0,1.6E1,2.4E1,4E0,9.23E2,1.58E2,1.1E1,2.5E1,1E0,1E0,3E0,4E0,2E0,1E0],"tree_param":{"num_deleted":"0","num_feature":"3","num_nodes":"53","size_leaf_vector":"1"}},{"base_weights":[9.208973E-2,6.6069625E-2,6.566977E0,-3.4735166E-2,3.1001902E0,-3.3784267E-1,2.650799E-1,-5.603463E0,4.515702E0,-6.399249E-2,-9.985106E-1,7.333503E0,2.0381874E-1,3.2922938E0,-9.539475E0,2.1971684E1,2.3809202E0,-3.368974E-1,3.0698724E0,-3.093599E0,-2.5479475E-1,1.7431765E1,-1.9215421E-1,9.018515E-1,-4.117913E-2,-1.0241808E1,-7.988222E-1,2.9260544E1,-1.0775639E0,1.1811233E1,-8.346665E-1,2.652481E-2,-2.3169808E-1,5.607954E0,7.771396E-2,5.630425E-1,-1.2256619E0,1.9027128E0,-1.217573E-1,1.4191401E0,6.425154E0,-9.2038333E-1,8.2430625E-1,-6.5684885E-2,7.5054955E-1,-4.4089302E-1,1.2458081E-1,-3.3574955E0,-8.2388884E-1,2.268646E0,1.41533575E1,8.743151E0,-6.7695487E-1,-4.5062394E0,6.705085E-1],"categories":[],"categories_nodes":[],"categories_segments":[],"categories_sizes":[],"default_left":[0,0,0,0,0,0,0,0,0,0,0,0,0,0,0,0,0,0,0,0,0,0,0,0,0,0,0,0,0,0,0,0,0,0,0,0,0,0,0,0,0,0,0,0,0,0,0,0,0,0,0,0,0,0,0],"id":10,"left_children":[1,3,-1,5,7,9,11,13,15,17,19,21,23,-1,25,27,29,31,33,35,37,39,41,43,45,47,-1,49,-1,51,53,-1,-1,-1,-1,-1,-1,-1,-1,-1,-1,-1,-1,-1,-1,-1,-1,-1,-1,-1,-1,-1,-1,-1,-1],"loss_changes":[9.514194E2,5.136363E2,0E0,1.4785425E2,6.905902E2,1.4630365E2,3.5271533E2,6.2669183E2,1.6991283E3,4.910908E2,3.684934E2,5.3532196E2,1.3890256E2,0E0,6.5369263E0,1.0367466E3,1.3137898E3,9.785074E1,2.0152202E3,3.133493E2,1.7797356E2,5.054657E1,5.070159E1,3.789256E2,3.9312653E2,1.1981812E1,0E0,1.1983416E3,0E0,2.7479011E3,1.470626E3,0E0,0E0,0E0,0E0,0E0,0E0,0E0,0E0,0E0,0E0,0E0,0E0,0E0,0E0,0E0,0E0,0E0,0E0,0E0,0E0,0E0,0E0,0E0,0E0],"parents":[2147483647,0,0,1,1,3,3,4,4,5,5,6,6,7,7,8,8,9,9,10,10,11,11,12,12,14,14,15,15,16,16,17,17,18,18,19,19,20,20,21,21,22,22,23,23,24,24,25,25,27,27,29,29,30,30],"right_children":[2,4,-1,6,8,10,12,14,16,18,20,22,24,-1,26,28,30,32,34,36,38,40,42,44,46,48,-1,50,-1,52,54,-1,-1,-1,-1,-1,-1,-1,-1,-1,-1,-1,-1,-1,-1,-1,-1,-1,-1,-1,-1,-1,-1,-1,-1],"split_conditions":[2.644E3,2.6066228E6,6.566977E0,1.3963915E4,2.1E1,4.269893E3,1.4323336E4,8E0,2.5E1,3.444985E3,2.5E1,4.5E1,1.8E1,3.2922938E0,5.5104555E6,5.5104555E6,3.3208178E6,3.7E1,3.5947334E3,5E0,2.6E1,3E0,1.11E2,1.1E1,3.3E1,1.8E1,-7.988222E-1,2.2E1,-1.0775639E0,3E0,3.7451922E6,2.652481E-2,-2.3169808E-1,5.607954E0,7.771396E-2,5.630425E-1,-1.2256619E0,1.9027128E0,-1.217573E-1,1.4191401E0,6.425154E0,-9.2038333E-1,8.2430625E-1,-6.5684885E-2,7.5054955E-1,-4.4089302E-1,1.2458081E-1,-3.3574955E0,-8.2388884E-1,2.268646E0,1.41533575E1,8.743151E0,-6.7695487E-1,-4.5062394E0,6.705085E-1],"split_indices":[0,1,0,1,0,1,1,0,0,1,0,0,0,0,1,1,1,0,1,0,0,0,0,0,0,0,0,0,0,2,1,0,0,0,0,0,0,0,0,0,0,0,0,0,0,0,0,0,0,0,0,0,0,0,0],"split_type":[0,0,0,0,0,0,0,0,0,0,0,0,0,0,0,0,0,0,0,0,0,0,0,0,0,0,0,0,0,0,0,0,0,0,0,0,0,0,0,0,0,0,0,0,0,0,0,0,0,0,0,0,0,0,0],"sum_hessian":[1.679E3,1.678E3,1E0,1.625E3,5.3E1,8.08E2,8.17E2,7E0,4.6E1,5.72E2,2.36E2,6E0,8.11E2,1E0,6E0,4E0,4.2E1,5.27E2,4.5E1,6.1E1,1.75E2,2E0,4E0,2.1E2,6.01E2,5E0,1E0,3E0,1E0,1E1,3.2E1,2.67E2,2.6E2,6E0,3.9E1,1E1,5.1E1,3E0,1.72E2,1E0,1E0,2E0,2E0,1.24E2,8.6E1,1.45E2,4.56E2,4E0,1E0,2E0,1E0,4E0,6E0,5E0,2.7E1],"tree_param":{"num_deleted":"0","num_feature":"3","num_nodes":"55","size_leaf_vector":"1"}},{"base_weights":[8.777816E-2,6.566672E-2,5.5819316E0,-1.5264301E-2,2.5013738E0,5.428562E-3,-3.733685E0,6.396064E-1,8.3239E0,-4.553764E-2,2.7047575E0,-1.5765389E0,-2.0971081E0,2.9304755E0,-1.689892E1,9.094642E0,1.5694816E0,3.617691E-5,-4.023121E0,1.3777601E1,9.641598E-1,-1.0302777E0,-8.4615386E-1,3.159817E-1,1.4950013E1,-1.291728E0,-5.6912313E0,-5.1445246E0,1.46051235E1,2.4544576E-2,-4.8323905E-1,-3.2392485E0,7.428383E-1,5.7111425E0,1.7036123E0,-2.830385E-1,3.6506546E0,-7.942585E-1,1.17394544E-1,1.4794506E0,-5.479235E-1,-3.4863179E0,-7.6774627E-1,1.1619271E0,7.020184E0],"categories":[],"categories_nodes":[],"categories_segments":[],"categories_sizes":[],"default_left":[0,0,0,0,0,0,0,0,0,0,0,0,0,0,0,0,0,0,0,0,0,0,0,0,0,0,0,0,0,0,0,0,0,0,0,0,0,0,0,0,0,0,0,0,0],"id":11,"left_children":[1,3,-1,5,7,9,11,13,15,17,19,-1,21,23,25,-1,27,29,31,33,35,37,-1,39,-1,-1,-1,41,43,-1,-1,-1,-1,-1,-1,-1,-1,-1,-1,-1,-1,-1,-1,-1,-1],"loss_changes":[6.866947E2,3.3100977E2,0E0,1.2513247E2,5.800463E2,2.2271877E2,1.1389069E1,1.7370176E3,1.883444E3,2.8804398E2,5.649172E2,0E0,1.7245903E0,4.644093E3,4.8772217E1,0E0,1.0378716E3,2.0721518E2,8.1924615E2,6.227948E1,5.88587E2,1.0232306E1,0E0,3.7487253E2,0E0,0E0,0E0,1.0421387E2,2.8694116E2,0E0,0E0,0E0,0E0,0E0,0E0,0E0,0E0,0E0,0E0,0E0,0E0,0E0,0E0,0E0,0E0],"parents":[2147483647,0,0,1,1,3,3,4,4,5,5,6,6,7,7,8,8,9,9,10,10,12,12,13,13,14,14,16,16,17,17,18,18,19,19,20,20,21,21,23,23,27,27,28,28],"right_children":[2,4,-1,6,8,10,12,14,16,18,20,-1,22,24,26,-1,28,30,32,34,36,38,-1,40,-1,-1,-1,42,44,-1,-1,-1,-1,-1,-1,-1,-1,-1,-1,-1,-1,-1,-1,-1,-1],"split_conditions":[2.644E3,2.6066228E6,5.5819316E0,9.95E2,1.31E2,4.19E2,4.374629E5,1.19E2,1.7E2,2.182629E6,4.42E2,-1.5765389E0,1.475E3,1.18E2,1.23E2,9.094642E0,4E0,1.56E2,4E0,3E0,1.0874895E6,1.057E3,-8.4615386E-1,2.5E1,1.4950013E1,-1.291728E0,-5.6912313E0,2.13E2,2.71E2,2.4544576E-2,-4.8323905E-1,-3.2392485E0,7.428383E-1,5.7111425E0,1.7036123E0,-2.830385E-1,3.6506546E0,-7.942585E-1,1.17394544E-1,1.4794506E0,-5.479235E-1,-3.4863179E0,-7.6774627E-1,1.1619271E0,7.020184E0],"split_indices":[0,1,0,0,0,0,1,0,0,1,0,0,0,0,0,0,2,0,2,2,1,0,0,0,0,0,0,0,0,0,0,0,0,0,0,0,0,0,0,0,0,0,0,0,0],"split_type":[0,0,0,0,0,0,0,0,0,0,0,0,0,0,0,0,0,0,0,0,0,0,0,0,0,0,0,0,0,0,0,0,0,0,0,0,0,0,0,0,0,0,0,0,0],"sum_hessian":[1.679E3,1.678E3,1E0,1.625E3,5.3E1,1.617E3,8E0,4.1E1,1.2E1,1.588E3,2.9E1,3E0,5E0,3.7E1,4E0,2E0,1E1,1.571E3,1.7E1,3E0,2.6E1,3E0,2E0,3.6E1,1E0,1E0,3E0,7E0,3E0,1.496E3,7.5E1,8E0,9E0,1E0,2E0,2.3E1,3E0,1E0,2E0,1.1E1,2.5E1,1E0,6E0,2E0,1E0],"tree_param":{"num_deleted":"0","num_feature":"3","num_nodes":"45","size_leaf_vector":"1"}},{"base_weights":[8.062982E-2,6.1838683E-2,4.7446427E0,-6.4941555E-2,1.4669214E0,-4.4804156E-2,-4.4715085E0,3.2648038E-2,3.3003752E0,-6.964223E-2,4.7048683E0,8.8666654E-1,-6.201945E0,2.0879114E0,-4.764327E0,5.3498907E0,6.9380754E-1,-2.6535982E-2,-3.161765E0,3.3537853E0,6.8351555E-1,-2.902815E0,-6.137639E-1,5.932158E-1,8.90419E0,-7.1214194E0,-4.4570923E-2,1.3110702E1,2.4576912E0,-7.771699E0,4.468595E0,-1.5814036E-2,1.6782576E0,1.296785E0,-1.1256346E0,-5.969049E-1,2.1074262E0,7.959467E-1,-2.5197308E0,2.9969133E-2,6.6256967E0,-5.677868E-1,-3.293391E0,9.247519E-1,-2.4623066E-1,5.117902E0,1.1728712E0,-1.1655171E-1,5.4626703E0,9.265469E-1,-2.8545852E0,1.8359783E0,-1.1000147E0],"categories":[],"categories_nodes":[],"categories_segments":[],"categories_sizes":[],"default_left":[0,0,0,0,0,0,0,0,0,0,0,0,0,0,0,0,0,0,0,0,0,0,0,0,0,0,0,0,0,0,0,0,0,0,0,0,0,0,0,0,0,0,0,0,0,0,0,0,0,0,0,0,0],"id":12,"left_children":[1,3,-1,5,7,9,11,13,15,17,19,-1,21,23,25,27,29,31,33,-1,35,-1,-1,37,39,41,43,45,47,49,51,-1,-1,-1,-1,-1,-1,-1,-1,-1,-1,-1,-1,-1,-1,-1,-1,-1,-1,-1,-1,-1,-1],"loss_changes":[4.9575708E2,2.9918686E2,0E0,1.3654306E2,3.6541696E2,1.8141577E2,1.0829462E2,7.8881213E2,3.2216248E2,2.0358293E2,2.0064607E2,0E0,6.683562E1,5.6526056E2,2.6668024E2,7.3093555E2,9.2948224E2,2.2217657E2,1.0900543E2,0E0,1.15685356E2,0E0,0E0,8.928949E2,1.1583284E3,3.018647E2,2.4375101E1,2.6031885E2,1.1726813E3,1.9980872E2,2.9112204E2,0E0,0E0,0E0,0E0,0E0,0E0,0E0,0E0,0E0,0E0,0E0,0E0,0E0,0E0,0E0,0E0,0E0,0E0,0E0,0E0,0E0,0E0],"parents":[2147483647,0,0,1,1,3,3,4,4,5,5,6,6,7,7,8,8,9,9,10,10,12,12,13,13,14,14,15,15,16,16,17,17,18,18,20,20,23,23,24,24,25,25,26,26,27,27,28,28,29,29,30,30],"right_children":[2,4,-1,6,8,10,12,14,16,18,20,-1,22,24,26,28,30,32,34,-1,36,-1,-1,38,40,42,44,46,48,50,52,-1,-1,-1,-1,-1,-1,-1,-1,-1,-1,-1,-1,-1,-1,-1,-1,-1,-1,-1,-1,-1,-1],"split_conditions":[2.644E3,1.0874895E6,4.7446427E0,1.00821725E6,8.7E1,8.996918E5,3E0,3.7E1,1.79E2,7.70908E5,3E0,8.8666654E-1,2.4E1,3.3208178E6,4.2012165E6,1.600525E6,2.33E2,7.252986E5,2E0,3.3537853E0,2E1,-2.902815E0,-6.137639E-1,2.429169E6,2.2E1,5.3E1,6.5E1,1.41E2,1.5E2,1.3024724E6,8.01E2,-1.5814036E-2,1.6782576E0,1.296785E0,-1.1256346E0,-5.969049E-1,2.1074262E0,7.959467E-1,-2.5197308E0,2.9969133E-2,6.6256967E0,-5.677868E-1,-3.293391E0,9.247519E-1,-2.4623066E-1,5.117902E0,1.1728712E0,-1.1655171E-1,5.4626703E0,9.265469E-1,-2.8545852E0,1.8359783E0,-1.1000147E0],"split_indices":[0,1,0,1,0,1,0,0,0,1,2,0,0,1,1,1,0,1,0,0,0,0,0,1,0,0,0,0,0,1,0,0,0,0,0,0,0,0,0,0,0,0,0,0,0,0,0,0,0,0,0,0,0],"split_type":[0,0,0,0,0,0,0,0,0,0,0,0,0,0,0,0,0,0,0,0,0,0,0,0,0,0,0,0,0,0,0,0,0,0,0,0,0,0,0,0,0,0,0,0,0,0,0,0,0,0,0,0,0],"sum_hessian":[1.679E3,1.678E3,1E0,1.54E3,1.38E2,1.534E3,6E0,7.8E1,6E1,1.527E3,7E0,1E0,5E0,5.5E1,2.3E1,3.3E1,2.7E1,1.507E3,2E1,2E0,5E0,2E0,3E0,4.6E1,9E0,1.5E1,8E0,8E0,2.5E1,8E0,1.9E1,1.501E3,6E0,1E0,1.9E1,4E0,1E0,3.8E1,8E0,6E0,3E0,7E0,8E0,1E0,7E0,5E0,3E0,2.2E1,3E0,1E0,7E0,1.6E1,3E0],"tree_param":{"num_deleted":"0","num_feature":"3","num_nodes":"53","size_leaf_vector":"1"}},{"base_weights":[6.894474E-2,5.2972514E-2,4.032946E0,-1.2139518E-2,1.8101145E0,5.485085E-3,-3.5641825E0,-6.086369E0,2.9678833E0,-1.7824142E-1,3.6684883E-1,-8.357472E0,2.1631377E0,2.5720358E0,-9.405408E0,6.9682894E0,1.049646E0,-8.711331E-2,-2.5226123E0,3.0990877E0,2.2926682E-1,-3.9055314E0,2.242103E0,-3.204995E0,-1.2421277E0,2.0152191E1,1.3615358E0,1.3932641E1,-1.3987169E0,-5.343807E-2,3.3291733E-1,-1.2976737E0,-4.4829324E-1,2.3350165E0,-2.5648764E-1,-9.7021425E-1,1.0804574E-1,-3.840682E0,9.477412E0,-5.0612724E-1,5.691758E0,5.8684316E0,-2.1317012E0,-1.2642885E0,1.5650953E0],"categories":[],"categories_nodes":[],"categories_segments":[],"categories_sizes":[],"default_left":[0,0,0,0,0,0,0,0,0,0,0,0,0,0,0,0,0,0,0,0,0,0,0,0,0,0,0,0,0,0,0,0,0,0,0,0,0,0,0,0,0,0,0,0,0],"id":13,"left_children":[1,3,-1,5,7,9,11,13,15,17,19,21,-1,-1,23,25,27,29,31,33,35,-1,-1,-1,-1,37,39,41,43,-1,-1,-1,-1,-1,-1,-1,-1,-1,-1,-1,-1,-1,-1,-1,-1],"loss_changes":[3.5816248E2,1.9211818E2,0E0,1.01436966E2,5.666018E2,1.0715584E2,4.7342905E2,4.6988895E2,3.993934E2,2.2837302E2,2.0378282E2,5.4002625E2,0E0,0E0,2.8637085E0,1.2291831E3,1.1865509E3,1.12502945E2,6.769594E1,4.8822498E2,2.3642645E2,0E0,0E0,0E0,0E0,2.2893025E3,7.2996967E2,8.4951953E2,6.1805066E2,0E0,0E0,0E0,0E0,0E0,0E0,0E0,0E0,0E0,0E0,0E0,0E0,0E0,0E0,0E0,0E0],"parents":[2147483647,0,0,1,1,3,3,4,4,5,5,6,6,7,7,8,8,9,9,10,10,11,11,14,14,15,15,16,16,17,17,18,18,19,19,20,20,25,25,26,26,27,27,28,28],"right_children":[2,4,-1,6,8,10,12,14,16,18,20,22,-1,-1,24,26,28,30,32,34,36,-1,-1,-1,-1,38,40,42,44,-1,-1,-1,-1,-1,-1,-1,-1,-1,-1,-1,-1,-1,-1,-1,-1],"split_conditions":[2.644E3,2.429169E6,4.032946E0,2.2994922E6,1.8E1,4.4370305E4,4E0,8E0,3.3208178E6,3.641353E4,5E0,2.71E2,2.1631377E0,2.5720358E0,1.7E1,3E0,3.2E1,2.7339469E4,3.926546E4,1.7752733E5,7E0,-3.9055314E0,2.242103E0,-3.204995E0,-1.2421277E0,2.7E1,2.4E2,5.5104555E6,1.31E2,-5.343807E-2,3.3291733E-1,-1.2976737E0,-4.4829324E-1,2.3350165E0,-2.5648764E-1,-9.7021425E-1,1.0804574E-1,-3.840682E0,9.477412E0,-5.0612724E-1,5.691758E0,5.8684316E0,-2.1317012E0,-1.2642885E0,1.5650953E0],"split_indices":[0,1,0,1,0,1,2,0,1,1,0,0,0,0,0,2,0,1,1,1,0,0,0,0,0,0,0,1,0,0,0,0,0,0,0,0,0,0,0,0,0,0,0,0,0],"split_type":[0,0,0,0,0,0,0,0,0,0,0,0,0,0,0,0,0,0,0,0,0,0,0,0,0,0,0,0,0,0,0,0,0,0,0,0,0,0,0,0,0,0,0,0,0],"sum_hessian":[1.679E3,1.678E3,1E0,1.619E3,5.9E1,1.612E3,7E0,7E0,5.2E1,1.069E3,5.43E2,5E0,2E0,1E0,6E0,1.6E1,3.6E1,1.03E3,3.9E1,2.5E1,5.18E2,4E0,1E0,4E0,2E0,4E0,1.2E1,5E0,3.1E1,9.58E2,7.2E1,1.3E1,2.6E1,1.1E1,1.4E1,1.8E1,5E2,1E0,3E0,1.1E1,1E0,4E0,1E0,2.2E1,9E0],"tree_param":{"num_deleted":"0","num_feature":"3","num_nodes":"45","size_leaf_vector":"1"}},{"base_weights":[5.8539543E-2,4.4963114E-2,3.4280045E0,-4.5567E-2,9.547332E-1,-4.8230228E-1,1.5069659E-1,5.484098E-2,2.1912282E0,-6.1902595E-1,2.8244498E0,2.6803717E-1,-4.009975E0,1.6930629E0,-2.91615E0,4.493908E0,-1.0807436E-1,-1.9112107E-1,-2.6586337E0,1.3316486E1,-8.611924E-1,2.1685861E-1,5.29941E0,-1.0267971E1,-6.804778E-1,8.221968E-1,1.0759805E1,-3.9658043E0,2.5657325E0,3.0135143E0,7.5579166E0,-3.5672555E0,2.318756E0,-1.1013856E-1,2.756916E0,4.8468962E-1,-9.904523E-1,-3.1864548E-1,6.976889E0,1.7839848E0,-1.1632082E0,1.1540939E-3,4.6242118E-1,-3.5359838E0,5.0996965E-1,5.683957E-1,-1.720058E0,6.3780546E-1,-4.802122E0,4.9409E0,-1.8119462E0,-1.9171056E0,4.5669782E-1,2.152188E0,-9.8968405E-1,1.9001615E-1,-2.0390732E0,1.4046795E0,-8.218536E-1],"categories":[],"categories_nodes":[],"categories_segments":[],"categories_sizes":[],"default_left":[0,0,0,0,0,0,0,0,0,0,0,0,0,0,0,0,0,0,0,0,0,0,0,0,0,0,0,0,0,0,0,0,0,0,0,0,0,0,0,0,0,0,0,0,0,0,0,0,0,0,0,0,0,0,0,0,0,0,0],"id":14,"left_children":[1,3,-1,5,7,9,11,13,15,17,19,21,23,25,27,29,31,33,35,37,39,41,-1,43,45,47,49,51,-1,53,-1,55,57,-1,-1,-1,-1,-1,-1,-1,-1,-1,-1,-1,-1,-1,-1,-1,-1,-1,-1,-1,-1,-1,-1,-1,-1,-1,-1],"loss_changes":[2.5877536E2,1.383286E2,0E0,1.3104556E2,1.6901207E2,2.1604913E2,5.161422E2,4.381129E2,3.3933734E2,3.9746957E2,7.46196E2,9.1054443E2,5.972562E2,4.491166E2,4.1913507E2,9.0465265E2,2.853015E2,6.274888E2,2.2241125E2,7.393064E2,3.3105957E2,2.8919122E2,0E0,2.0178503E2,2.711082E2,1.2189188E3,5.790915E2,4.089152E2,0E0,8.3780884E2,0E0,1.9423784E2,2.5193231E2,0E0,0E0,0E0,0E0,0E0,0E0,0E0,0E0,0E0,0E0,0E0,0E0,0E0,0E0,0E0,0E0,0E0,0E0,0E0,0E0,0E0,0E0,0E0,0E0,0E0,0E0],"parents":[2147483647,0,0,1,1,3,3,4,4,5,5,6,6,7,7,8,8,9,9,10,10,11,11,12,12,13,13,14,14,15,15,16,16,17,17,18,18,19,19,20,20,21,21,23,23,24,24,25,25,26,26,27,27,29,29,31,31,32,32],"right_children":[2,4,-1,6,8,10,12,14,16,18,20,22,24,26,28,30,32,34,36,38,40,42,-1,44,46,48,50,52,-1,54,-1,56,58,-1,-1,-1,-1,-1,-1,-1,-1,-1,-1,-1,-1,-1,-1,-1,-1,-1,-1,-1,-1,-1,-1,-1,-1,-1,-1],"split_conditions":[2.644E3,8.996918E5,3.4280045E0,3E0,8.7E1,6.1538106E5,6.1538106E5,2.6E1,1.7E2,1.5838416E5,6.98061E5,5.5569575E5,6.98061E5,2.4E1,5E0,1.68E2,2.55E2,1.3970366E5,8E0,2.8E1,1.7E1,1.3659956E5,5.29941E0,1.5E2,3.1E1,4.2012165E6,5.5104555E6,4.2012165E6,2.5657325E0,3.3208178E6,7.5579166E0,1.96E2,3.3208178E6,-1.1013856E-1,2.756916E0,4.8468962E-1,-9.904523E-1,-3.1864548E-1,6.976889E0,1.7839848E0,-1.1632082E0,1.1540939E-3,4.6242118E-1,-3.5359838E0,5.0996965E-1,5.683957E-1,-1.720058E0,6.3780546E-1,-4.802122E0,4.9409E0,-1.8119462E0,-1.9171056E0,4.5669782E-1,2.152188E0,-9.8968405E-1,1.9001615E-1,-2.0390732E0,1.4046795E0,-8.218536E-1],"split_indices":[0,1,0,2,0,1,1,0,0,1,1,1,1,0,2,0,0,1,0,0,0,1,0,0,0,1,1,1,0,1,0,0,1,0,0,0,0,0,0,0,0,0,0,0,0,0,0,0,0,0,0,0,0,0,0,0,0,0,0],"split_type":[0,0,0,0,0,0,0,0,0,0,0,0,0,0,0,0,0,0,0,0,0,0,0,0,0,0,0,0,0,0,0,0,0,0,0,0,0,0,0,0,0,0,0,0,0,0,0,0,0,0,0,0,0,0,0,0,0,0,0],"sum_hessian":[1.679E3,1.678E3,1E0,1.527E3,1.51E2,4.73E2,1.054E3,8.8E1,6.3E1,4.55E2,1.8E1,1.026E3,2.8E1,5.7E1,3.1E1,3.1E1,3.2E1,3.77E2,7.8E1,4E0,1.4E1,1.024E3,2E0,9E0,1.9E1,5.3E1,4E0,2.9E1,2E0,3E1,1E0,1.3E1,1.9E1,3.71E2,6E0,1E1,6.8E1,2E0,2E0,4E0,1E1,8.83E2,1.41E2,8E0,1E0,1.3E1,6E0,5E1,3E0,3E0,1E0,2E1,9E0,1.8E1,1.2E1,6E0,7E0,1.3E1,6E0],"tree_param":{"num_deleted":"0","num_feature":"3","num_nodes":"59","size_leaf_vector":"1"}},{"base_weights":[5.4047644E-2,-1.6353484E-2,1.9228308E0,9.350834E-3,-2.965674E0,-3.6929417E0,2.7191892E0,1.482896E-1,-4.3658707E-1,-5.4963126E0,4.7350006E0,2.09056E0,-6.211514E0,6.922424E0,1.8377044E0,5.354936E-2,6.8828425E0,-2.1097927E0,1.6422977E-1,-8.830432E0,-1.2461406E0,2.3834039E-2,1.878111E0,-2.1744382E0,1.2250901E-3,1.6116621E0,1.7006725E1,6.383198E0,4.5671463E-2,-1.6384742E-4,2.599562E0,1.8075596E0,6.877687E0,-4.635136E-2,-7.2312207E0,5.6855335E0,-8.086202E-2,-2.5241277E-1,-3.0779908E0,-1.6493961E0,1.4515103E0,9.21342E0,-6.5998325E0,9.193181E0,-1.5401542E0,1.5139845E1,8.0915E-1,-8.108647E0,1.731197E0,2.0577723E-2,-4.5026946E-1,8.91369E-2,3.5249681E0,-1.8537062E-1,3.2720664E0,-5.701607E-1,4.592592E-1,-2.7512865E0,-5.7051224E-1,-2.622862E-1,3.717321E0,-3.3625573E-1,1.8135081E-1,2.2343126E-1,7.7335E0,1.8716627E-1,1.0980552E1,-8.837351E-1,4.6272926E0,1.0303288E0,-3.3312447E0,-2.2821194E-1,1.9625654E0],"categories":[],"categories_nodes":[],"categories_segments":[],"categories_sizes":[],"default_left":[0,0,0,0,0,0,0,0,0,0,0,0,0,0,0,0,0,0,0,0,0,0,0,0,0,0,0,0,0,0,0,0,0,0,0,0,0,0,0,0,0,0,0,0,0,0,0,0,0,0,0,0,0,0,0,0,0,0,0,0,0,0,0,0,0,0,0,0,0,0,0,0,0],"id":15,"left_children":[1,3,5,7,9,11,13,15,17,19,21,-1,23,25,27,29,31,33,35,37,39,-1,-1,-1,-1,41,43,45,47,49,51,53,-1,55,57,59,61,-1,-1,-1,-1,63,-1,-1,-1,65,67,69,71,-1,-1,-1,-1,-1,-1,-1,-1,-1,-1,-1,-1,-1,-1,-1,-1,-1,-1,-1,-1,-1,-1,-1,-1],"loss_changes":[2.210597E2,1.2284037E2,2.82844E2,9.963135E1,2.9885175E2,2.580987E2,1.8735333E2,7.818601E2,3.843673E2,1.4487247E2,2.7908386E1,0E0,4.5131805E1,4.5458887E2,3.744095E2,1.6547339E2,1.3427285E3,1.0670093E3,3.8206958E2,5.9891388E1,1.8182362E2,0E0,0E0,0E0,0E0,1.4590913E3,1.0631282E3,6.222791E2,4.813443E2,1.224802E2,5.232108E2,3.1572034E2,0E0,2.1639417E2,2.8235693E2,5.386786E2,1.9383896E2,0E0,0E0,0E0,0E0,8.224956E2,0E0,0E0,0E0,1.5348713E3,5.393472E2,2.4560022E2,3.5262173E2,0E0,0E0,0E0,0E0,0E0,0E0,0E0,0E0,0E0,0E0,0E0,0E0,0E0,0E0,0E0,0E0,0E0,0E0,0E0,0E0,0E0,0E0,0E0,0E0],"parents":[2147483647,0,0,1,1,2,2,3,3,4,4,5,5,6,6,7,7,8,8,9,9,10,10,12,12,13,13,14,14,15,15,16,16,17,17,18,18,19,19,20,20,25,25,26,26,27,27,28,28,29,29,30,30,31,31,33,33,34,34,35,35,36,36,41,41,45,45,46,46,47,47,48,48],"right_children":[2,4,6,8,10,12,14,16,18,20,22,-1,24,26,28,30,32,34,36,38,40,-1,-1,-1,-1,42,44,46,48,50,52,54,-1,56,58,60,62,-1,-1,-1,-1,64,-1,-1,-1,66,68,70,72,-1,-1,-1,-1,-1,-1,-1,-1,-1,-1,-1,-1,-1,-1,-1,-1,-1,-1,-1,-1,-1,-1,-1,-1],"split_conditions":[2.429169E6,2.182629E6,1.8E1,9.4E1,2.71E2,8E0,2.5E1,9.2E1,1.08E2,4E0,3.75E2,2.09056E0,5.5104555E6,2.3E1,3.3208178E6,8.9E1,1.9474072E4,7.315488E4,1.09E2,3E0,2.2994922E6,2.3834039E-2,1.878111E0,-2.1744382E0,1.2250901E-3,3.7451922E6,5.5104555E6,3E0,3.7451922E6,8.2E1,2.0132286E5,5E0,6.877687E0,1E2,4.2804722E5,2.3462564E4,1.34E2,-2.5241277E-1,-3.0779908E0,-1.6493961E0,1.4515103E0,3.3208178E6,-6.5998325E0,9.193181E0,-1.5401542E0,1.07E2,2.4E2,4.1E1,1.31E2,2.0577723E-2,-4.5026946E-1,8.91369E-2,3.5249681E0,-1.8537062E-1,3.2720664E0,-5.701607E-1,4.592592E-1,-2.7512865E0,-5.7051224E-1,-2.622862E-1,3.717321E0,-3.3625573E-1,1.8135081E-1,2.2343126E-1,7.7335E0,1.8716627E-1,1.0980552E1,-8.837351E-1,4.6272926E0,1.0303288E0,-3.3312447E0,-2.2821194E-1,1.9625654E0],"split_indices":[1,1,0,0,0,0,0,0,0,2,0,0,1,0,1,0,1,1,0,0,1,0,0,0,0,1,1,2,1,0,1,2,0,0,1,1,0,0,0,0,0,1,0,0,0,0,0,0,0,0,0,0,0,0,0,0,0,0,0,0,0,0,0,0,0,0,0,0,0,0,0,0,0],"split_type":[0,0,0,0,0,0,0,0,0,0,0,0,0,0,0,0,0,0,0,0,0,0,0,0,0,0,0,0,0,0,0,0,0,0,0,0,0,0,0,0,0,0,0,0,0,0,0,0,0,0,0,0,0,0,0,0,0,0,0,0,0,0,0,0,0,0,0,0,0,0,0,0,0],"sum_hessian":[1.679E3,1.619E3,6E1,1.606E3,1.3E1,7E0,5.3E1,1.225E3,3.81E2,1E1,3E0,1E0,6E0,8E0,4.5E1,1.209E3,1.6E1,1E2,2.81E2,5E0,5E0,1E0,2E0,5E0,1E0,6E0,2E0,1.2E1,3.3E1,1.185E3,2.4E1,1.3E1,3E0,7.2E1,2.8E1,1.1E1,2.7E2,1E0,4E0,3E0,2E0,5E0,1E0,1E0,1E0,4E0,8E0,5E0,2.8E1,1.134E3,5.1E1,2E1,4E0,1.1E1,2E0,3.3E1,3.9E1,2E1,8E0,6E0,5E0,1.07E2,1.63E2,4E0,1E0,3E0,1E0,7E0,1E0,1E0,4E0,1.9E1,9E0],"tree_param":{"num_deleted":"0","num_feature":"3","num_nodes":"73","size_leaf_vector":"1"}},{"base_weights":[5.8465537E-2,-4.416639E-3,1.7274927E0,6.4916546E-3,-1.3238971E0,-2.5953908E0,2.3359294E0,-2.3720889E-1,1.9278128E-1,1.7769758E0,-4.658519E0,3.3898528E0,3.975725E-2,2.2585614E-1,-1.1447533E0,1.4046457E1,2.4552813E-2,-1.6308287E0,1.0414124E-3,1.7555951E0,9.333469E0,-1.1175143E1,4.0422387E0,-2.6776156E-1,1.3392314E0,2.808958E-2,-2.779909E0,5.7948384E0,6.83683E0,1.0815147E-1,-3.5076644E0,-1.1571813E0,3.8912535E0,-7.0815825E-1,-3.8365996E0,1.6069407E1,6.985936E-1,-2.110267E-2,-8.896859E-1,2.2020872E0,1.4139254E-1,3.636641E-1,-8.2066065E-1,-1.0725868E0,2.2716975E-1,2.9038203E0,6.9154E-1,-4.1119024E-2,3.7212655E-1,-2.4041324E0,1.0172702E0,-2.8761463E0,2.1956925E-1,1.5852383E0,-1.0048484E0,1.1013908E0,6.1298428E0,-1.0206432E0,2.1360166E0],"categories":[],"categories_nodes":[],"categories_segments":[],"categories_sizes":[],"default_left":[0,0,0,0,0,0,0,0,0,0,0,0,0,0,0,0,0,0,0,0,0,0,0,0,0,0,0,0,0,0,0,0,0,0,0,0,0,0,0,0,0,0,0,0,0,0,0,0,0,0,0,0,0,0,0,0,0,0,0],"id":16,"left_children":[1,3,5,7,-1,9,11,13,15,-1,17,19,21,23,25,27,29,-1,-1,31,-1,33,35,37,39,41,43,45,-1,47,49,51,53,-1,-1,55,57,-1,-1,-1,-1,-1,-1,-1,-1,-1,-1,-1,-1,-1,-1,-1,-1,-1,-1,-1,-1,-1,-1],"loss_changes":[1.7632709E2,7.793447E1,1.6650487E2,7.345572E1,0E0,1.6819398E2,1.3054468E2,2.9485526E2,2.1367996E3,0E0,2.5394257E1,1.6216442E3,8.5314636E2,2.5591411E2,4.545921E2,6.615198E2,2.6820612E2,0E0,0E0,2.284479E2,0E0,4.0924866E1,5.517782E2,1.7182419E2,7.4134973E2,4.5819003E2,2.8123114E2,7.257951E1,0E0,2.4644514E2,6.799734E2,2.6181494E2,2.2949365E2,0E0,0E0,8.7278625E1,3.402162E2,0E0,0E0,0E0,0E0,0E0,0E0,0E0,0E0,0E0,0E0,0E0,0E0,0E0,0E0,0E0,0E0,0E0,0E0,0E0,0E0,0E0,0E0],"parents":[2147483647,0,0,1,1,2,2,3,3,5,5,6,6,7,7,8,8,10,10,11,11,12,12,13,13,14,14,15,15,16,16,19,19,21,21,22,22,23,23,24,24,25,25,26,26,27,27,29,29,30,30,31,31,32,32,35,35,36,36],"right_children":[2,4,6,8,-1,10,12,14,16,-1,18,20,22,24,26,28,30,-1,-1,32,-1,34,36,38,40,42,44,46,-1,48,50,52,54,-1,-1,56,58,-1,-1,-1,-1,-1,-1,-1,-1,-1,-1,-1,-1,-1,-1,-1,-1,-1,-1,-1,-1,-1,-1],"split_conditions":[2.429169E6,1.614E3,1.8E1,3.3E1,-1.3238971E0,8E0,1.19E2,1.9E1,3.4E1,1.7769758E0,5.5104555E6,1.18E2,1.31E2,1.2E1,4E0,4E0,1.600525E6,-1.6308287E0,1.0414124E-3,3E0,9.333469E0,1.23E2,1.7E2,6.1538106E5,1.3E1,1.23684445E5,6.454447E5,7.810112E3,6.83683E0,1.3970366E5,1.95E2,2.7E1,1.01E2,-7.0815825E-1,-3.8365996E0,1.68E2,7.24E2,-2.110267E-2,-8.896859E-1,2.2020872E0,1.4139254E-1,3.636641E-1,-8.2066065E-1,-1.0725868E0,2.2716975E-1,2.9038203E0,6.9154E-1,-4.1119024E-2,3.7212655E-1,-2.4041324E0,1.0172702E0,-2.8761463E0,2.1956925E-1,1.5852383E0,-1.0048484E0,1.1013908E0,6.1298428E0,-1.0206432E0,2.1360166E0],"split_indices":[1,0,0,0,0,0,0,0,0,0,1,0,0,0,2,2,1,0,0,2,0,0,0,1,0,1,1,1,0,1,0,0,0,0,0,0,0,0,0,0,0,0,0,0,0,0,0,0,0,0,0,0,0,0,0,0,0,0,0],"split_type":[0,0,0,0,0,0,0,0,0,0,0,0,0,0,0,0,0,0,0,0,0,0,0,0,0,0,0,0,0,0,0,0,0,0,0,0,0,0,0,0,0,0,0,0,0,0,0,0,0,0,0,0,0,0,0,0,0,0,0],"sum_hessian":[1.679E3,1.619E3,6E1,1.616E3,3E0,7E0,5.3E1,7E2,9.16E2,1E0,6E0,3.6E1,1.7E1,4.64E2,2.36E2,1E1,9.06E2,5E0,1E0,3.5E1,1E0,4E0,1.3E1,3.22E2,1.42E2,1.38E2,9.8E1,6E0,4E0,8.86E2,2E1,1.5E1,2E1,1E0,3E0,2E0,1.1E1,3.01E2,2.1E1,1.7E1,1.25E2,9.7E1,4.1E1,8E1,1.8E1,2E0,4E0,7.29E2,1.57E2,1.2E1,8E0,2E0,1.3E1,1.7E1,3E0,1E0,1E0,7E0,4E0],"tree_param":{"num_deleted":"0","num_feature":"3","num_nodes":"59","size_leaf_vector":"1"}},{"base_weights":[5.246703E-2,-1.4515083E-2,1.1827664E0,8.488709E-3,-4.5559497E0,8.053895E-1,4.6573944E0,9.275304E-2,-1.1641375E0,7.131233E-1,-7.8600183E0,2.7516706E0,-2.8639808E-1,8.527838E0,-1.4452705E-1,-2.4173489E-2,3.2303698E0,-3.6323168E0,-6.849909E-1,-8.486458E-1,2.8367107E0,-2.741736E0,-4.1154215E-1,1.0418562E0,1.40324545E1,-3.9642773E0,9.1771144E-1,1.0148686E0,3.2490501E0,-1.2037052E0,2.299015E0,-5.2716475E-2,3.034389E0,-2.9066086E-1,9.546459E0,-2.0942073E0,-6.904938E0,-3.29158E-1,-6.6683187E0,2.5666553E-1,1.0198543E0,2.799052E0,-1.0201082E1,2.0660404E1,-8.777091E-1,-5.3711557E0,8.953984E-1,3.1444814E0,-1.5648326E0,2.5556305E-2,-3.46423E-1,3.978459E-1,-6.241771E-1,3.783316E0,7.47388E-1,-6.9341487E-1,-1.7994839E-1,-2.7763577E0,3.7401125E-1,1.2385228E-1,-6.789571E-1,1.8348327E-1,-2.5923612E0,3.1881452E-1,3.4947426E0,-1.8200397E-1,-5.8476434E0,1.7207628E0,7.5764194E0,-7.22962E-1,-2.7104928E0,2.6500106E-1,7.9334497E0,-2.8990593E0,4.7099435E-1],"categories":[],"categories_nodes":[],"categories_segments":[],"categories_sizes":[],"default_left":[0,0,0,0,0,0,0,0,0,0,0,0,0,0,0,0,0,0,0,0,0,0,0,0,0,0,0,0,0,0,0,0,0,0,0,0,0,0,0,0,0,0,0,0,0,0,0,0,0,0,0,0,0,0,0,0,0,0,0,0,0,0,0,0,0,0,0,0,0,0,0,0,0,0,0],"id":17,"left_children":[1,3,5,7,9,11,13,15,17,19,21,23,25,27,29,31,33,35,37,-1,39,-1,-1,41,43,45,47,-1,-1,-1,-1,49,-1,51,53,55,57,59,61,-1,-1,63,65,67,-1,69,-1,71,73,-1,-1,-1,-1,-1,-1,-1,-1,-1,-1,-1,-1,-1,-1,-1,-1,-1,-1,-1,-1,-1,-1,-1,-1,-1,-1],"loss_changes":[1.27209724E2,1.6583292E2,1.1950597E2,1.5622865E2,1.4488019E2,1.8353168E2,1.6850256E2,5.412123E2,1.2286957E2,3.811104E1,2.8958282E1,5.833097E2,2.5163795E2,2.2589447E1,1.8174628E2,4.123376E2,1.1814495E3,7.1111694E1,1.8942091E2,0E0,4.3655205E-1,0E0,0E0,5.817226E2,5.100371E2,1.5289941E2,2.4262692E2,0E0,0E0,0E0,0E0,2.1590157E2,0E0,1.0404857E2,3.7938538E2,2.8326225E0,1.0730261E2,1.2434862E2,7.709738E1,0E0,0E0,3.717887E2,3.4474326E2,6.0846436E1,0E0,1.0842215E2,0E0,1.1884059E3,5.483176E2,0E0,0E0,0E0,0E0,0E0,0E0,0E0,0E0,0E0,0E0,0E0,0E0,0E0,0E0,0E0,0E0,0E0,0E0,0E0,0E0,0E0,0E0,0E0,0E0,0E0,0E0],"parents":[2147483647,0,0,1,1,2,2,3,3,4,4,5,5,6,6,7,7,8,8,9,9,10,10,11,11,12,12,13,13,14,14,15,15,16,16,17,17,18,18,20,20,23,23,24,24,25,25,26,26,31,31,33,33,34,34,35,35,36,36,37,37,38,38,41,41,42,42,43,43,45,45,47,47,48,48],"right_children":[2,4,6,8,10,12,14,16,18,20,22,24,26,28,30,32,34,36,38,-1,40,-1,-1,42,44,46,48,-1,-1,-1,-1,50,-1,52,54,56,58,60,62,-1,-1,64,66,68,-1,70,-1,72,74,-1,-1,-1,-1,-1,-1,-1,-1,-1,-1,-1,-1,-1,-1,-1,-1,-1,-1,-1,-1,-1,-1,-1,-1,-1,-1],"split_conditions":[1.6927218E6,1.600525E6,3.75E2,1.56E2,2.4E1,2.5E1,3.3208178E6,1.34E2,1.77E2,1.8E1,4E0,2.3E1,8.1E1,2.2994922E6,1.361E3,1.5271682E6,2.7339469E4,2.4798969E5,1.3775699E6,-8.486458E-1,2.1E1,-2.741736E0,-4.1154215E-1,4.2012165E6,5.5104555E6,4.2012165E6,1.19E2,1.0148686E0,3.2490501E0,-1.2037052E0,2.299015E0,1.01E2,3.034389E0,1.42E2,1.47E2,7.315488E4,5.0305966E5,5E2,1.95E2,2.5666553E-1,1.0198543E0,3.3208178E6,1.8E1,2.4E1,-8.777091E-1,2.9986988E6,8.953984E-1,1.18E2,1.5E2,2.5556305E-2,-3.46423E-1,3.978459E-1,-6.241771E-1,3.783316E0,7.47388E-1,-6.9341487E-1,-1.7994839E-1,-2.7763577E0,3.7401125E-1,1.2385228E-1,-6.789571E-1,1.8348327E-1,-2.5923612E0,3.1881452E-1,3.4947426E0,-1.8200397E-1,-5.8476434E0,1.7207628E0,7.5764194E0,-7.22962E-1,-2.7104928E0,2.6500106E-1,7.9334497E0,-2.8990593E0,4.7099435E-1],"split_indices":[1,1,0,0,0,0,1,0,0,0,2,0,0,1,0,1,1,1,1,0,0,0,0,1,1,1,0,0,0,0,0,0,0,0,0,1,1,0,0,0,0,1,0,0,0,1,0,0,0,0,0,0,0,0,0,0,0,0,0,0,0,0,0,0,0,0,0,0,0,0,0,0,0,0,0],"split_type":[0,0,0,0,0,0,0,0,0,0,0,0,0,0,0,0,0,0,0,0,0,0,0,0,0,0,0,0,0,0,0,0,0,0,0,0,0,0,0,0,0,0,0,0,0,0,0,0,0,0,0,0,0,0,0,0,0,0,0,0,0,0,0,0,0,0,0,0,0,0,0,0,0,0,0],"sum_hessian":[1.679E3,1.586E3,9.3E1,1.579E3,7E0,8.5E1,8E0,1.474E3,1.05E2,3E0,4E0,3E1,5.5E1,4E0,4E0,1.422E3,5.2E1,1.6E1,8.9E1,1E0,2E0,3E0,1E0,2.7E1,3E0,1.3E1,4.2E1,2E0,2E0,3E0,1E0,1.419E3,3E0,3.4E1,1.8E1,1.2E1,4E0,8.5E1,4E0,1E0,1E0,2.4E1,3E0,2E0,1E0,1.1E1,2E0,2.2E1,2E1,1.262E3,1.57E2,1.8E1,1.6E1,1.2E1,6E0,1E1,2E0,3E0,1E0,6.2E1,2.3E1,1E0,3E0,2.1E1,3E0,2E0,1E0,1E0,1E0,7E0,4E0,2.1E1,1E0,5E0,1.5E1],"tree_param":{"num_deleted":"0","num_feature":"3","num_nodes":"75","size_leaf_vector":"1"}},{"base_weights":[4.437434E-2,-3.9404802E-4,1.2325779E0,-6.247808E-1,7.17996E-2,-2.7461157E0,1.7991885E0,-1.0147507E0,-2.8365514E-1,-1.2116558E-1,3.4555584E-1,-5.417535E0,1.2796874E0,1.4399573E0,5.9295893E0,-7.7070296E-1,-7.791616E-1,-4.3530786E-1,1.3412035E-1,-8.871887E-2,-4.6867733E0,5.1533264E-1,-1.2838112E0,-1.8594943E0,-3.4416276E-1,9.8621756E-1,-4.8534456E-1,4.3088684E0,8.06E-1,2.5739744E0,-3.0320778E-1,-4.631334E-1,-1.5010917E0,-2.170713E-1,-6.1720407E-1,1.9184875E-1,-6.507479E-2,-1.4573544E-1,2.8852515E0,-6.655356E0,7.7342093E-1,3.7193403E-1,9.014192E0,-8.640179E0,-4.103108E-1,-2.4659072E-1,2.8185654E-2,8.69178E0,-1.0028149E0,-7.92007E0,1.658457E0,-1.5211813E-1,5.0637685E-2,-6.8844324E-1,-1.433675E-1,-1.4252023E-1,3.209865E-2,-9.0850204E-2,-2.852235E-1,3.8593777E-2,1.01684615E-1,-3.634057E-2,-1.054883E0,-8.669068E-1,1.3320642E0,-1.5825781E-1,-2.4166296E0,1.2846278E-1,-2.170136E0,5.05768E0,-1.9001622E-1,-6.428853E-1,-2.8533106E0,-6.1708224E-1,4.7893903E-1,4.732797E0,3.6170354E-1,-3.5048044E0,5.0516456E-1,1.7955278E0,-5.671894E-2],"categories":[],"categories_nodes":[],"categories_segments":[],"categories_sizes":[],"default_left":[0,0,0,0,0,0,0,0,0,0,0,0,0,0,0,0,0,0,0,0,0,0,0,0,0,0,0,0,0,0,0,0,0,0,0,0,0,0,0,0,0,0,0,0,0,0,0,0,0,0,0,0,0,0,0,0,0,0,0,0,0,0,0,0,0,0,0,0,0,0,0,0,0,0,0,0,0,0,0,0,0],"id":18,"left_children":[1,3,5,7,9,11,13,15,17,19,21,23,25,27,29,31,-1,33,35,37,39,41,43,-1,-1,-1,45,47,49,-1,-1,51,53,55,57,59,-1,61,63,65,-1,67,69,71,73,-1,-1,75,-1,77,79,-1,-1,-1,-1,-1,-1,-1,-1,-1,-1,-1,-1,-1,-1,-1,-1,-1,-1,-1,-1,-1,-1,-1,-1,-1,-1,-1,-1,-1,-1],"loss_changes":[8.936633E1,7.30692E1,1.4245734E2,2.206099E1,7.679721E1,9.296962E1,7.158519E1,2.8121498E1,5.823852E0,1.2594672E2,1.6691547E2,9.560135E0,1.5770166E1,8.928417E1,8.2247665E1,1.4805321E1,0E0,2.5256815E0,5.482341E-1,1.4421211E2,1.0296663E2,6.6085223E2,3.6272488E2,0E0,0E0,0E0,6.622421E-1,3.3088013E2,3.3299487E2,0E0,0E0,1.4735184E0,1.5145996E1,2.7262855E0,3.4868727E0,1.609326E-1,0E0,6.864313E1,1.5650789E2,3.864772E1,0E0,2.3294073E2,6.9182294E2,1.35672E1,1.7511337E2,0E0,0E0,2.991779E2,0E0,1.6421599E2,3.2087344E2,0E0,0E0,0E0,0E0,0E0,0E0,0E0,0E0,0E0,0E0,0E0,0E0,0E0,0E0,0E0,0E0,0E0,0E0,0E0,0E0,0E0,0E0,0E0,0E0,0E0,0E0,0E0,0E0,0E0,0E0],"parents":[2147483647,0,0,1,1,2,2,3,3,4,4,5,5,6,6,7,7,8,8,9,9,10,10,11,11,12,12,13,13,14,14,15,15,17,17,18,18,19,19,20,20,21,21,22,22,26,26,27,27,28,28,31,31,32,32,33,33,34,34,35,35,37,37,38,38,39,39,41,41,42,42,43,43,44,44,47,47,49,49,50,50],"right_children":[2,4,6,8,10,12,14,16,18,20,22,24,26,28,30,32,-1,34,36,38,40,42,44,-1,-1,-1,46,48,50,-1,-1,52,54,56,58,60,-1,62,64,66,-1,68,70,72,74,-1,-1,76,-1,78,80,-1,-1,-1,-1,-1,-1,-1,-1,-1,-1,-1,-1,-1,-1,-1,-1,-1,-1,-1,-1,-1,-1,-1,-1,-1,-1,-1,-1,-1,-1],"split_conditions":[2.429169E6,2.7686163E2,1.8E1,1.3E1,4E0,3.7451922E6,5E0,1.2E1,5.1E1,2.2994922E6,4.487184E5,1.7E1,8E0,2.5E1,1.15E2,4E0,-7.791616E-1,3E0,5E0,1.6927218E6,2.71E2,3.5548944E5,4.889073E5,-1.8594943E0,-3.4416276E-1,9.8621756E-1,1.5E1,4E0,4.1E1,2.5739744E0,-3.0320778E-1,2.1077438E2,6E0,3.2E1,3.2E1,4E0,-6.507479E-2,1.600525E6,9E0,4.2E1,7.7342093E-1,3.2281288E5,8.1E1,1.5E1,1.3024724E6,-2.4659072E-1,2.8185654E-2,3.7451922E6,-1.0028149E0,4.2012165E6,3.3208178E6,-1.5211813E-1,5.0637685E-2,-6.8844324E-1,-1.433675E-1,-1.4252023E-1,3.209865E-2,-9.0850204E-2,-2.852235E-1,3.8593777E-2,1.01684615E-1,-3.634057E-2,-1.054883E0,-8.669068E-1,1.3320642E0,-1.5825781E-1,-2.4166296E0,1.2846278E-1,-2.170136E0,5.05768E0,-1.9001622E-1,-6.428853E-1,-2.8533106E0,-6.1708224E-1,4.7893903E-1,4.732797E0,3.6170354E-1,-3.5048044E0,5.0516456E-1,1.7955278E0,-5.671894E-2],"split_indices":[1,1,0,0,2,1,2,0,0,1,1,0,0,0,0,2,0,2,2,1,0,1,1,0,0,0,0,2,0,0,0,1,0,0,0,2,0,1,0,0,0,1,0,0,1,0,0,1,0,1,1,0,0,0,0,0,0,0,0,0,0,0,0,0,0,0,0,0,0,0,0,0,0,0,0,0,0,0,0,0,0],"split_type":[0,0,0,0,0,0,0,0,0,0,0,0,0,0,0,0,0,0,0,0,0,0,0,0,0,0,0,0,0,0,0,0,0,0,0,0,0,0,0,0,0,0,0,0,0,0,0,0,0,0,0,0,0,0,0,0,0,0,0,0,0,0,0,0,0,0,0,0,0,0,0,0,0,0,0,0,0,0,0,0,0],"sum_hessian":[1.679E3,1.619E3,6E1,1.67E2,1.452E3,7E0,5.3E1,7.7E1,9E1,8.52E2,6E2,4E0,3E0,5E1,3E0,6.8E1,9E0,6.6E1,2.4E1,8.47E2,5E0,5.44E2,5.6E1,3E0,1E0,1E0,2E0,8E0,4.2E1,2E0,1E0,4.9E1,1.9E1,3.1E1,3.5E1,2.1E1,3E0,8.32E2,1.5E1,4E0,1E0,5.36E2,8E0,5E0,5.1E1,1E0,1E0,5E0,3E0,3E0,3.9E1,4.6E1,3E0,1E1,9E0,1.7E1,1.4E1,1.9E1,1.6E1,1.6E1,5E0,8.27E2,5E0,3E0,1.2E1,1E0,3E0,5.33E2,3E0,4E0,4E0,1E0,4E0,2.8E1,2.3E1,2E0,3E0,2E0,1E0,1.1E1,2.8E1],"tree_param":{"num_deleted":"0","num_feature":"3","num_nodes":"81","size_leaf_vector":"1"}},{"base_weights":[3.0053843E-2,2.2278728E-2,1.9626709E0,7.2749816E-2,-8.2002604E-1,-1.141132E-2,1.5220003E0,-4.27868E0,-1.1362018E-2,2.706186E-2,-4.4112735E0,-2.3080167E-1,5.425664E0,-3.1998932E0,-5.516788E0,2.6426785E0,-3.958409E-1,-7.547372E-2,7.028216E-1,-5.25578E-1,-8.856988E0,1.4497663E-1,-2.2632523E0,1.2964227E1,1.5692044E0,-1.226547E0,-4.0057707E-1,-6.272415E0,-1.4745398E-1,1.9783758E0,8.3037835E-1,2.883677E0,-8.1262E-1,1.1475415E-2,-7.9018503E-1,1.1199717E-1,2.8637786E0,1.6472706E0,-6.508469E-1,-9.598934E-1,-4.034335E0,-8.199176E-2,1.1656069E0,1.486718E0,6.5207763E0,-3.3433967E0,1.3948781E0,9.810711E-1,-8.142783E-1,-4.9412042E-1,-2.4519966E0,3.5649225E-2,8.7168175E-1,1.3096792E-1,1.5664964E0,-8.098496E-1,1.350397E-1],"categories":[],"categories_nodes":[],"categories_segments":[],"categories_sizes":[],"default_left":[0,0,0,0,0,0,0,0,0,0,0,0,0,0,0,0,0,0,0,0,0,0,0,0,0,0,0,0,0,0,0,0,0,0,0,0,0,0,0,0,0,0,0,0,0,0,0,0,0,0,0,0,0,0,0,0,0],"id":19,"left_children":[1,3,-1,5,7,9,11,13,15,17,19,21,23,25,27,29,31,33,35,37,39,41,-1,43,45,-1,47,49,-1,-1,51,53,55,-1,-1,-1,-1,-1,-1,-1,-1,-1,-1,-1,-1,-1,-1,-1,-1,-1,-1,-1,-1,-1,-1,-1,-1],"loss_changes":[8.491764E1,7.143737E1,0E0,1.9334071E2,2.6565582E2,2.5386513E2,5.965367E2,6.3886414E0,8.063904E1,1.0308641E2,2.19916E2,1.6873434E2,7.6460486E2,2.8211807E1,2.349765E1,6.6144424E1,9.665491E1,3.7602493E2,5.6753784E2,9.1036934E1,1.1280209E2,9.336947E1,0E0,5.2451575E2,7.959273E2,0E0,4.2848682E1,3.9292084E1,0E0,0E0,1.1467709E1,4.3490875E1,1.4894008E2,0E0,0E0,0E0,0E0,0E0,0E0,0E0,0E0,0E0,0E0,0E0,0E0,0E0,0E0,0E0,0E0,0E0,0E0,0E0,0E0,0E0,0E0,0E0,0E0],"parents":[2147483647,0,0,1,1,3,3,4,4,5,5,6,6,7,7,8,8,9,9,10,10,11,11,12,12,13,13,14,14,15,15,16,16,17,17,18,18,19,19,20,20,21,21,23,23,24,24,26,26,27,27,30,30,31,31,32,32],"right_children":[2,4,-1,6,8,10,12,14,16,18,20,22,24,26,28,30,32,34,36,38,40,42,-1,44,46,-1,48,50,-1,-1,52,54,56,-1,-1,-1,-1,-1,-1,-1,-1,-1,-1,-1,-1,-1,-1,-1,-1,-1,-1,-1,-1,-1,-1,-1,-1],"split_conditions":[2.644E3,1.91E2,1.9626709E0,1.34E2,2.51E2,1.3E2,1.2024373E5,1.4301816E6,2.6170855E4,3.5548944E5,2.6354466E5,8.5235E4,1.47E2,8.996918E5,2.33E2,3.47E2,2.56E2,2.3235775E5,1.18E2,8.448354E3,4E0,6.520504E4,-2.2632523E0,1.42E2,1.5E2,-1.226547E0,1.3024724E6,1.96E2,-1.4745398E-1,1.9783758E0,2.51653E4,1.7110581E5,4.19E2,1.1475415E-2,-7.9018503E-1,1.1199717E-1,2.8637786E0,1.6472706E0,-6.508469E-1,-9.598934E-1,-4.034335E0,-8.199176E-2,1.1656069E0,1.486718E0,6.5207763E0,-3.3433967E0,1.3948781E0,9.810711E-1,-8.142783E-1,-4.9412042E-1,-2.4519966E0,3.5649225E-2,8.7168175E-1,1.3096792E-1,1.5664964E0,-8.098496E-1,1.350397E-1],"split_indices":[0,0,0,0,0,0,1,1,1,1,1,1,0,1,0,0,0,1,0,1,2,1,0,0,0,0,1,0,0,0,1,1,0,0,0,0,0,0,0,0,0,0,0,0,0,0,0,0,0,0,0,0,0,0,0,0,0],"split_type":[0,0,0,0,0,0,0,0,0,0,0,0,0,0,0,0,0,0,0,0,0,0,0,0,0,0,0,0,0,0,0,0,0,0,0,0,0,0,0,0,0,0,0,0,0,0,0,0,0,0,0,0,0,0,0,0,0],"sum_hessian":[1.679E3,1.678E3,1E0,1.584E3,9.4E1,1.498E3,8.6E1,1.7E1,7.7E1,1.486E3,1.2E1,6E1,2.6E1,1.1E1,6E0,9E0,6.8E1,1.291E3,1.95E2,7E0,5E0,5.8E1,2E0,8E0,1.8E1,8E0,3E0,5E0,1E0,2E0,7E0,7E0,6.1E1,1.237E3,5.4E1,1.89E2,6E0,1E0,6E0,3E0,2E0,5.3E1,5E0,5E0,3E0,3E0,1.5E1,1E0,2E0,2E0,3E0,6E0,1E0,4E0,3E0,2.4E1,3.7E1],"tree_param":{"num_deleted":"0","num_feature":"3","num_nodes":"57","size_leaf_vector":"1"}},{"base_weights":[2.3892613E-2,1.7282784E-2,1.6682694E0,3.6053266E-2,-2.0673928E0,1.5500252E-2,2.570045E0,6.5473765E-1,-2.5365465E0,3.2518208E-2,-1.9900788E0,2.9104465E-1,3.5872937E-3,-1.0197217E0,-1.3116571E0,7.929992E-3,3.693206E0,-2.8767102E0,9.456773E-1,4.2444918E-1,-2.685218E0,1.7231692E-2,-3.6944762E-1,3.150551E0,3.0399188E-1,-2.391415E-1,-1.1853482E0,6.350857E-1,-3.8522217E-1,-2.2298957E-1,-8.9546204E-1],"categories":[],"categories_nodes":[],"categories_segments":[],"categories_sizes":[],"default_left":[0,0,0,0,0,0,0,0,0,0,0,0,0,0,0,0,0,0,0,0,0,0,0,0,0,0,0,0,0,0,0],"id":20,"left_children":[1,3,-1,5,7,9,-1,11,13,15,17,-1,-1,-1,19,21,23,25,27,-1,29,-1,-1,-1,-1,-1,-1,-1,-1,-1,-1],"loss_changes":[6.1389633E1,6.5774414E1,0E0,2.917965E2,2.0817238E1,5.6790195E1,0E0,5.9661925E-1,9.276062E0,1.4839684E2,3.9161514E1,0E0,0E0,0E0,3.001411E1,1.00643906E2,1.9006937E2,2.1428734E1,1.3164929E1,0E0,6.908798E-1,0E0,0E0,0E0,0E0,0E0,0E0,0E0,0E0,0E0,0E0],"parents":[2147483647,0,0,1,1,3,3,4,4,5,5,7,7,8,8,9,9,10,10,14,14,15,15,16,16,17,17,18,18,20,20],"right_children":[2,4,-1,6,8,10,-1,12,14,16,18,-1,-1,-1,20,22,24,26,28,-1,30,-1,-1,-1,-1,-1,-1,-1,-1,-1,-1],"split_conditions":[2.644E3,8.34E2,1.6682694E0,7.24E2,3.4501516E4,5E2,2.570045E0,9.75E2,1.361E3,4.2E2,1.0874895E6,2.9104465E-1,3.5872937E-3,-1.0197217E0,1.475E3,1.83E2,4.42E2,7.7694016E4,6.42E2,4.2444918E-1,1.614E3,1.7231692E-2,-3.6944762E-1,3.150551E0,3.0399188E-1,-2.391415E-1,-1.1853482E0,6.350857E-1,-3.8522217E-1,-2.2298957E-1,-8.9546204E-1],"split_indices":[0,0,0,0,1,0,0,0,0,0,1,0,0,0,0,0,0,1,0,0,0,0,0,0,0,0,0,0,0,0,0],"split_type":[0,0,0,0,0,0,0,0,0,0,0,0,0,0,0,0,0,0,0,0,0,0,0,0,0,0,0,0,0,0,0],"sum_hessian":[1.679E3,1.678E3,1E0,1.664E3,1.4E1,1.661E3,3E0,2E0,1.2E1,1.648E3,1.3E1,1E0,1E0,6E0,6E0,1.638E3,1E1,1E1,3E0,2E0,4E0,1.576E3,6.2E1,2E0,8E0,4E0,6E0,2E0,1E0,1E0,3E0],"tree_param":{"num_deleted":"0","num_feature":"3","num_nodes":"31","size_leaf_vector":"1"}},{"base_weights":[1.9550458E-2,-3.0325213E-1,1.350448E-1,-1.0080752E0,-1.4275838E-1,3.6565483E0,7.7157095E-2,-5.015882E-1,-2.2855163E0,2.6401331E0,-3.2188112E-1,1.3610208E1,-5.686854E-1,-3.1898502E-1,2.724669E-1,-3.5630584E-1,-9.4295543E-1,-2.5921886E0,6.691913E-1,7.227417E-1,6.4358034E0,-1.1672518E-1,-1.261667E0,-1.7397758E-1,1.656422E1,5.883152E-1,-9.001049E-1,-5.547598E-1,2.175869E0,6.9613366E0,1.2162676E-1,-3.8766585E-2,-4.5646E-1,-1.9272999E0,-1.5307089E0,-4.62647E-1,5.8763056E0,-2.8850526E-1,1.5099655E0,-6.738806E-1,-3.3801184E0,9.360469E0,6.806884E0,2.4261415E0,-9.7028095E-1,9.762353E-2,-2.6705039E0,7.801096E-1,1.03944025E1,1.617809E1,-3.7460443E-1,-3.632279E0,2.2748592E-1,-8.005932E-2,4.288507E-2,-9.959268E-2,-1.8083487E-1,-6.367432E-1,-5.3658467E-2,-9.680245E-2,-2.6156428E-1,3.6286266E0,-6.856215E-2,-4.0867887E-2,-4.0363273E-1,-1.7065223E-1,2.2592025E0,-3.5423458E-1,1.746463E-2,-1.2588199E0,9.616886E-1,-1.317848E0,4.622753E0,-4.5614055E-1,2.4609388E-1,-1.7419949E-1,2.8422028E-1,-2.6544383E-1,-1.453677E0,6.3543284E-1,-2.634275E0,4.3077474E0,-8.196927E-1,1.32194E0,8.054429E0,-7.8877485E-1,3.868114E-1,-3.1489754E-1,-1.6018512E0,-5.8733195E-2,2.3938534E-1],"categories":[],"categories_nodes":[],"categories_segments":[],"categories_sizes":[],"default_left":[0,0,0,0,0,0,0,0,0,0,0,0,0,0,0,0,0,0,0,0,0,0,0,0,0,0,0,0,0,0,0,0,0,0,0,0,0,0,0,0,0,0,0,0,0,0,0,0,0,0,0,0,0,0,0,0,0,0,0,0,0,0,0,0,0,0,0,0,0,0,0,0,0,0,0,0,0,0,0,0,0,0,0,0,0,0,0,0,0,0,0],"id":21,"left_children":[1,3,5,7,9,11,13,15,17,19,21,23,25,27,29,31,-1,33,-1,35,-1,37,39,-1,41,43,-1,45,47,49,51,53,55,57,-1,59,61,63,65,67,69,71,-1,-1,73,75,77,79,81,83,85,87,89,-1,-1,-1,-1,-1,-1,-1,-1,-1,-1,-1,-1,-1,-1,-1,-1,-1,-1,-1,-1,-1,-1,-1,-1,-1,-1,-1,-1,-1,-1,-1,-1,-1,-1,-1,-1,-1,-1],"loss_changes":[6.2674503E1,4.9968117E1,2.5208635E2,5.1908203E1,1.8129926E2,8.488708E2,9.4401474E1,2.1906708E1,3.7636765E1,7.780575E2,6.559845E1,2.611129E2,4.39667E1,2.3826123E2,8.234656E2,1.8268719E0,0E0,2.6883911E1,0E0,1.3100716E2,0E0,7.895633E1,7.367921E1,0E0,8.24353E0,1.3641078E2,0E0,5.0958258E2,3.9337964E2,1.2231045E3,3.187346E2,6.598865E-1,6.013479E-1,6.104225E0,0E0,7.497301E-1,1.5463126E2,4.085879E1,3.4221277E2,1.825266E1,8.330818E1,4.004485E2,0E0,0E0,1.1098885E1,1.636697E2,3.336234E2,4.1517117E2,2.9945465E2,8.8652075E2,4.4658497E1,9.1395874E1,1.8825116E2,0E0,0E0,0E0,0E0,0E0,0E0,0E0,0E0,0E0,0E0,0E0,0E0,0E0,0E0,0E0,0E0,0E0,0E0,0E0,0E0,0E0,0E0,0E0,0E0,0E0,0E0,0E0,0E0,0E0,0E0,0E0,0E0,0E0,0E0,0E0,0E0,0E0,0E0],"parents":[2147483647,0,0,1,1,2,2,3,3,4,4,5,5,6,6,7,7,8,8,9,9,10,10,11,11,12,12,13,13,14,14,15,15,17,17,19,19,21,21,22,22,24,24,25,25,27,27,28,28,29,29,30,30,31,31,32,32,33,33,35,35,36,36,37,37,38,38,39,39,40,40,41,41,44,44,45,45,46,46,47,47,48,48,49,49,50,50,51,51,52,52],"right_children":[2,4,6,8,10,12,14,16,18,20,22,24,26,28,30,32,-1,34,-1,36,-1,38,40,-1,42,44,-1,46,48,50,52,54,56,58,-1,60,62,64,66,68,70,72,-1,-1,74,76,78,80,82,84,86,88,90,-1,-1,-1,-1,-1,-1,-1,-1,-1,-1,-1,-1,-1,-1,-1,-1,-1,-1,-1,-1,-1,-1,-1,-1,-1,-1,-1,-1,-1,-1,-1,-1,-1,-1,-1,-1,-1,-1],"split_conditions":[1.9946938E3,7E0,2.4043723E3,4E0,9E0,1.3E1,2.5E1,1.4858893E3,1.7544554E3,1.4376606E3,1.2697621E3,4E0,2.3222273E3,1.5271682E6,2.6E1,2E0,-9.4295543E-1,7.5801056E2,6.691913E-1,6.57404E2,6.4358034E0,1.00492834E3,5E0,-1.7397758E-1,1.1E1,3.4E1,-9.001049E-1,1.9E1,2.3E1,2.2074318E4,2.8E1,1.974234E2,3E0,6E0,-1.5307089E0,5E0,7.8281616E2,7.8281616E2,5E0,6.5E1,1.9219272E3,5E0,6.806884E0,2.4261415E0,5E0,7.7694016E4,4E0,4.2012165E6,5.5104555E6,6.861224E3,5.557781E4,3E0,4E0,-8.005932E-2,4.288507E-2,-9.959268E-2,-1.8083487E-1,-6.367432E-1,-5.3658467E-2,-9.680245E-2,-2.6156428E-1,3.6286266E0,-6.856215E-2,-4.0867887E-2,-4.0363273E-1,-1.7065223E-1,2.2592025E0,-3.5423458E-1,1.746463E-2,-1.2588199E0,9.616886E-1,-1.317848E0,4.622753E0,-4.5614055E-1,2.4609388E-1,-1.7419949E-1,2.8422028E-1,-2.6544383E-1,-1.453677E0,6.3543284E-1,-2.634275E0,4.3077474E0,-8.196927E-1,1.32194E0,8.054429E0,-7.8877485E-1,3.868114E-1,-3.1489754E-1,-1.6018512E0,-5.8733195E-2,2.3938534E-1],"split_indices":[1,0,1,2,0,0,0,1,1,1,1,2,1,1,0,0,0,1,0,1,0,1,2,0,0,0,0,0,0,1,0,1,2,0,0,2,1,1,2,0,1,2,0,0,2,1,2,1,1,1,1,2,2,0,0,0,0,0,0,0,0,0,0,0,0,0,0,0,0,0,0,0,0,0,0,0,0,0,0,0,0,0,0,0,0,0,0,0,0,0,0],"split_type":[0,0,0,0,0,0,0,0,0,0,0,0,0,0,0,0,0,0,0,0,0,0,0,0,0,0,0,0,0,0,0,0,0,0,0,0,0,0,0,0,0,0,0,0,0,0,0,0,0,0,0,0,0,0,0,0,0,0,0,0,0,0,0,0,0,0,0,0,0,0,0,0,0,0,0,0,0,0,0,0,0,0,0,0,0,0,0,0,0,0,0],"sum_hessian":[1.679E3,4.42E2,1.237E3,8.1E1,3.61E2,1.9E1,1.218E3,5.9E1,2.2E1,2.1E1,3.4E2,5E0,1.4E1,4.02E2,8.16E2,5.7E1,2E0,2.1E1,1E0,2E1,1E0,2.8E2,6E1,1E0,4E0,1E1,4E0,3.68E2,3.4E1,1.7E1,7.99E2,1.4E1,4.3E1,1.8E1,3E0,1.7E1,3E0,2.54E2,2.6E1,4.8E1,1.2E1,3E0,1E0,1E0,9E0,2.82E2,8.6E1,3E1,4E0,7E0,1E1,2.1E1,7.78E2,6E0,8E0,2.5E1,1.8E1,1.6E1,2E0,1.4E1,3E0,1E0,2E0,2.23E2,3.1E1,2E1,6E0,2.8E1,2E1,1.1E1,1E0,1E0,2E0,7E0,2E0,1.57E2,1.25E2,4.8E1,3.8E1,2.7E1,3E0,3E0,1E0,4E0,3E0,4E0,6E0,9E0,1.2E1,4.47E2,3.31E2],"tree_param":{"num_deleted":"0","num_feature":"3","num_nodes":"91","size_leaf_vector":"1"}},{"base_weights":[2.9284958E-2,-4.6347637E-2,4.0121964E-1,5.7527468E-2,-2.6815488E0,3.3499875E0,9.107253E-2,-1.1012105E-2,1.151358E1,-5.3052993E0,-9.306306E-1,-3.5241482E-1,4.927442E0,2.6415896E0,-1.1403057E-2,5.330295E-2,-4.2520394E0,1.6163555E1,-1.62423E0,-3.055835E0,-3.125896E0,-2.4678361E0,4.181616E0,7.230329E0,-3.5518172E0,5.570582E0,2.2303283E0,-3.5537171E0,1.02452025E-1,-1.0640719E-2,6.0145264E0,-5.6741285E0,2.8548505E0,2.3868244E0,8.743403E0,8.706315E-1,-1.6015351E0,-6.0638795E0,4.774638E0,-3.4463677E0,6.805164E-1,-4.5988946E0,1.0369701E1,2.856572E0,3.970764E-1,-1.4701277E0,-1.2019793E-1,-1.6306982E0,5.0072217E0,-4.7063375E0,-6.390349E-2,4.5711255E-1,-8.2937413E-1,6.238534E-2,-8.117692E-2,-1.2830435E0,4.2802896E0,-7.164597E-1,-2.49888E0,2.5038924E0,-5.2732134E-1,4.8102827E0,-2.2521255E0,-3.6400225E-2,-3.0873663E0,-5.5639875E-1,2.0686889E0,-1.6214272E0,-4.0581226E-1,6.7247254E-1,-3.152014E-1,2.2279388E-1,-1.9880872E0,6.0755305E0,-8.906796E-1,6.8030834E-1,-7.343974E-1,1.8804605E-1,3.56715E0,-1.6488482E0,-1.13583334E-1,7.664352E-1,-7.9519176E-1,2.0218905E-2,5.305562E0,-2.9226713E0,5.2232582E-2],"categories":[],"categories_nodes":[],"categories_segments":[],"categories_sizes":[],"default_left":[0,0,0,0,0,0,0,0,0,0,0,0,0,0,0,0,0,0,0,0,0,0,0,0,0,0,0,0,0,0,0,0,0,0,0,0,0,0,0,0,0,0,0,0,0,0,0,0,0,0,0,0,0,0,0,0,0,0,0,0,0,0,0,0,0,0,0,0,0,0,0,0,0,0,0,0,0,0,0,0,0,0,0,0,0,0,0],"id":22,"left_children":[1,3,5,7,9,11,13,15,17,19,21,23,25,-1,27,29,31,33,35,37,-1,39,41,43,45,-1,47,49,51,53,55,57,59,61,-1,-1,-1,63,65,67,69,71,73,-1,-1,-1,75,-1,77,79,81,83,85,-1,-1,-1,-1,-1,-1,-1,-1,-1,-1,-1,-1,-1,-1,-1,-1,-1,-1,-1,-1,-1,-1,-1,-1,-1,-1,-1,-1,-1,-1,-1,-1,-1,-1],"loss_changes":[4.7277637E1,3.8255762E2,2.594276E2,1.0562113E3,2.3854327E2,1.5942651E2,2.3049324E2,3.6518207E2,5.149772E2,2.0975488E2,2.696525E2,2.4402306E2,6.576295E2,0E0,1.0361156E2,5.028437E2,2.1833151E2,1.0034614E3,6.5928154E1,4.0582343E2,0E0,8.2445145E1,4.823655E2,2.800418E1,3.1806343E1,0E0,3.8910736E2,3.1878708E1,8.266912E1,7.426677E1,1.250117E3,1.2844397E2,1.1598994E2,6.604772E2,0E0,0E0,0E0,3.0020535E2,8.309248E1,7.469298E1,2.1272556E1,4.8253395E1,7.1919244E2,0E0,0E0,0E0,2.2226858E1,0E0,3.8451666E2,1.8427917E1,2.7093365E1,1.2140541E3,6.188256E2,0E0,0E0,0E0,0E0,0E0,0E0,0E0,0E0,0E0,0E0,0E0,0E0,0E0,0E0,0E0,0E0,0E0,0E0,0E0,0E0,0E0,0E0,0E0,0E0,0E0,0E0,0E0,0E0,0E0,0E0,0E0,0E0,0E0,0E0],"parents":[2147483647,0,0,1,1,2,2,3,3,4,4,5,5,6,6,7,7,8,8,9,9,10,10,11,11,12,12,14,14,15,15,16,16,17,17,18,18,19,19,21,21,22,22,23,23,24,24,26,26,27,27,28,28,29,29,30,30,31,31,32,32,33,33,37,37,38,38,39,39,40,40,41,41,42,42,46,46,48,48,49,49,50,50,51,51,52,52],"right_children":[2,4,6,8,10,12,14,16,18,20,22,24,26,-1,28,30,32,34,36,38,-1,40,42,44,46,-1,48,50,52,54,56,58,60,62,-1,-1,-1,64,66,68,70,72,74,-1,-1,-1,76,-1,78,80,82,84,86,-1,-1,-1,-1,-1,-1,-1,-1,-1,-1,-1,-1,-1,-1,-1,-1,-1,-1,-1,-1,-1,-1,-1,-1,-1,-1,-1,-1,-1,-1,-1,-1,-1,-1],"split_conditions":[3.0976578E5,2.3235775E5,3.8010406E5,2.1961688E5,2.4E1,3.1E1,2E0,2.0132286E5,8.1E1,2.7311838E5,5E0,3.2281288E5,6.6E1,2.6415896E0,5E0,1.8524469E5,1.14E2,4.2E1,1.23E2,2.6354466E5,-3.125896E0,1.85E2,2.4798969E5,5E0,2.8E1,5.570582E0,3.2281288E5,3E0,1.25E2,5.1E1,3E0,1.8E1,1.47E2,1.6E1,8.743403E0,8.706315E-1,-1.6015351E0,4E0,4E0,3E0,2.92E2,2.9E1,1.28E2,2.856572E0,3.970764E-1,-1.4701277E0,3E1,-1.6306982E0,1.32E2,2.182629E6,3E0,1.18E2,1.31E2,6.238534E-2,-8.117692E-2,-1.2830435E0,4.2802896E0,-7.164597E-1,-2.49888E0,2.5038924E0,-5.2732134E-1,4.8102827E0,-2.2521255E0,-3.6400225E-2,-3.0873663E0,-5.5639875E-1,2.0686889E0,-1.6214272E0,-4.0581226E-1,6.7247254E-1,-3.152014E-1,2.2279388E-1,-1.9880872E0,6.0755305E0,-8.906796E-1,6.8030834E-1,-7.343974E-1,1.8804605E-1,3.56715E0,-1.6488482E0,-1.13583334E-1,7.664352E-1,-7.9519176E-1,2.0218905E-2,5.305562E0,-2.9226713E0,5.2232582E-2],"split_indices":[1,1,1,1,0,0,0,1,0,1,2,1,0,0,0,1,0,0,0,1,0,0,1,0,0,0,1,2,0,0,2,0,0,0,0,0,0,2,2,2,0,0,0,0,0,0,0,0,0,1,0,0,0,0,0,0,0,0,0,0,0,0,0,0,0,0,0,0,0,0,0,0,0,0,0,0,0,0,0,0,0,0,0,0,0,0,0],"split_type":[0,0,0,0,0,0,0,0,0,0,0,0,0,0,0,0,0,0,0,0,0,0,0,0,0,0,0,0,0,0,0,0,0,0,0,0,0,0,0,0,0,0,0,0,0,0,0,0,0,0,0,0,0,0,0,0,0,0,0,0,0,0,0,0,0,0,0,0,0,0,0,0,0,0,0,0,0,0,0,0,0,0,0,0,0,0,0],"sum_hessian":[1.679E3,1.396E3,2.83E2,1.344E3,5.2E1,2.6E1,2.57E2,1.337E3,7E0,2E1,3.2E1,8E0,1.8E1,2E0,2.55E2,1.318E3,1.9E1,5E0,2E0,1.5E1,5E0,2.5E1,7E0,2E0,6E0,2E0,1.6E1,7E0,2.48E2,1.305E3,1.3E1,1.6E1,3E0,3E0,2E0,1E0,1E0,1.1E1,4E0,1.9E1,6E0,3E0,4E0,1E0,1E0,4E0,2E0,4E0,1.2E1,5E0,2E0,1.8E2,6.8E1,7.09E2,5.96E2,6E0,7E0,8E0,8E0,1E0,2E0,1E0,2E0,5E0,6E0,1E0,3E0,9E0,1E1,3E0,3E0,1E0,2E0,2E0,2E0,1E0,1E0,8E0,4E0,4E0,1E0,1E0,1E0,1.77E2,3E0,6E0,6.2E1],"tree_param":{"num_deleted":"0","num_feature":"3","num_nodes":"87","size_leaf_vector":"1"}},{"base_weights":[3.3626076E-2,2.8011786E-2,1.4190034E0,-3.113631E-1,1.0146948E-1,-5.867669E-1,3.7756452E-1,5.9712863E0,7.151298E-2,-4.6365222E-1,-1.3264152E0,1.5762383E-1,1.0508274E0,7.354679E-2,4.1431274E0,1.0406435E0,4.4390657E-3,-2.4159463E-1,-6.583197E-1,-1.745469E0,-8.5065126E-1,2.0846602E-1,-9.795511E-1,6.253848E-1,3.7935954E-1,-1.3881803E-1,1.3845092E-1,-5.5685985E-1,2.8415844E0,-2.3102067E0,6.529872E-2,-9.956237E-2,2.458526E-2,-1.7080055E-1,-2.3515175E-1,-1.2496192E-1,-5.4319197E-1,-3.6647618E-2,-3.0281043E-1,7.6616E-2,-3.1994205E-2,-3.7252218E-3,-4.3707278E-1,2.4125545E-1,6.0251582E-2,-6.575292E-2,-1.169193E-2,-7.092767E-1,3.1902236E-1,4.9993828E-1,2.543741E0,-3.3452025E-1,-1.0108354E0,6.739736E-1,4.1073635E-3],"categories":[],"categories_nodes":[],"categories_segments":[],"categories_sizes":[],"default_left":[0,0,0,0,0,0,0,0,0,0,0,0,0,0,0,0,0,0,0,0,0,0,0,0,0,0,0,0,0,0,0,0,0,0,0,0,0,0,0,0,0,0,0,0,0,0,0,0,0,0,0,0,0,0,0],"id":23,"left_children":[1,3,-1,5,7,9,11,13,15,17,19,21,23,25,-1,27,29,31,33,35,37,39,41,43,-1,45,-1,47,49,51,53,-1,-1,-1,-1,-1,-1,-1,-1,-1,-1,-1,-1,-1,-1,-1,-1,-1,-1,-1,-1,-1,-1,-1,-1],"loss_changes":[4.4163853E1,4.1888557E1,0E0,5.6951794E1,2.4240688E2,1.8872177E1,1.2569063E1,3.2261664E2,8.937502E1,7.8380165E0,4.496334E0,4.0200906E0,1.1184788E0,4.7600624E-1,0E0,2.5763617E2,1.8144867E2,2.5976481E0,6.483269E-1,5.449066E-1,1.7266817E0,9.734962E-1,1.3669164E0,5.2166843E-1,0E0,2.3551524E-2,0E0,1.4308046E2,2.6411234E2,3.8019028E1,1.4124512E2,0E0,0E0,0E0,0E0,0E0,0E0,0E0,0E0,0E0,0E0,0E0,0E0,0E0,0E0,0E0,0E0,0E0,0E0,0E0,0E0,0E0,0E0,0E0,0E0],"parents":[2147483647,0,0,1,1,3,3,4,4,5,5,6,6,7,7,8,8,9,9,10,10,11,11,12,12,13,13,15,15,16,16,17,17,18,18,19,19,20,20,21,21,22,22,23,23,25,25,27,27,28,28,29,29,30,30],"right_children":[2,4,-1,6,8,10,12,14,16,18,20,22,24,26,-1,28,30,32,34,36,38,40,42,44,-1,46,-1,48,50,52,54,-1,-1,-1,-1,-1,-1,-1,-1,-1,-1,-1,-1,-1,-1,-1,-1,-1,-1,-1,-1,-1,-1,-1,-1],"split_conditions":[2.644E3,7.5801056E2,1.4190034E0,5.1E1,7.8281616E2,5E0,9.4E1,5E0,6E0,3E0,1.7E1,7.1648114E2,1.02E2,4E0,4.1431274E0,4E0,7E0,3.7E1,2.1077438E2,3.8097958E1,8.178019E1,5E0,9.1E1,9.7E1,3.7935954E-1,1E1,1.3845092E-1,9.658091E3,1.2944076E5,2.879791E4,8E0,-9.956237E-2,2.458526E-2,-1.7080055E-1,-2.3515175E-1,-1.2496192E-1,-5.4319197E-1,-3.6647618E-2,-3.0281043E-1,7.6616E-2,-3.1994205E-2,-3.7252218E-3,-4.3707278E-1,2.4125545E-1,6.0251582E-2,-6.575292E-2,-1.169193E-2,-7.092767E-1,3.1902236E-1,4.9993828E-1,2.543741E0,-3.3452025E-1,-1.0108354E0,6.739736E-1,4.1073635E-3],"split_indices":[0,1,0,0,1,2,0,2,0,2,0,1,0,2,0,0,0,0,1,1,1,2,0,0,0,0,0,1,1,1,0,0,0,0,0,0,0,0,0,0,0,0,0,0,0,0,0,0,0,0,0,0,0,0,0],"split_type":[0,0,0,0,0,0,0,0,0,0,0,0,0,0,0,0,0,0,0,0,0,0,0,0,0,0,0,0,0,0,0,0,0,0,0,0,0,0,0,0,0,0,0,0,0,0,0,0,0,0,0,0,0,0,0],"sum_hessian":[1.679E3,1.678E3,1E0,2.98E2,1.38E3,2.13E2,8.5E1,6E0,1.374E3,1.84E2,2.9E1,6.5E1,2E1,4E0,2E0,8.8E1,1.286E3,8.7E1,9.7E1,1.4E1,1.5E1,6.3E1,2E0,8E0,1.2E1,3E0,1E0,4.7E1,4.1E1,3.2E1,1.254E3,6.8E1,1.9E1,6E1,3.7E1,1E0,1.3E1,3E0,1.2E1,5.5E1,8E0,1E0,1E0,5E0,3E0,1E0,2E0,2.2E1,2.5E1,3.5E1,6E0,1.6E1,1.6E1,2.8E1,1.226E3],"tree_param":{"num_deleted":"0","num_feature":"3","num_nodes":"55","size_leaf_vector":"1"}},{"base_weights":[2.7351027E-2,-4.5083527E-2,3.5144785E-1,-2.4044901E-1,1.3796313E-1,-1.2309512E0,6.494637E-1,-1.5294234E-1,-3.207626E0,4.903789E0,-9.420533E-2,2.3819249E0,-2.8949237E0,6.6924233E0,2.505423E-1,-2.1486588E-1,3.813073E0,7.599302E-1,-5.097262E0,2.2214646E0,1.6604004E1,-4.05429E-1,2.6573E-1,-2.298219E0,7.349346E0,2.3512547E0,-3.880515E0,8.339556E0,-2.702183E0,-5.618225E-1,9.106133E-1,-1.5944612E-1,-4.0703745E0,-1.1813781E0,7.3396034E0,-6.940228E-3,1.7847375E0,-1.1710289E-1,-6.4703035E0,-5.180724E-1,9.135066E0,6.792938E0,1.9811304E1,-1.5962692E-1,-3.3493533E0,6.975325E0,4.4574123E-2,-4.542801E-1,-1.0084103E0,-8.712881E-1,1.0234772E1,-1.3495062E-1,2.4535058E0,-5.1519938E0,1.01115465E-1,1.1635237E0,1.2994296E1,3.6430807E0,-2.2579627E0,-2.0342166E0,1.735465E0,-6.871301E-2,1.0331697E0,-1.6180197E0,-5.799827E-1,-1.2202691E0,1.6711771E-1,3.5565537E-1,5.716505E0,-8.547834E-3,1.1890497E-2,9.518743E-1,-1.4874241E-1,-2.5437489E0,-1.1153611E0,-3.2426964E-2,-2.6428726E-1,-4.6893284E-1,4.7599783E0,3.9754012E0,-9.185789E-1,6.924324E-1,7.4629E0,-1.0598373E-1,1.6834908E0,-1.4576739E0,3.0957314E-1,5.076481E-1,-1.390852E-1,6.6584617E-1,-1.0579258E0,5.0237775E0,1.6750071E0,-9.842687E-1,-2.2470438E0,1.1162994E0,-2.1517065E0,-3.9452478E-1,1.0053748E0,5.1068673E0,1.1108496E0,3.1028938E-1,4.432627E0,-1.06996E0,5.3419393E-1,-1.2366707E-2,-7.916964E-1,3.261797E0,4.3656155E-1],"categories":[],"categories_nodes":[],"categories_segments":[],"categories_sizes":[],"default_left":[0,0,0,0,0,0,0,0,0,0,0,0,0,0,0,0,0,0,0,0,0,0,0,0,0,0,0,0,0,0,0,0,0,0,0,0,0,0,0,0,0,0,0,0,0,0,0,0,0,0,0,0,0,0,0,0,0,0,0,0,0,0,0,0,0,0,0,0,0,0,0,0,0,0,0,0,0,0,0,0,0,0,0,0,0,0,0,0,0,0,0,0,0,0,0,0,0,0,0,0,0,0,0,0,0,0,0,0,0],"id":24,"left_children":[1,3,5,7,9,11,13,15,17,19,21,23,25,27,29,31,33,35,37,39,41,43,45,47,49,51,53,55,-1,57,59,61,63,65,67,69,71,-1,73,75,77,79,81,83,85,-1,87,-1,-1,89,91,-1,-1,93,95,97,99,101,103,105,107,-1,-1,-1,-1,-1,-1,-1,-1,-1,-1,-1,-1,-1,-1,-1,-1,-1,-1,-1,-1,-1,-1,-1,-1,-1,-1,-1,-1,-1,-1,-1,-1,-1,-1,-1,-1,-1,-1,-1,-1,-1,-1,-1,-1,-1,-1,-1,-1],"loss_changes":[3.9455208E1,4.916878E1,1.4557452E2,1.7217517E2,7.860588E2,3.0147006E2,6.226857E2,1.5971579E2,1.4632109E2,9.987794E2,7.605757E1,3.8886237E2,1.8492404E2,4.8886835E2,1.3134889E2,1.3567331E2,1.8480168E2,5.5136476E0,8.149066E1,5.3505444E2,5.4225098E1,2.6286404E2,1.6002177E3,2.4111023E0,1.9867767E2,1.0161226E2,1.4733514E2,4.859193E2,0E0,7.9275757E2,3.3145184E2,1.5878206E2,1.5019989E1,2.7353134E1,4.0999588E2,6.1483844E-3,1.1070558E1,0E0,2.3768097E1,3.0290856E0,6.0092163E2,2.3151466E2,2.9719946E2,3.786196E2,1.9019977E2,0E0,2.6285602E2,0E0,0E0,3.2446087E1,8.821796E1,0E0,0E0,7.1673645E1,2.3732117E2,4.236474E1,2.7385083E2,9.140575E2,4.2385034E2,3.6050392E1,2.5562164E2,0E0,0E0,0E0,0E0,0E0,0E0,0E0,0E0,0E0,0E0,0E0,0E0,0E0,0E0,0E0,0E0,0E0,0E0,0E0,0E0,0E0,0E0,0E0,0E0,0E0,0E0,0E0,0E0,0E0,0E0,0E0,0E0,0E0,0E0,0E0,0E0,0E0,0E0,0E0,0E0,0E0,0E0,0E0,0E0,0E0,0E0,0E0,0E0],"parents":[2147483647,0,0,1,1,2,2,3,3,4,4,5,5,6,6,7,7,8,8,9,9,10,10,11,11,12,12,13,13,14,14,15,15,16,16,17,17,18,18,19,19,20,20,21,21,22,22,23,23,24,24,25,25,26,26,27,27,29,29,30,30,31,31,32,32,33,33,34,34,35,35,36,36,38,38,39,39,40,40,41,41,42,42,43,43,44,44,46,46,49,49,50,50,53,53,54,54,55,55,56,56,57,57,58,58,59,59,60,60],"right_children":[2,4,6,8,10,12,14,16,18,20,22,24,26,28,30,32,34,36,38,40,42,44,46,48,50,52,54,56,-1,58,60,62,64,66,68,70,72,-1,74,76,78,80,82,84,86,-1,88,-1,-1,90,92,-1,-1,94,96,98,100,102,104,106,108,-1,-1,-1,-1,-1,-1,-1,-1,-1,-1,-1,-1,-1,-1,-1,-1,-1,-1,-1,-1,-1,-1,-1,-1,-1,-1,-1,-1,-1,-1,-1,-1,-1,-1,-1,-1,-1,-1,-1,-1,-1,-1,-1,-1,-1,-1,-1,-1],"split_conditions":[5E0,4.2E1,1.2E1,4E1,4.5E1,5E0,1.6E1,3.3208178E6,3E0,1.3021194E4,2.7339469E4,1.7544554E3,7.8281616E2,6.454447E5,5.7E1,2.2994922E6,3E0,7.5801056E2,9.6663074E2,4E0,3E0,2.0392129E4,2.8133818E4,7.5801056E2,2E0,4.1395383E2,1.0091189E5,1.8491691E3,-2.702183E0,3.5947334E3,3.7481548E3,1.6927218E6,3E0,3.7451922E6,2.2E1,2.7686163E2,9.801771E4,-1.1710289E-1,4.1E1,3E0,8.605115E2,4.3E1,4.3E1,1.8570832E4,1.25E2,6.975325E0,6.520504E4,-4.542801E-1,-1.0084103E0,1.9219272E3,2.159756E3,-1.3495062E-1,2.4535058E0,1.5061358E4,5.0305966E5,4.6669873E2,1.0091189E5,2.4644067E3,2.8095078E5,7.1648114E2,5.8E1,-6.871301E-2,1.0331697E0,-1.6180197E0,-5.799827E-1,-1.2202691E0,1.6711771E-1,3.5565537E-1,5.716505E0,-8.547834E-3,1.1890497E-2,9.518743E-1,-1.4874241E-1,-2.5437489E0,-1.1153611E0,-3.2426964E-2,-2.6428726E-1,-4.6893284E-1,4.7599783E0,3.9754012E0,-9.185789E-1,6.924324E-1,7.4629E0,-1.0598373E-1,1.6834908E0,-1.4576739E0,3.0957314E-1,5.076481E-1,-1.390852E-1,6.6584617E-1,-1.0579258E0,5.0237775E0,1.6750071E0,-9.842687E-1,-2.2470438E0,1.1162994E0,-2.1517065E0,-3.9452478E-1,1.0053748E0,5.1068673E0,1.1108496E0,3.1028938E-1,4.432627E0,-1.06996E0,5.3419393E-1,-1.2366707E-2,-7.916964E-1,3.261797E0,4.3656155E-1],"split_indices":[2,0,0,0,0,0,0,1,2,1,1,1,1,1,0,1,2,1,1,2,2,1,1,1,0,1,1,1,0,1,1,1,2,1,0,1,1,0,0,2,1,0,0,1,0,0,1,0,0,1,1,0,0,1,1,1,1,1,1,1,0,0,0,0,0,0,0,0,0,0,0,0,0,0,0,0,0,0,0,0,0,0,0,0,0,0,0,0,0,0,0,0,0,0,0,0,0,0,0,0,0,0,0,0,0,0,0,0,0],"split_type":[0,0,0,0,0,0,0,0,0,0,0,0,0,0,0,0,0,0,0,0,0,0,0,0,0,0,0,0,0,0,0,0,0,0,0,0,0,0,0,0,0,0,0,0,0,0,0,0,0,0,0,0,0,0,0,0,0,0,0,0,0,0,0,0,0,0,0,0,0,0,0,0,0,0,0,0,0,0,0,0,0,0,0,0,0,0,0,0,0,0,0,0,0,0,0,0,0,0,0,0,0,0,0,0,0,0,0,0,0],"sum_hessian":[1.679E3,1.373E3,3.06E2,6.64E2,7.09E2,4.8E1,2.58E2,6.46E2,1.8E1,3.2E1,6.77E2,1.5E1,3.3E1,1.5E1,2.43E2,6.37E2,9E0,6E0,1.2E1,2.7E1,5E0,3.63E2,3.14E2,8E0,7E0,5E0,2.8E1,1.4E1,1E0,1.09E2,1.34E2,6.29E2,8E0,4E0,5E0,4E0,2E0,3E0,9E0,2E1,7E0,2E0,3E0,3.36E2,2.7E1,2E0,3.12E2,6E0,2E0,2E0,5E0,4E0,1E0,2.1E1,7E0,6E0,8E0,3.1E1,7.8E1,2.9E1,1.05E2,6.18E2,1.1E1,4E0,4E0,1E0,3E0,4E0,1E0,3E0,1E0,1E0,1E0,4E0,5E0,1E1,1E1,3E0,4E0,1E0,1E0,1E0,2E0,3.26E2,1E1,2E1,7E0,7.3E1,2.39E2,1E0,1E0,1E0,4E0,1.3E1,8E0,5E0,2E0,3E0,3E0,5E0,3E0,2.6E1,5E0,5.9E1,1.9E1,7E0,2.2E1,2E0,1.03E2],"tree_param":{"num_deleted":"0","num_feature":"3","num_nodes":"109","size_leaf_vector":"1"}},{"base_weights":[4.171661E-2,1.1445814E-2,9.35873E-1,1.0542733E-1,-3.5937318E-1,1.4999287E-1,2.3036635E0,2.9441783E-2,4.5112505E0,-3.3651276E0,9.221849E-2,-3.951594E-1,6.2783875E0,1.2541337E1,4.6940318E-1,9.698945E-2,-2.3017707E0,5.893066E-1,8.3796215E0,-1.8067722E0,-5.881929E0,4.1700935E0,-1.3217838E-1,5.192224E-1,-3.0050535E0,5.1940155E-1,2.305873E0,3.684294E-1,5.2751727E0,-5.345259E0,2.5125396E0,-1.43578695E-2,2.92836E0,3.395851E-1,-4.9619923E0,3.0284111E0,-5.0460052E0,2.0704963E0,1.1689051E1,-3.028188E0,4.4173775E0,-6.8435764E0,-1.2860916E0,6.5302837E-1,9.336853E0,4.7631264E-2,-9.760284E-1,-1.0066469E0,2.5529575E0,-2.7711806E0,-2.0629396E0,1.2535726E1,-2.0263536E-1,1.7391908E-3,-1.20383E0,5.9139226E-2,2.462339E0,1.6726065E-2,5.504307E-1,-1.9591662E0,-4.6925223E-1,2.7256078E-1,2.9981122E0,-2.62215E0,-2.703022E-1,-9.859484E-2,1.1338431E0,4.983557E0,1.1531947E0,3.7772283E-1,-1.1845784E0,3.8940537E0,-2.905103E-1,-6.915064E-1,-2.58138E0,-1.5133618E0,1.4983876E0,5.104853E-1,-7.082658E-1,-1.5868016E0,3.9959881E0,-6.780363E-2,1.1735846E0,-1.6258997E0,-2.5551515E-2,1.3022286E0,-6.8417513E-1,1.8245758E0,1.5995431E-1,5.5466133E-1,-1.1949501E0,6.8344575E-1,4.957631E0,-7.2504616E-1,1.448982E0],"categories":[],"categories_nodes":[],"categories_segments":[],"categories_sizes":[],"default_left":[0,0,0,0,0,0,0,0,0,0,0,0,0,0,0,0,0,0,0,0,0,0,0,0,0,0,0,0,0,0,0,0,0,0,0,0,0,0,0,0,0,0,0,0,0,0,0,0,0,0,0,0,0,0,0,0,0,0,0,0,0,0,0,0,0,0,0,0,0,0,0,0,0,0,0,0,0,0,0,0,0,0,0,0,0,0,0,0,0,0,0,0,0,0,0],"id":25,"left_children":[1,3,5,7,9,11,13,15,17,19,21,23,25,27,29,31,33,35,37,39,41,43,45,47,-1,-1,-1,-1,-1,49,51,53,55,57,59,61,63,65,67,69,71,73,75,77,79,81,83,85,87,-1,89,91,93,-1,-1,-1,-1,-1,-1,-1,-1,-1,-1,-1,-1,-1,-1,-1,-1,-1,-1,-1,-1,-1,-1,-1,-1,-1,-1,-1,-1,-1,-1,-1,-1,-1,-1,-1,-1,-1,-1,-1,-1,-1,-1],"loss_changes":[4.546155E1,5.6704205E1,5.877503E1,4.3441022E2,4.4688626E2,1.2275367E2,3.6968423E2,2.0130984E2,3.2883554E2,1.5802176E2,2.631741E2,3.0432938E2,5.89727E0,1.4954861E2,2.2727284E2,3.9160184E2,2.5464233E2,1.8022275E2,2.0547345E2,2.262403E2,6.1911804E1,2.6648022E2,4.146942E1,1.0187277E2,0E0,0E0,0E0,0E0,0E0,4.481816E1,3.8354602E2,9.640725E1,6.7609143E2,7.960931E0,8.571942E1,1.2381039E2,5.3379425E1,2.1742586E1,2.0648248E2,9.967621E1,2.4315492E2,8.4068665E1,1.1961855E2,3.5620907E1,4.1999988E2,2.3986664E2,1.895533E2,1.3933243E2,9.654523E1,0E0,3.741062E1,8.51268E1,1.4538974E2,0E0,0E0,0E0,0E0,0E0,0E0,0E0,0E0,0E0,0E0,0E0,0E0,0E0,0E0,0E0,0E0,0E0,